tree
version=v4
num_class=1
num_tree_per_iteration=1
label_index=0
max_feature_idx=7
objective=binary sigmoid:1
feature_names=EMA_Fast EMA_Slow Trend_Dist RSI ATR Ret_1 Ret_2 Ret_3
feature_infos=[1384.5261288644263:1680.1544563274872] [1394.1469589628643:1657.9672560567819] [-0.024501335109637951:0.037870887038437398] [4.8485341698232247:93.048829686353258] [3.2642909458705356:10.21429443359375] [-0.017295613202179205:0.028532990857377261] [-0.019479701841396024:0.033445458392917127] [-0.020745477494873321:0.036232308428179039]
tree_sizes=2197 2248 2257 2254 2234 2263 2233 2263 2273 2245 2255 2248 2228 2231 2237 2243 2252 2233 2235 2231 2233 2254 2240 2253 2240 2248 2259 2241 2242 2246 2237 2241 2246 2244 2249 2243 2253 2249 2248 2241 2254 2272 2250 2258 2269 2249 2229 2249 2263 2290 2263 2243 2263 2266 2243 2275 2248 2257 2247 2253 2262 2247 2262 2241 2255 2230 2242 2266 2268 2248 2253 2252 2253 2248 2239 2261 2260 2273 2245 2261 2264 2251 2271 2263 2265 2245 2258 2275 2249 2272 2250 2272 2264 2246 2282 2255 2252 2285 2276 2258 2283 2267 2280 2244 2236 2260 2264 2257 2255 2282 2256 2259 2265 2251 2261 2276 2267 2269 2271 2264 2285 2274 2277 2267 2269 2279 2264 2267 2301 2266 2281 2273 2260 2277 2277 2276 2274 2271 2274 2270 2274 2278 2262 2253 2274 2256 2292 2296 2262 2254

Tree=0
num_leaves=20
num_cat=0
split_feature=6 0 7 6 0 1 5 5 3 7 3 2 0 1 5 4 4 3 1
split_gain=13.8522 9.92803 10.1401 10.1185 8.92409 7.30666 6.25316 7.61416 5.6437 5.71941 4.8683 10.2176 6.26367 4.50525 4.38176 4.27924 3.67369 4.77934 3.8333
threshold=0.0085490199861095757 1633.3147096393739 -0.0030597806796925915 -0.0046106433072307098 1540.8040607498904 1630.4872770897312 0.0018934601860988167 0.0029368003928398338 35.785403924451124 -0.0022410174045752736 40.708200358771649 -0.0010736713136663076 1473.4432894901977 1524.4692158537978 -0.00024967569670475415 6.8892953055245547 6.0535845075334835 53.707422290807841 1531.6675052023468
decision_type=2 2 2 2 2 2 2 2 2 2 2 2 2 2 2 2 2 2 2
left_child=1 2 3 13 -5 -3 8 -8 14 -10 -11 -12 -13 -1 -4 16 17 -14 -19
right_child=-2 5 6 4 -6 -7 7 -9 9 10 11 12 15 -15 -16 -17 -18 18 -20
leaf_value=-0.82544055332260702 -0.71774490986564565 -0.85865509756634273 -0.84971272026995237 -0.75532095991916481 -0.6726536498014225 -0.79027221235865153 -0.852842552323689 -0.79101820747000806 -0.8354049165957278 -0.72579692059139977 -0.82695030533368596 -0.73016725536031235 -0.74240419271326763 -0.76177934352211341 -0.78711607919521953 -0.81713691726167303 -0.74240419271326763 -0.82658588243445996 -0.77561873695700334
leaf_weight=6.0214583277702349 7.0967187434434882 8.3870312422513944 5.5913541615009308 13.548281237483026 4.3010416626930228 7.3117708265781394 8.6020833253860491 11.827864572405813 4.3010416626930157 4.5160937458276811 9.4622916579246432 8.1719791591167503 5.591354161500937 5.1612499952316284 5.591354161500929 6.0214583277702323 8.1719791591167432 6.2365104109048835 9.032187491655348
leaf_count=28 33 39 26 63 20 34 40 55 20 21 44 38 26 24 26 28 38 29 42
internal_value=-0.785869 -0.789376 -0.784566 -0.758765 -0.735401 -0.826806 -0.79261 -0.81705 -0.78574 -0.7798 -0.775619 -0.779889 -0.769587 -0.796058 -0.818414 -0.778777 -0.770821 -0.781953 -0.796436
internal_weight=144.945 137.848 122.15 29.032 17.8493 15.6988 93.1176 20.4299 72.6876 61.5049 57.2039 52.6878 43.2255 11.1827 11.1827 35.0535 29.032 20.8601 15.2687
internal_count=674 641 568 135 83 73 433 95 338 286 266 245 201 52 52 163 135 97 71
is_linear=0
shrinkage=1


Tree=1
num_leaves=20
num_cat=0
split_feature=6 0 7 6 0 1 5 5 3 5 7 6 0 3 2 5 6 4 3
split_gain=12.2075 9.11415 9.07741 8.9057 7.50549 6.91468 5.72613 7.16265 5.16503 5.42748 5.17721 5.60036 12.8505 7.51851 6.02096 4.58222 5.80147 4.34397 4.17461
threshold=0.0085490199861095757 1633.3147096393739 -0.0030597806796925915 -0.0046106433072307098 1540.8040607498904 1630.4872770897312 0.0018934601860988167 0.0029368003928398338 34.745027450484869 -0.00024967569670475415 -0.0022410174045752736 -0.00053312992808968163 1527.3804157005691 54.758058171577481 0.014157604695186938 0.00064879644473803133 0.00066358947183942096 5.7892761230468759 63.696549647418102
decision_type=2 2 2 2 2 2 2 2 2 2 2 2 2 2 2 2 2 2 2
left_child=1 2 3 -1 -5 -3 8 -8 9 -4 -10 12 13 -12 15 16 -13 -17 -18
right_child=-2 5 6 4 -6 -7 7 -9 10 -11 11 14 -14 -15 -16 17 18 -19 -20
leaf_value=-0.0097291152722551941 0.063112189997621262 -0.071186579135986791 -0.071376888436717953 0.028688220384680316 0.10327367727730152 -0.0041902170583226267 -0.065344452271936734 -0.0049015252775525663 -0.047987709717519783 0.0016775280537460642 0.1149788080306974 -0.065409208910793812 -0.01256737035719678 0.030309932270879931 0.030358483523942194 0.038674065657228356 -0.032530555386494929 -0.026548422788229109 0.031495158742119223
leaf_weight=11.138331174850466 7.2724763453006736 8.152657672762869 4.8253308832645416 13.701149180531504 4.4744905829429618 7.2997128069400778 8.3813363313674945 11.805047914385794 4.2199021577835003 5.3737938404083234 4.7765174657106346 6.8655248284340109 9.0793585479259473 5.8126680254936218 10.614357158541678 6.2631411850452405 6.2227495908737165 4.309442326426506 4.30881167948246
leaf_count=52 33 39 23 63 20 34 40 55 20 25 22 32 42 27 49 29 29 20 20
internal_value=-2.12721e-05 -0.00335743 0.00121864 0.0254757 0.0470497 -0.0395374 -0.00643897 -0.0299973 0.000104952 -0.0328854 0.00549089 0.00936496 0.0310789 0.068502 -0.0017039 -0.0138714 -0.0296481 0.012089 -0.00633551
internal_weight=144.897 137.624 122.172 29.314 18.1756 15.4524 92.858 20.1864 72.6716 10.1991 62.4725 58.2526 19.6685 10.5892 38.584 27.9697 17.3971 10.5726 10.5316
internal_count=674 641 568 135 83 73 433 95 338 48 290 270 91 49 179 130 81 49 49
is_linear=0
shrinkage=0.05


Tree=2
num_leaves=20
num_cat=0
split_feature=6 0 7 6 1 0 5 5 3 7 4 2 6 5 5 6 4 1 5
split_gain=10.7985 8.37206 8.14328 7.86599 6.55912 6.41299 5.24346 6.74947 4.734 4.78952 4.25638 5.38641 6.65222 8.02589 4.87403 7.49811 4.26165 4.12345 4.04481
threshold=0.0085490199861095757 1633.3147096393739 -0.0030597806796925915 -0.0046106433072307098 1630.4872770897312 1540.8040607498904 0.0018934601860988167 0.0029368003928398338 35.785403924451124 -0.0022410174045752736 7.0464433942522335 0.014157604695186938 -0.00052578781498818772 -0.00052506312664640775 0.00064879644473803133 0.00066358947183942096 6.0249982561383932 1524.4692158537978 -0.00044292281960878194
decision_type=2 2 2 2 2 2 2 2 2 2 2 2 2 2 2 2 2 2 2
left_child=1 2 3 17 -3 -5 8 -8 -4 -10 11 12 13 -11 15 -14 -13 -1 -17
right_child=-2 4 6 5 -6 -7 7 -9 9 10 -12 16 14 -15 -16 18 -18 -19 -20
leaf_value=-0.037840000453560903 0.05868709891123447 -0.069730811893093284 -0.030278899721025317 0.026970819667406883 -0.0039871608345548315 0.095028073919896608 -0.063832121346180784 -0.0046652891061701026 -0.046506547457455111 0.0045878175858256173 -0.034136365263023619 0.0063287184654524367 -0.071327536872140593 0.079425788073289705 0.016890110937898616 0.032551798178086011 0.070018719260895965 0.023245529725372305 -0.032134020605943163
leaf_weight=5.9084120988845843 7.4256282448768607 7.9127980917692167 10.912538915872572 13.841166257858278 7.2881999313831329 4.615689516067504 8.1566280126571673 11.783245056867598 4.1386693716049114 10.224869787693022 5.1624074876308432 4.3677667826414091 6.0732962042093446 5.514743447303764 9.9714820832014066 4.7381368428468598 6.5881812870502472 5.1888055801391602 4.9325177818536847
leaf_count=28 33 39 52 63 34 20 40 55 20 47 24 20 29 25 46 22 30 24 23
internal_value=-4.14102e-05 -0.00321719 0.00113859 0.0239889 -0.0382097 0.0439906 -0.00615708 -0.0288681 7.84826e-05 0.00544658 0.00918123 0.013448 0.00520762 0.0308091 -0.0104622 -0.0277859 0.0446277 -0.0092778 -0.000441206
internal_weight=144.745 137.32 122.119 29.5541 15.201 18.4569 92.5645 19.9399 72.6246 61.7121 57.5734 52.411 41.455 15.7396 25.7154 15.744 10.9559 11.0972 9.67065
internal_count=674 641 568 135 73 83 433 95 338 286 266 242 192 72 120 74 50 52 45
is_linear=0
shrinkage=0.05


Tree=3
num_leaves=20
num_cat=0
split_feature=6 0 7 6 1 0 5 5 3 5 7 6 0 3 2 5 6 7 4
split_gain=9.58185 7.69531 7.31406 6.97172 6.23473 5.55129 4.80367 6.3695 4.3189 5.19046 4.33953 4.55795 11.0008 6.25297 4.8642 3.82695 5.11162 4.05689 3.8447
threshold=0.0085490199861095757 1633.3147096393739 -0.0030597806796925915 -0.0046106433072307098 1630.4872770897312 1540.8040607498904 0.0018934601860988167 0.0029368003928398338 34.745027450484869 -0.00024967569670475415 -0.0022410174045752736 -0.00053312992808968163 1527.3804157005691 61.845782007920882 0.014157604695186938 0.00064879644473803133 0.00066358947183942096 0.0020077818216951431 5.7892761230468759
decision_type=2 2 2 2 2 2 2 2 2 2 2 2 2 2 2 2 2 2 2
left_child=1 2 3 -1 -3 -5 8 -8 9 -4 -10 12 13 -12 15 16 -13 -18 -17
right_child=-2 4 6 5 -6 -7 7 -9 10 -11 11 14 -14 -15 -16 18 17 -19 -20
leaf_value=-0.0088600986495272968 0.05474452811022993 -0.068401834961101055 -0.069310609073393134 0.025380678018022858 -0.0037936734059157082 0.088056017761304964 -0.062422210810147684 -0.0044400828656061975 -0.045085434059489504 0.003133813389895994 0.095127803179790138 -0.062293296866833561 -0.012889570663348133 0.018984485632235062 0.026717538586498519 0.035265505378163128 0.031308650206471465 -0.031890293808007585 -0.025957263499120337
leaf_weight=11.051763117313387 7.558773770928382 7.6693801581859571 4.6226854920387268 13.969499364495279 7.2772114276885986 4.7289589047431937 7.929592132568362 11.762417480349539 4.0577441453933636 5.3156215697526914 6.1092430502176231 6.5188384056091513 9.0998162478208524 4.8263346254825592 10.837790101766585 6.384664371609686 4.3113684058189374 6.1780046969652176 4.2856263816356659
leaf_count=52 33 39 23 63 34 20 40 55 20 25 27 32 42 22 49 29 20 29 20
internal_value=-5.81522e-05 -0.00308321 0.00106568 0.0226233 -0.0369453 0.0412317 -0.00588733 -0.0277884 5.73781e-05 -0.0305628 0.00491788 0.0083832 0.0277255 0.0615225 -0.00167827 -0.0127969 -0.0275229 -0.00591411 0.0106759
internal_weight=144.495 136.937 121.99 29.7502 14.9466 18.6985 92.2397 19.692 72.5477 9.93831 62.6094 58.5517 20.0354 10.9356 38.5163 27.6785 17.0082 10.4894 10.6703
internal_count=674 641 568 135 73 83 433 95 338 48 290 270 91 49 179 130 81 49 49
is_linear=0
shrinkage=0.05


Tree=4
num_leaves=20
num_cat=0
split_feature=6 4 5 1 6 1 2 3 0 0 0 2 0 4 2 7 4 4 6
split_gain=8.52513 7.13742 5.35197 5.70325 4.29267 4.15182 4.06804 9.40616 8.19722 7.02023 5.4934 6.26295 4.62453 4.60581 6.91095 3.80557 3.7659 3.86111 3.62612
threshold=0.0085490199861095757 7.0464433942522335 0.0018934601860988167 1625.8441401521202 0.0032052531301334235 1630.4872770897312 -0.0010736713136663076 42.343907680996203 1493.0976845964626 1529.9231711646764 1475.2048441067921 0.0045122904998072862 1436.6435832392185 5.5107334681919644 0.0084275320425460602 0.0040404300203087393 4.9321419852120547 4.6535731724330374 -1.0000000180025095e-35
decision_type=2 2 2 2 2 2 2 2 2 2 2 2 2 2 2 2 2 2 2
left_child=1 2 3 6 -4 -5 7 8 16 -10 -8 -12 -9 18 -15 -6 17 -1 -13
right_child=-2 -3 4 5 15 -7 10 12 9 -11 11 13 -14 14 -16 -17 -18 -19 -20
leaf_value=-0.021757299742805242 0.051204164142067049 -0.033325346988324789 -0.047926392380934324 -0.054220613431168622 0.035923257666881939 0.0094639618751765214 0.057466788343942844 -0.0073009991021585376 0.085740334011213545 0.0048447462076197162 0.038667176791610018 0.0012085471246395757 -0.071653175407280376 -0.030146040269075022 0.035227747234436182 -0.027013223956533029 -0.049625091212678565 0.038445382494833757 -0.0547873289008085
leaf_weight=5.8059689551591891 7.6742083579301825 16.945093855261803 9.0505904257297534 6.3775949627161008 4.1854244619607908 4.2745444178581238 7.863518461585044 5.3338316082954389 5.6348214447498304 5.1176377683877945 14.94269087910652 6.0241683125495911 5.8578315824270248 5.9229476153850582 12.734740644693373 5.6365765631198883 4.2780155539512625 4.920349046587944 5.5591021478176135
leaf_count=27 33 81 45 32 20 20 35 25 26 24 68 28 28 28 58 27 20 23 26
internal_value=-7.29079e-05 -0.0029565 0.00134907 0.00593069 -0.0230848 -0.0286649 0.0100255 -0.00271199 0.0139175 0.047238 0.0188975 0.0121851 -0.0409836 -0.000900271 0.0144746 -0.00019426 -0.00996075 0.00585872 -0.0256653
internal_weight=144.14 136.465 119.52 100.648 18.8726 10.6521 89.9956 36.9485 25.7568 10.7525 53.0472 45.1836 11.1917 30.241 18.6577 9.822 15.0043 10.7263 11.5833
internal_count=674 641 560 468 92 52 416 173 120 50 243 208 53 140 86 47 70 50 54
is_linear=0
shrinkage=0.05


Tree=5
num_leaves=20
num_cat=0
split_feature=6 0 7 1 1 7 5 5 5 3 7 6 2 0 6 4 3 5 2
split_gain=7.60185 6.69331 6.43882 6.24601 5.8241 5.54374 4.21334 3.99891 5.97862 4.0087 3.92374 4.57121 4.03316 5.7883 8.21308 4.61167 5.30523 3.71054 3.53543
threshold=0.0085490199861095757 1633.3147096393739 -0.0030597806796925915 1515.2631534896298 1630.4872770897312 -0.0043271571363516217 -0.0022744688748348447 0.0018934601860988167 0.0029368003928398338 35.785403924451124 -0.0021583919391914281 -0.0019450139838635969 -0.0015431820383083768 1496.7495759530036 0.0014860118960848825 5.1714346749441971 70.755590121771476 -0.00024967569670475415 -0.0051789784931877475
decision_type=2 2 2 2 2 2 2 2 2 2 2 2 2 2 2 2 2 2 2
left_child=1 2 3 5 -3 -1 -5 9 -9 17 -11 -12 18 14 -14 -15 -17 -4 -13
right_child=-2 4 7 6 -6 -7 -8 8 -10 10 11 12 13 15 -16 16 -18 -19 -20
leaf_value=-0.016437955157300711 0.048003113311180262 -0.066513945958050352 -0.059070415537936294 0.0088130408530732608 -0.0031753434192343744 0.048740224204198997 0.067811678007075979 -0.060423840332765925 -0.0033743663973092304 -0.038589816985180388 0.046414009010596502 0.0039849138233798024 0.063906778086262606 0.038031667251766876 -0.0087881875644461038 -0.035999916915477381 0.016848729999332065 -8.8975511359105743e-05 -0.058782978109362227
leaf_weight=12.302797928452494 7.7739623934030524 7.2763974815607053 5.1411330550909042 4.69559721648693 7.2411942481994629 4.4397158324718502 8.5111379623413068 7.5760096311569241 11.66090579330921 4.8261815905570904 6.9327718615531841 4.5048549324274063 9.2263691872358518 4.9433243423700359 6.7119540721178046 12.464067503809931 7.6715144366025916 5.5398673564195615 4.4689056873321444
leaf_count=57 33 39 26 21 34 20 37 40 55 24 31 21 41 23 30 59 35 26 22
internal_value=-8.6297e-05 -0.00283244 0.000998066 0.0211256 -0.0349214 0.000845745 0.046835 -0.00557791 -0.025842 -0.000195983 0.00469614 0.00836607 0.00308956 0.00973236 0.0332934 -0.00524135 -0.015865 -0.0284788 -0.0272733
internal_weight=143.909 136.135 121.617 29.9492 14.5176 16.7425 13.2067 91.6679 19.2369 72.4309 61.7499 56.9238 49.991 41.0172 15.9383 25.0789 20.1356 10.681 8.97376
internal_count=674 641 568 135 73 77 58 433 95 338 286 262 231 188 71 117 94 52 43
is_linear=0
shrinkage=0.05


Tree=6
num_leaves=20
num_cat=0
split_feature=6 4 3 3 7 0 3 3 7 2 0 4 4 3 6 4 4 5 3
split_gain=6.79228 6.36474 4.48782 8.24784 5.34594 3.62752 3.49124 7.28188 5.20319 4.72264 7.937 4.6955 4.18544 5.78914 4.9639 3.11057 2.92431 6.78486 2.89681
threshold=0.0085490199861095757 7.0464433942522335 76.068771026384823 70.475889184605947 0.0036368855960227102 1498.1481931229875 26.668665222026181 42.809671577806817 -0.0019632363845767382 0.0018947196848556594 1488.6614239016876 4.6857169015066971 5.5214364188058047 35.785403924451124 -0.0012121811899400978 5.5964529854910721 5.9214346749441971 -1.0000000180025095e-35 77.303256517800449
decision_type=2 2 2 2 2 2 2 2 2 2 2 2 2 2 2 2 2 2 2
left_child=1 2 3 4 6 -6 8 12 11 15 -11 -1 13 -8 -14 -9 -12 -18 -3
right_child=-2 18 -4 -5 5 -7 7 9 -10 10 16 -13 14 -15 -16 -17 17 -19 -20
leaf_value=-0.039048970041002891 0.045091401984457713 -0.043452321737796881 -0.025772614932273126 0.048402378167299989 -0.0059316549923179411 -0.060955901567638172 -0.024891058238735768 -0.001007356551144118 -0.058787406650902645 0.069170158338579799 -0.013963106035384041 0.026392950485458855 0.095462776005282732 0.047473261144463791 0.026312679639493294 -0.046041177344317542 -0.024877843393570638 0.061946040885000789 0.005434799346984636
leaf_weight=4.3275345861911791 7.8598380982875815 12.619638159871103 13.538484781980513 9.8372575640678388 6.6431167870759946 5.4548470824956894 5.3780983090400714 7.5014555156230909 4.9234547168016425 4.7772446423769024 16.044554546475414 7.4765537977218628 4.5819856226444244 5.6856117099523544 5.9853456616401655 7.8439422845840454 4.2044039219617844 4.8407812565565091 3.9877124875783911
leaf_count=20 33 61 63 46 31 27 26 35 25 21 76 35 20 26 28 38 20 23 20
internal_value=-9.83939e-05 -0.00271674 0.00132848 0.00480607 0.000323238 -0.0307415 0.00482026 0.00993259 -0.0156087 -0.00148232 0.0101008 0.00240108 0.0337916 0.0122968 0.0562961 -0.0240268 -0.00114633 0.0215884 -0.0317137
internal_weight=143.512 135.652 119.045 105.506 95.6689 12.098 83.571 66.8434 16.7275 45.2124 29.867 11.8041 21.631 11.0637 10.5673 15.3454 25.0897 9.04519 16.6074
internal_count=674 641 560 497 451 58 393 313 80 213 140 55 100 52 48 73 119 43 81
is_linear=0
shrinkage=0.05


Tree=7
num_leaves=20
num_cat=0
split_feature=6 0 5 7 6 0 5 5 3 2 2 0 6 5 2 1 3 1 3
split_gain=6.07864 6.22762 6.73289 5.52712 5.7123 3.73957 3.70664 6.68688 3.7075 5.24332 7.72792 4.87643 8.44081 4.58013 3.34324 9.57108 5.84285 5.18841 5.78849
threshold=0.0085490199861095757 1635.9008431785921 0.00018082510315242664 -0.0030597806796925915 -0.0046106433072307098 1540.8040607498904 0.0019942930579027744 0.0029368003928398338 34.745027450484869 -0.0087740722643228405 -0.0015431820383083768 1473.4432894901977 0.0013709829708418166 -0.00024967569670475415 0.0056496423387980364 1540.1087645862524 54.42577868370757 1531.6675052023468 75.384044311346415
decision_type=2 2 2 2 2 2 2 2 2 2 2 2 2 2 2 2 2 2 2
left_child=1 3 -3 4 -1 -6 8 -8 13 -10 -11 12 -12 -5 15 -13 -16 18 -18
right_child=-2 2 -4 6 5 -7 7 -9 9 10 11 14 -14 -15 16 -17 17 -19 -20
leaf_value=-0.0094036388752312891 0.042428818462058475 -0.067943880874169346 0.011586115918670349 -0.06649043828169772 0.022524622417237829 0.072640585785431172 -0.065896648598631466 -0.0027935955267958737 0.055475222087128351 -0.046004269052370782 0.085368016520666959 0.08045747810561274 -0.0097505055291065307 0.0017949072933624898 -0.060983599421279872 -0.0061324945855831762 0.0074489079778584412 0.032387455379712264 -0.055798117755871193
leaf_weight=11.068852305412294 7.9334350973367682 7.0822573155164701 4.2631070911884308 4.4690829366445541 14.172788813710214 5.0481017231941214 6.578870207071307 11.601484686136244 4.5717077255248944 7.9531153589486996 4.8510376662016039 4.4413543045520774 4.4921540319919586 5.4505372792482358 4.7636949717998531 11.338294208049772 9.2206399887800234 8.004137843847273 5.9534071236848822
leaf_count=52 33 37 21 24 63 21 36 55 21 39 21 20 20 26 23 54 43 37 28
internal_value=-0.000108635 -0.0026024 -0.0380599 0.000642318 0.0192094 0.0356869 -0.00536039 -0.0256285 -0.000480429 0.00382822 -4.13855e-05 0.00684734 0.0396356 -0.0289697 -0.000159434 0.0182392 -0.0105497 -0.000184292 -0.0173655
internal_weight=143.258 135.325 11.3454 123.979 30.2897 19.2209 93.6895 18.1804 75.5092 65.5895 61.0178 53.0647 9.34319 9.91962 43.7215 15.7796 27.9419 23.1782 15.174
internal_count=674 641 58 583 136 84 447 91 356 306 285 246 41 50 205 74 131 108 71
is_linear=0
shrinkage=0.05


Tree=8
num_leaves=20
num_cat=0
split_feature=6 0 5 7 6 5 5 3 7 6 6 6 2 7 4 2 4 5 1
split_gain=5.44911 5.73714 6.37018 4.98315 5.09961 3.39969 5.51869 3.49893 3.85367 4.62668 3.59726 11.0507 3.51076 4.18866 6.42499 6.13775 8.64373 3.46005 3.35167
threshold=0.0085490199861095757 1635.9008431785921 0.00018082510315242664 -0.0030597806796925915 -0.0046106433072307098 0.0018934601860988167 0.0029368003928398338 35.785403924451124 -0.0021583919391914281 -0.0019450139838635969 -0.0010158896492113987 -0.00066893644606952341 -0.0010736713136663076 0.00020875196386338504 6.8892953055245547 0.0071613557545181896 5.7321384974888403 0.00058652760882105259 1524.4692158537978
decision_type=2 2 2 2 2 2 2 2 2 2 2 2 2 2 2 2 2 2 2
left_child=1 3 -3 4 18 7 -7 -5 -9 -10 -11 -12 -13 -14 15 17 -17 -15 -1
right_child=-2 2 -4 5 -6 6 -8 8 9 10 11 12 13 14 -16 16 -18 -19 -20
leaf_value=-0.035438875587902201 0.039982646790766491 -0.06677774939270191 0.01095206414127242 -0.026885580859757192 0.033623846295219424 -0.058204110885456156 -0.0026569207655387866 -0.038402132123239119 0.044926448673599635 -0.031546845886709723 0.076160226534522438 -0.033709352506025303 0.038347575400899531 -0.058636195684666818 -0.059699519416497364 -0.0078039689084505705 0.076299334689029052 0.0053204952581014991 0.019732139017715325
leaf_weight=5.7371376603841799 7.996175989508628 6.851488530635832 4.2838664352893829 10.629455432295797 19.375415459275246 7.2807587087154415 11.588699355721472 4.9216137826442639 7.2942127585410992 6.7844427973031918 5.1849875003099362 6.9590046107768933 7.4482451826334346 4.0949650108814293 4.3374905884265891 6.8613834828138334 5.50703164935112 4.3729873597621918 5.2921425104141235
leaf_count=28 33 37 21 54 84 41 55 25 32 31 23 35 34 20 21 32 24 20 24
internal_value=-0.000120518 -0.0024993 -0.0368744 0.000595872 0.0181743 -0.00513473 -0.0240897 -0.000327059 0.00410008 0.00765485 0.00238106 0.00752294 -0.00146831 0.0054094 -0.00433608 0.00718888 0.029643 -0.0256079 -0.00896635
internal_weight=142.802 134.805 11.1354 123.67 30.4047 93.2653 18.8695 74.3958 63.7664 58.8448 51.5505 44.7661 39.5811 32.6221 25.1739 20.8364 12.3684 8.46795 11.0293
internal_count=674 641 58 583 136 447 96 351 297 272 240 209 186 151 117 96 56 40 52
is_linear=0
shrinkage=0.05


Tree=9
num_leaves=20
num_cat=0
split_feature=7 4 2 3 2 4 1 0 2 4 5 2 7 1 2 2 1 3 1
split_gain=4.95429 6.07792 5.03903 4.05058 8.12626 5.30832 5.23904 9.43618 6.74896 7.07271 5.71374 5.46841 5.17467 6.28441 7.06496 5.70762 10.9801 3.69258 3.66676
threshold=0.014305446363788389 7.0464433942522335 0.014157604695186938 76.068771026384823 0.012452475242798905 5.6821507045200903 1448.8491614645952 1394.510052766731 -0.0066357190762352577 5.4000200544084835 -0.0037033615688006889 -0.011241149489209455 -0.0041965360423336642 1474.1717869290835 -0.0010736713136663076 0.0055364483512403886 1540.1087645862524 62.427267444918463 1524.4692158537978
decision_type=2 2 2 2 2 2 2 2 2 2 2 2 2 2 2 2 2 2 2
left_child=1 3 -3 4 6 -6 7 -1 9 -8 -10 -11 18 -14 -15 16 -16 -17 -12
right_child=-2 2 -4 -5 5 -7 8 -9 10 11 12 -13 13 14 15 17 -18 -19 -20
leaf_value=0.014615817287459559 0.049128702999626378 0.0044828184253071258 -0.051530679385882121 -0.023425303855723945 -0.0046471277003773785 0.061626037613189938 0.088365053712453567 -0.060291750286667202 -0.059478843493027705 -0.028549657948441266 0.0030150499748742162 0.051022634896427291 0.048445040355291132 -0.054993610950919807 0.066900363811610367 -0.046766281605219916 -0.0084549728912156306 0.0076085323294448311 0.065144377742482565
leaf_weight=7.907892823219302 4.9276289939880362 6.5349718183279064 10.412986397743223 13.815864920616148 4.4046822488307944 9.6217880398035032 4.5705954879522244 8.9766115695238096 3.949423760175697 4.2951546460390082 4.4290790408849627 4.3415862470865241 5.1322009116411413 7.2855599820613781 6.8872091323137381 8.5614278167486173 16.216573670506477 4.9146281629800788 5.1201842725276947
leaf_count=37 21 32 52 65 21 43 21 44 19 20 20 20 23 38 31 43 78 23 23
internal_value=-0.000130714 -0.0018976 -0.0299324 0.00204769 0.00534865 0.0408145 -2.4182e-05 -0.0252086 0.00559281 0.0380678 -0.00127013 0.0114504 0.00265648 -0.00390583 -0.0100308 -0.00107565 0.0140084 -0.0269361 0.0363279
internal_weight=142.306 137.378 16.948 120.43 106.615 14.0265 92.5881 16.8845 75.7036 13.2073 62.4963 8.63674 58.5469 48.9976 43.8654 36.5798 23.1038 13.4761 9.54926
internal_count=674 653 84 569 504 64 440 81 359 61 298 40 279 236 213 175 109 66 43
is_linear=0
shrinkage=0.05


Tree=10
num_leaves=20
num_cat=0
split_feature=6 0 5 6 6 7 6 3 7 1 0 7 7 0 6 2 2 3 6
split_gain=4.59808 5.13027 5.97991 4.62933 5.64927 6.43841 4.98397 5.16465 7.28085 3.35218 11.0823 4.78815 5.22611 4.7028 3.63473 4.60884 4.56967 4.04887 3.77664
threshold=0.0085490199861095757 1635.9008431785921 0.00018082510315242664 0.0014860118960848825 0.0026293845284147692 0.00076489197085882765 0.005544144235802074 69.952254182231414 0.0036232033435286142 1527.7878565520782 1527.8579879469196 -0.00283325429350284 0.0014396582151033901 1597.0579548780197 -0.00066893644606952341 0.0007397333421843077 -0.0045630434839802848 63.898731511431599 -0.0046106433072307098
decision_type=2 2 2 2 2 2 2 2 2 2 2 2 2 2 2 2 2 2 2
left_child=1 3 -3 9 5 -5 7 8 -6 10 14 13 -13 -11 15 18 -16 -18 -1
right_child=-2 2 -4 4 6 -7 -8 -9 -10 11 -12 12 -14 -15 16 -17 17 -19 -20
leaf_value=-0.037380698045982326 0.036502972668938774 -0.065412012889808177 0.010530446886293727 0.010669061698333857 0.024816233317447586 -0.064726109842339272 -0.036072649233635963 0.047032826355194172 -0.051786583045718065 0.079946179051550825 -0.072430826535268986 -0.0080644608526083388 0.049124722719241898 0.012116197218537159 -0.050381973863258135 0.041941963418746606 0.035096949018488942 -0.02526912312435417 0.014644507968900392
leaf_weight=4.6217714399099341 8.0733537375926954 6.5445671677589399 4.2922725826501846 4.171100288629531 7.6332772821188026 8.8173488825559598 7.1889965534210196 7.0109390914440146 5.2253620326519012 5.4606837481260317 4.8552728146314612 15.644500941038133 5.3645887672901145 4.80293208360672 5.2742250859737423 11.602066144347189 5.7868680506944674 5.3417899906635284 14.224210321903231
leaf_count=23 33 37 21 20 36 44 35 33 26 23 23 76 26 21 27 52 27 26 65
internal_value=-0.000142031 -0.00235212 -0.0353326 0.000552997 -0.0134084 -0.0405138 -0.00039752 0.0125101 -0.00631283 0.00729101 -0.000524565 0.0202133 0.00653857 0.0482047 0.00692725 0.017149 -0.0120471 0.00612105 0.00188589
internal_weight=141.936 133.863 10.8368 123.026 40.047 12.9884 27.0586 19.8696 12.8586 82.9789 51.7062 31.2727 21.0091 10.2636 46.8509 30.448 16.4029 11.1287 18.846
internal_count=674 641 58 583 194 64 130 95 62 389 243 146 102 44 220 140 80 53 88
is_linear=0
shrinkage=0.05


Tree=11
num_leaves=20
num_cat=0
split_feature=7 4 2 3 2 1 0 2 4 5 2 7 1 2 2 1 4 3 2
split_gain=5.2113 4.66629 3.99987 3.47009 5.89877 4.56748 8.86388 6.00324 6.10956 5.17373 4.81023 4.45551 5.45288 6.4954 5.04008 9.54048 3.66701 3.49473 3.22623
threshold=0.015165750838616156 7.0464433942522335 0.014157604695186938 76.068771026384823 0.012452475242798905 1448.8491614645952 1394.510052766731 -0.0066357190762352577 5.4000200544084835 -0.0037033615688006889 -0.011241149489209455 -0.0041965360423336642 1474.1717869290835 -0.0010736713136663076 0.0055364483512403886 1540.1087645862524 6.1714433942522335 62.427267444918463 0.023773587481964651
decision_type=2 2 2 2 2 2 2 2 2 2 2 2 2 2 2 2 2 2 2
left_child=1 3 -3 4 5 6 -1 8 -7 -9 -10 -11 -13 -14 15 -15 -6 -16 -4
right_child=-2 2 18 -5 16 7 -8 9 10 11 -12 12 13 14 17 -17 -18 -19 -20
leaf_value=0.014554805080473562 0.054107561163686757 0.0041290972088654796 -0.06945040943410033 -0.022151692706821102 0.012690265994269107 0.081554307333850662 -0.058618642983123762 -0.057691288537829982 -0.027373286482537552 0.033411822514186139 0.047190037371446156 0.044537588025695504 -0.053506809456722482 0.061608464163920885 -0.045341170113402107 -0.0081893170284603172 0.063353649688033767 0.0078374098653873261 -0.012757025296160521
leaf_weight=7.8956626504659679 4.2911222577095023 6.5360336899757412 6.0288465172052366 13.632285192608832 8.4409518986940366 4.6904057264327923 8.6976240724325162 3.8253863006830136 4.236560881137847 9.6285338550805957 4.4192733466625205 5.2080014348030295 7.0568896979093472 7.0254375040531256 8.3577749431133253 16.151121377944946 6.1913502961397162 4.9011470526456824 4.2986372709274292
leaf_count=37 18 32 31 65 39 21 44 19 20 43 20 23 38 31 43 78 27 23 22
internal_value=-0.000151337 -0.00184809 -0.0264806 0.00160319 0.00463744 -4.80693e-05 -0.0238002 0.0051721 0.035598 -0.00136119 0.0106953 0.00233311 -0.00381145 -0.00960101 -0.00109726 0.0129683 0.0341274 -0.0256838 -0.0458528
internal_weight=141.513 137.222 16.8635 120.358 106.726 92.0938 16.5933 75.5005 13.3462 62.1543 8.65583 58.3289 48.7004 43.4924 36.4355 23.1766 14.6323 13.2589 10.3275
internal_count=674 656 85 571 506 440 81 359 61 298 40 279 236 213 175 109 66 66 53
is_linear=0
shrinkage=0.05


Tree=12
num_leaves=20
num_cat=0
split_feature=7 0 1 3 3 4 7 7 2 2 4 2 1 0 0 4 4 0 3
split_gain=4.66451 4.38232 5.86382 4.34431 6.41111 5.18922 4.08332 3.52187 3.02282 6.92286 6.52184 5.92063 3.71824 8.06728 5.04424 6.78168 4.68674 4.25728 7.43567
threshold=0.015165750838616156 1633.3147096393739 1630.4872770897312 18.60800102373403 23.958206249849521 6.8892953055245547 -0.0069386659870787062 0.00029325537279534247 0.0079160604199521173 0.0055364483512403886 5.8071289062500009 0.012714355476429616 1448.8491614645952 1392.7827359668354 1527.184263569686 4.7107238769531259 5.6571655273437509 1543.068494756423 44.642094144585023
decision_type=2 2 2 2 2 2 2 2 2 2 2 2 2 2 2 2 2 2 2
left_child=1 3 -3 -1 -5 6 -6 -7 9 12 11 -10 13 -8 15 -14 -17 -16 -19
right_child=-2 2 -4 4 5 7 8 -9 10 -11 -12 -13 14 -15 17 16 -18 18 -20
leaf_value=0.045180121881955332 0.05093825838190616 -0.06343592505558536 0.0018050747381203637 -0.05363261670285048 0.048219141587233477 0.00045298318400249652 0.015708412283858927 -0.046970952757821219 0.026942768775597672 -0.042969231181492443 0.041564328176315737 -0.037696686750182791 -0.0091324812355479176 -0.067964767151557193 -0.043631932344422752 0.086683447078114151 0.025758814119871534 0.061336762330385056 -0.014087841421649644
leaf_weight=5.3761226236820212 4.329169124364852 6.4207496494054777 7.4292062073945999 5.4712133109569541 5.4412832707166663 7.3434299677610388 6.6474401950836164 8.3850792795419675 6.8262342065572756 9.0356716066598874 13.923096269369124 7.3642624318599701 7.409136816859248 5.0837112069129944 5.4850183278322246 5.3546160757541639 7.6900809854269028 4.5691602975130108 11.471472606062887
leaf_count=25 18 39 36 27 24 35 31 42 32 45 61 36 35 27 28 24 35 20 54
internal_value=-0.000159507 -0.00177741 -0.0284402 0.00122786 -0.000783123 0.0017979 0.00614683 -0.0248294 0.00362726 -0.00247729 0.0172519 -0.00660235 0.00433461 -0.0205515 0.011289 0.0290694 0.0507673 -0.005606 0.00739679
internal_weight=141.056 136.727 13.85 122.877 117.501 112.03 96.3012 15.7285 90.8599 62.7463 28.1136 14.1905 53.7106 11.7312 41.9795 20.4538 13.0447 21.5257 16.0406
internal_count=674 656 75 581 556 529 452 77 428 299 129 68 254 58 196 94 59 102 74
is_linear=0
shrinkage=0.05


Tree=13
num_leaves=20
num_cat=0
split_feature=5 4 4 4 0 5 4 2 7 6 0 5 2 5 5 1 4 2 3
split_gain=4.25781 3.3111 4.624 3.84682 4.81456 4.2534 6.35138 5.72935 6.45204 5.28432 4.99024 4.64066 3.58172 3.47954 2.91431 2.77065 2.66772 5.65313 2.58321
threshold=0.0086210435058315955 3.8607134137834822 4.5214364188058047 6.8892953055245547 1633.3147096393739 0.0016951597313829005 5.9142804827008932 0.010142227133957496 -0.0014842736403442023 -0.0043850810324903003 1540.8040607498904 0.00064879644473803133 0.0069647037709306414 -0.0003390452415218958 0.00085561271420930851 1629.735344179217 6.2178606305803585 0.01374638987105091 47.393103898690107
decision_type=2 2 2 2 2 2 2 2 2 2 2 2 2 2 2 2 2 2 2
left_child=1 -1 -3 4 5 7 -7 8 9 -4 18 -10 -5 -14 -15 -6 17 -9 -11
right_child=-2 2 3 12 15 6 -8 16 11 10 -12 -13 13 14 -16 -17 -18 -19 -20
leaf_value=0.042170013862889197 0.048499834809398068 -0.03479856138335561 -0.0098817107125295789 0.016190411825000136 -0.062857454251960571 -0.040697428114818635 0.019206657212254306 0.062097333002120648 -0.025585966778542649 0.034528633855865361 0.076576558132082029 0.021324141006066 -0.057433261927285165 0.015223826640074382 -0.03694601091596493 -0.002659115749703944 0.06791395083009702 -0.0088120449442619948 -0.010887090109993496
leaf_weight=4.1649954468011847 4.3548685610294333 10.587963566184042 9.3685408085584623 5.5980984121561077 3.9986610114574423 10.14267671108246 7.8490000814199439 5.3381790220737475 19.417734071612365 10.072958037257196 5.4219748675823203 7.2371027469635001 6.8942361623048845 5.1478885561227745 5.5769945383071899 3.6617620140314102 5.248695731163024 5.9365728944540024 4.5432304292917243
leaf_count=19 18 52 44 27 25 52 37 24 97 45 23 34 35 26 28 18 22 27 21
internal_value=-0.000167967 -0.00172399 -0.00310854 -0.00034591 0.00398004 0.0071991 -0.0145638 0.0125935 0.00496714 0.0211163 0.035609 -0.0128493 -0.01865 -0.0297197 -0.0119048 -0.034082 0.0384685 0.0247609 0.0204118
internal_weight=140.562 136.207 132.042 121.454 98.2371 90.5767 17.9917 72.585 56.0615 29.4067 20.0382 26.6548 23.2172 17.6191 10.7249 7.66042 16.5234 11.2748 14.6162
internal_count=674 656 637 585 469 426 89 337 264 133 89 131 116 89 54 43 73 51 66
is_linear=0
shrinkage=0.05


Tree=14
num_leaves=20
num_cat=0
split_feature=7 4 4 4 3 4 0 1 6 4 2 2 0 1 7 6 6 0 0
split_gain=4.15459 3.88249 2.64131 5.14001 4.10952 4.07815 4.28911 4.01958 4.58254 4.43546 4.54349 8.19694 5.74792 7.50353 5.94713 4.25358 3.95714 3.70694 3.01458
threshold=0.015165750838616156 7.9357256208147335 3.8750130789620543 4.6285792759486624 48.525997506264936 4.9321419852120547 1401.1256334841703 1621.7157926554282 -0.0055879226977028065 6.8892953055245547 0.010142227133957496 0.0055364483512403886 1454.0614944917695 1524.092824600124 -0.0013297667409560841 0.0013403985730109371 0.0026945318220067409 1486.9571460416184 1536.1206566840553
decision_type=2 2 2 2 2 2 2 2 2 2 2 2 2 2 2 2 2 2 2
left_child=1 2 -1 4 -4 -5 -7 8 -8 10 11 12 -10 -14 -15 -12 -17 -11 -18
right_child=-2 -3 3 5 -6 6 7 -9 9 17 15 -13 13 14 -16 16 18 -19 -20
leaf_value=0.036030590596970669 0.047894164452338878 -0.052526812231242503 -0.010884820976828082 0.031163000524037945 -0.070808740540513032 -0.040724736644176709 0.052267621596118211 -0.019811905165542546 -0.039443723043936389 0.0093532040221754528 0.053316978899509371 -0.043435044614250518 0.061870571660512831 0.04044883000335929 -0.018160626450333558 -0.030731104789719382 -0.0013506022813096139 -0.047897423730945958 0.056812644885909126
leaf_weight=4.8185362070798865 4.3559368252754203 3.6579528748989096 8.0721211433410627 10.61150301992893 4.4319457113742819 6.4931017756462088 5.0395029038190833 18.399513244628906 4.8647462576627758 4.6963877230882627 8.871987462043764 9.0993349403142911 7.5360176563262966 6.7436729520559267 12.084091484546667 4.315738931298255 4.4758175760507566 7.1049894243478775 4.4354292750358582
leaf_count=22 18 21 40 50 22 32 23 95 25 22 39 46 33 29 60 20 20 37 20
internal_value=-0.000171539 -0.00171384 -0.000306731 -0.00168242 -0.0321243 0.00163413 -0.00137417 0.00124193 0.00612891 0.00299646 0.00831063 -0.0016747 0.0104934 0.019708 0.00283194 0.0265326 0.00856703 -0.0251144 0.0275992
internal_weight=140.108 135.752 132.094 127.276 12.5041 114.772 104.16 97.6672 79.2677 74.2282 62.4268 40.3279 31.2285 26.3638 18.8278 22.099 13.227 11.8014 8.91125
internal_count=674 656 635 613 62 551 501 469 374 351 292 193 147 122 89 99 60 59 40
is_linear=0
shrinkage=0.05


Tree=15
num_leaves=20
num_cat=0
split_feature=7 4 4 4 3 4 0 1 7 1 5 4 2 2 4 0 1 7 3
split_gain=3.73165 3.60969 2.49971 4.35549 4.5607 3.64521 3.93811 3.64846 4.24822 2.95215 4.75324 2.94652 3.86672 6.04321 6.28094 5.94737 6.91802 3.79902 3.33797
threshold=0.015165750838616156 7.9357256208147335 3.8607134137834822 4.6285792759486624 48.525997506264936 4.9321419852120547 1401.1256334841703 1621.7157926554282 -0.0071139418037436944 1629.1280646794146 6.907335726835663e-05 6.8892953055245547 0.010142227133957496 0.0055364483512403886 5.3464355468750009 1482.2799623428691 1524.316474089283 0.00029325537279534247 42.721226822378867
decision_type=2 2 2 2 2 2 2 2 2 2 2 2 2 2 2 2 2 2 2
left_child=1 2 -1 4 -4 -5 -7 8 -8 -9 -11 12 13 14 -10 -16 -17 -13 -18
right_child=-2 -3 3 5 -6 6 7 9 11 10 -12 17 -14 -15 15 16 18 -19 -20
leaf_value=0.037380655171209948 0.045247645659184044 -0.051345345933983377 -0.0073375547607282864 0.029307464166801845 -0.069609249065843551 -0.039365123101511496 0.053693446699511871 -0.038610667544468041 0.057779081388583391 -0.034921520340870697 0.03816073161503919 0.011713342197349878 0.023932852737042348 -0.037641192734367106 -0.055793183723323106 0.051548696678869556 0.018362549352302023 -0.045644304567298233 -0.029227921863602166
leaf_weight=4.2580274343490592 4.3795334547758094 3.5575814396142951 8.4318572729825956 10.716377183794974 4.5145708471536627 6.3842993080615988 4.3773552179336539 9.3458777070045489 5.3621585518121746 4.4489662498235685 4.4505456238985062 5.2130543738603574 22.463321432471275 9.1674204617738706 4.2446849346160915 6.6218729764223125 6.254606530070304 6.46963070333004 8.9667650908231717
leaf_count=19 18 21 42 50 23 32 19 50 24 24 21 25 100 47 23 29 29 34 44
internal_value=-0.000176445 -0.00164734 -0.000304767 -0.00156398 -0.0290524 0.00154447 -0.00132261 0.00117133 0.00581811 -0.0189845 0.00162609 0.00301504 0.00728675 -0.0019193 0.00849332 -0.00163696 0.00888694 -0.0200501 -0.00967254
internal_weight=139.629 135.249 131.691 127.433 12.9464 114.487 103.771 97.3863 79.1409 18.2454 8.89951 74.7635 63.0808 40.6175 31.4501 26.0879 21.8432 11.6827 15.2214
internal_count=674 656 635 616 65 551 501 469 374 95 45 355 296 196 149 125 102 59 73
is_linear=0
shrinkage=0.05


Tree=16
num_leaves=20
num_cat=0
split_feature=5 5 0 1 6 0 3 3 7 5 5 5 6 4 6 6 6 2 4
split_gain=3.53704 2.99341 3.95361 4.56515 3.14695 3.24267 2.88405 5.463 3.18081 3.34959 3.2178 5.59327 4.85501 4.60406 4.4547 7.29407 4.08611 2.81828 3.30507
threshold=0.0086210435058315955 0.0018001233423065035 1635.9008431785921 1633.2126358392181 0.0032052531301334235 1495.6008884444179 18.60800102373403 23.958206249849521 -0.0069386659870787062 -0.0037033615688006889 -0.0012898233825827663 -0.00040120149509681452 -0.003409606063589143 5.8999982561383932 -0.00026010033554663131 -0.0011524303196928651 0.00057709273202988254 0.014157604695186938 6.4464329310825903
decision_type=2 2 2 2 2 2 2 2 2 2 2 2 2 2 2 2 2 2 2
left_child=1 2 6 -4 -3 -6 -1 -8 -9 -10 12 16 -11 -14 15 -13 -12 18 -16
right_child=-2 4 3 -5 5 -7 7 8 9 10 11 14 13 -15 17 -17 -18 -19 -20
leaf_value=0.039522751940549349 0.044100939504829399 -0.039034452334658715 -0.062663006276755459 0.01092647112634036 -0.032880243623913223 0.018493189484532664 -0.049763314579435468 0.040053691941870077 -0.039029669844545409 0.064825124371265905 -0.042364788154254818 0.0012851716633141461 -0.013694701604087603 0.040373447442868991 -0.0032037644008116985 0.072943768788343868 0.011713424401166864 0.022118705304720553 -0.054703638583612157
leaf_weight=5.5523766428232184 4.3678750693798056 10.054550379514696 4.8735936284065229 3.713160365819931 5.0615279078483564 7.8128784447908401 4.7605658024549475 6.1000494360923758 4.5561812222003928 5.0042716711759594 11.383578762412066 8.5721411108970624 9.5876815170049614 6.6808733344078055 17.87982678413394 6.0628396719694058 5.0393881499767295 8.2812468856573087 3.7727198153734198
leaf_count=26 18 55 32 19 25 37 24 27 22 22 57 39 45 31 88 27 23 37 20
internal_value=-0.000181101 -0.00161649 0.0017581 -0.0308408 -0.0180738 -0.0017041 0.0044696 0.00247712 0.00515353 0.00270143 0.00501269 -0.00082741 0.021757 0.00850902 0.00836391 0.0309712 -0.0257709 -0.00268906 -0.0121771
internal_weight=139.117 134.749 111.82 8.58675 22.929 12.8744 103.234 97.6814 92.9208 86.8207 82.2646 60.9917 21.2728 16.2686 44.5688 14.635 16.423 29.9338 21.6525
internal_count=674 656 539 51 117 62 488 462 438 411 389 291 98 76 211 66 80 145 108
is_linear=0
shrinkage=0.05


Tree=17
num_leaves=20
num_cat=0
split_feature=5 2 3 3 3 3 4 3 2 3 0 6 6 1 1 0 4 7 5
split_gain=3.18373 2.97764 4.75315 3.14163 4.45654 3.14818 2.99384 4.14172 7.16552 7.66635 3.56731 3.28338 6.2142 4.96309 3.69217 7.77947 3.66555 3.33182 5.43907
threshold=0.0086210435058315955 0.020083607041073662 80.981696710705265 76.068771026384823 70.475889184605947 65.711682642526497 6.0357186453683047 55.379261832401937 0.0053330050840345675 45.441086886421168 1539.1196938152677 -0.0059152777853045948 -0.0035396585896651507 1536.726841722601 1449.7567161066138 1397.0607284362552 5.4071437290736624 0.0039960960612634997 0.00059425531289725175
decision_type=2 2 2 2 2 2 2 2 2 2 2 2 2 2 2 2 2 2 2
left_child=1 3 -3 4 5 6 11 8 9 10 -8 -1 -13 14 15 -14 -15 18 -16
right_child=-2 2 -4 -5 -6 -7 7 -9 -10 -11 -12 12 13 16 17 -17 -18 -19 -20
leaf_value=-0.047593588311756217 0.041754104195847686 -0.057496392106635222 0.004749311817543316 -0.025419614624723159 0.033135071188092696 -0.033957551202969505 0.070739557059918481 0.04767077233037556 -0.049844102646352917 -0.022455313893308879 0.017247384007888649 0.045800849933556931 0.012967403131144948 -0.0025128363572353833 0.0035095929353102379 -0.068239578518589167 -0.052083148491309732 -0.025679097620008869 0.058176716269109356
leaf_weight=4.0701698064803997 4.3823089748620978 5.8762925416231138 6.4150111153721809 10.438627600669859 11.230131179094313 6.4184142500162116 5.7729827612638527 7.3226653859019271 4.8192645311355582 7.3463122844696036 6.7738043516874313 6.2860255539417187 7.4923414885997897 6.5310421139001837 12.572557806968694 4.8636706918478012 8.6936428472399694 4.2162660807371131 7.1305514574050894
leaf_count=20 18 29 33 52 52 32 25 34 25 38 32 29 36 34 59 26 47 21 32
internal_value=-0.00018436 -0.00155315 -0.0250094 0.00081045 0.00326523 -7.88343e-05 0.00223712 0.0146437 0.0048572 0.018109 0.04186 -0.00418817 -0.0011309 -0.00685932 0.00319633 -0.0189979 -0.0308186 0.0146612 0.0232936
internal_weight=138.652 134.27 12.2913 121.978 111.54 100.31 93.8913 32.035 24.7124 19.8931 12.5468 61.8563 57.7861 51.5001 36.2754 12.356 15.2247 23.9194 19.7031
internal_count=674 656 62 594 542 490 458 154 120 95 57 304 284 255 174 62 81 112 91
is_linear=0
shrinkage=0.05


Tree=18
num_leaves=20
num_cat=0
split_feature=7 0 5 5 5 3 3 7 4 4 0 4 2 2 1 4 3 3 4
split_gain=3.15093 3.12957 5.70784 2.92519 3.71964 2.60745 4.96712 2.76696 3.205 2.43863 5.11129 5.00773 4.01249 6.28033 6.5581 4.18611 3.65854 5.81056 3.12164
threshold=0.015165750838616156 1635.9008431785921 0.00018082510315242664 0.0018001233423065035 0.0029368003928398338 18.60800102373403 23.958206249849521 -0.0069386659870787062 7.2071446010044653 4.6535731724330374 1473.4432894901977 4.9178510393415182 0.0084275320425460602 0.0055364483512403886 1448.8491614645952 5.4464329310825903 42.721226822378867 49.21687454313183 6.8892953055245547
decision_type=2 2 2 2 2 2 2 2 2 2 2 2 2 2 2 2 2 2 2
left_child=1 3 -3 5 -5 -1 -7 -8 9 10 -9 -11 13 14 -13 -16 -17 -18 -14
right_child=-2 2 -4 4 -6 6 7 8 -10 11 -12 12 18 -15 15 16 17 -19 -20
leaf_value=0.037405669009204355 0.041511713567647775 -0.06226192228712657 0.012787282118535899 -0.042976959061746006 -0.00017493428996195095 -0.048182400480646093 0.037214286046229908 0.022463181733723414 -0.033747631992866504 0.050371632235811009 -0.045949604006230743 -0.043920960254274943 0.029733196543244834 -0.051690276503838201 0.052735760186712659 0.029615451549969297 -0.056080489777775459 0.012895599215498092 -0.017397903312431798
leaf_weight=5.5880840867757788 4.3862927407026282 5.5736682638525945 4.6447490602731705 8.0482401996850985 13.744056865572928 4.6424167603254309 6.1532133966684333 4.7809047251939756 5.6923381239175788 6.4986382573842993 6.3651029318571091 6.034169226884841 18.619275182485584 6.1926059722900382 5.4834268838167217 8.35828545689583 4.8590041995048514 8.2157490104436857 4.3303157687187186
leaf_count=26 18 37 23 47 65 24 27 21 30 30 33 32 81 33 24 37 27 38 21
internal_value=-0.000188424 -0.00155521 -0.0281485 0.000643245 -0.0159824 0.00420182 0.00227358 0.00483123 0.00249879 0.00508637 -0.016605 0.00861119 0.00424054 -0.00549176 0.0031906 0.0137521 0.00377856 -0.0127382 0.0208401
internal_weight=138.211 133.824 10.2184 123.606 21.7923 101.814 96.2254 91.583 85.4298 79.7375 11.146 68.5915 62.0928 39.1432 32.9506 26.9165 21.433 13.0748 22.9496
internal_count=674 656 60 596 112 484 458 434 407 377 54 323 293 191 158 126 102 65 102
is_linear=0
shrinkage=0.05


Tree=19
num_leaves=20
num_cat=0
split_feature=7 2 2 3 3 3 1 2 2 2 0 3 0 1 3 2 4 0 3
split_gain=2.83954 2.88375 3.37355 3.1381 3.27887 2.56629 2.4379 2.40627 6.89877 6.32144 6.56109 3.19206 5.08629 4.89989 4.42153 4.56631 5.20766 2.71113 2.41747
threshold=0.015165750838616156 0.020083607041073662 0.023773587481964651 76.068771026384823 70.475889184605947 65.711682642526497 1489.8171902481906 0.012606647405563885 0.0055364483512403886 0.0018947196848556594 1523.4506357851858 42.809671577806817 1394.510052766731 1449.7567161066138 37.004182247488423 -0.0056984335840093246 5.4000200544084835 1401.1256334841703 53.209465640048229
decision_type=2 2 2 2 2 2 2 2 2 2 2 2 2 2 2 2 2 2 2
left_child=1 3 -3 4 5 7 -6 8 9 11 -11 13 -13 17 15 16 -15 -1 -12
right_child=-2 2 -4 -5 6 -7 -8 -9 -10 10 18 12 -14 14 -16 -17 -18 -19 -20
leaf_value=0.00068896593365691062 0.03934216302412144 -0.059055197429881447 -0.003744167854153429 -0.026369681081763182 -0.0010691361861683384 -0.031246680832843061 0.04628106292321385 0.027556777225484372 -0.031735858990436037 0.080619079382925313 0.028893683807014538 0.024433538594383741 -0.037099896907232123 0.06304715523420662 0.047247599288384595 -0.026045919354265198 -0.0060237169388708796 -0.057074407638704076 -0.014582023731345296
leaf_weight=4.0540959537029249 4.3964847773313513 4.5220792666077596 7.0619952082633972 9.7917598485946638 4.3727845847606641 6.0781520754098883 7.1851143091917038 8.5562171339988691 14.460740223526953 4.9164522588253048 9.0037975460290891 4.5941430479288128 12.48413200676441 4.7764460891485125 7.9892868548631659 7.9348942488432064 6.3660749495029449 4.0713461190462112 4.9582872018218032
leaf_count=20 18 24 36 50 20 31 33 39 79 21 43 22 65 21 36 40 30 21 25
internal_value=-0.000193453 -0.00149861 -0.025336 0.000772344 0.00314948 0.00024199 0.0283667 0.0022745 -0.000252327 0.00614658 0.0309458 -0.00281016 -0.0205471 0.00579733 0.0160196 0.00294182 0.0235848 -0.028254 0.0134544
internal_weight=137.574 133.178 11.5841 121.594 111.802 100.244 11.5579 94.1659 85.6097 71.149 18.8785 52.2704 17.0783 35.1921 27.0667 19.0774 11.1425 8.12544 13.9621
internal_count=674 656 60 596 546 493 53 462 423 344 89 255 87 168 127 91 51 41 68
is_linear=0
shrinkage=0.05


Tree=20
num_leaves=20
num_cat=0
split_feature=5 5 4 2 0 1 3 3 5 1 0 3 2 1 5 4 4 1 1
split_gain=2.61596 2.65268 3.75038 3.62885 3.17626 4.40125 2.32078 5.1297 2.52897 3.19085 6.09065 4.58189 8.47814 4.99744 4.93169 3.11108 2.70997 2.64177 6.18275
threshold=0.0086210435058315955 0.0018934601860988167 5.8500148228236624 0.018263764288858387 1635.9008431785921 1633.2126358392181 18.60800102373403 23.958206249849521 0.0011723871044925229 1527.7878565520782 1527.8579879469196 42.343907680996203 1.0000000180025095e-35 1539.8619276156644 -0.0011842262017271452 5.2607116699218759 4.5214364188058047 1488.8701685147457 1476.3760447120483
decision_type=2 2 2 2 2 2 2 2 2 2 2 2 2 2 2 2 2 2 2
left_child=1 4 -3 -4 6 -6 -1 -8 9 10 16 -11 -13 -14 -15 -10 -9 18 -18
right_child=-2 2 3 -5 5 -7 7 8 15 11 -12 12 13 14 -16 -17 17 -19 -20
leaf_value=0.035287258291165406 0.03782880786854196 -0.041078996976593569 0.019686705021750708 -0.038209293391914839 -0.061434466765141173 0.012520279848595701 -0.048493138065230243 -0.030001035696097262 0.058609193377632811 0.048600920213711575 -0.060405601925162936 -0.067452144381224322 0.062189707300487819 0.041862441570620385 -0.017343394891155654 0.0076011111587592495 0.008696268444516075 0.029133703884674705 -0.050796092903508949
leaf_weight=5.6250967979431143 4.3789943456649771 9.4606943428516406 8.2908926084637624 4.0182758867740622 4.5018761381506902 3.6371816396713257 4.7368911653757086 6.6827434897422782 4.5425266474485388 7.296074345707896 4.7435461282730094 3.5940214395523098 4.5240525156259563 5.2998666912317338 10.457317084074012 8.7426340579986555 22.714397773146633 8.454188406467436 5.4066652804613105
leaf_count=26 18 53 41 20 32 19 25 33 20 32 24 20 20 24 51 42 106 39 29
internal_value=-0.000194487 -0.00144895 -0.0174071 0.000786802 0.001682 -0.0283856 0.0040621 0.00225496 0.00485493 0.00146755 -0.00662127 0.0139237 0.00332667 0.0158693 0.00257025 0.025042 -0.000723436 0.00462594 -0.00274197
internal_weight=137.108 132.729 21.7699 12.3092 110.959 8.13906 102.82 97.1949 92.458 79.1729 48.0015 31.1713 23.8753 20.2812 15.7572 13.2852 43.258 36.5753 28.1211
internal_count=674 656 114 61 542 51 491 465 440 378 231 147 115 95 75 62 207 174 135
is_linear=0
shrinkage=0.05


Tree=21
num_leaves=20
num_cat=0
split_feature=4 4 7 0 5 5 5 4 7 2 7 1 2 5 6 5 4 2 0
split_gain=2.60547 3.34086 2.29935 2.88934 5.35788 2.92177 2.36261 2.35017 4.38286 3.85543 4.52965 5.2902 3.75535 3.3263 3.71407 3.3408 2.39545 5.6603 2.02127
threshold=3.810708182198661 4.5214364188058047 0.015165750838616156 1635.9008431785921 0.00018082510315242664 0.0016951597313829005 -0.0038402268427583648 6.8892953055245547 0.00029325537279534247 0.010142227133957496 -0.0035043561525024409 1523.2121567135423 0.0055364483512403886 -0.00052506312664640775 -0.00064768494148859091 -0.0017906382985667932 6.2178606305803585 0.01374638987105091 1593.5585797281078
decision_type=2 2 2 2 2 2 2 2 2 2 2 2 2 2 2 2 2 2 2
left_child=-1 -2 3 5 -5 6 -3 9 -9 10 11 -8 13 15 -15 -12 17 -11 -7
right_child=1 2 -4 4 -6 18 7 8 -10 16 12 -13 -14 14 -16 -17 -18 -19 -20
leaf_value=0.041738870835002849 -0.028336891246285911 -0.020803960335271252 0.036493236792399728 -0.061210668961058749 0.012815158366401694 -0.0071902687570304285 0.0008985239256896594 0.016194971511775385 -0.047036805555971561 0.058350942944768072 0.019375603844069757 0.06052657477214296 -0.038048531218148475 0.058356458038798846 0.0040312652701259511 -0.030755126520485478 0.061457686762955654 -0.012570539743077863 -0.046768940721690425
leaf_weight=3.6058504730463019 10.547132827341555 7.4360086619853965 4.3968753516674033 5.1854280456900579 4.6241587549448013 17.778687529265884 8.005006566643706 5.9929703623056394 5.0495476871728897 5.2486923336982745 5.0729315727949027 6.9485363662242881 6.6484039276838294 4.4409033060073861 10.791756168007865 9.6365175843238848 5.1556621342897406 6.0633835792541504 3.940881058573722
leaf_count=16 55 36 18 37 23 91 36 29 28 23 24 29 36 20 54 50 21 27 21
internal_value=-0.000198263 -0.00133556 0.000990817 -0.000331843 -0.0263155 0.00202366 0.00614086 0.00867534 -0.0127198 0.0121491 0.00542023 0.0286062 -0.00405524 0.00349269 0.0198691 -0.0134663 0.0332105 0.0203363 -0.0143716
internal_weight=136.569 132.963 122.416 118.019 9.80959 108.21 86.4903 79.0543 11.0425 68.0118 51.5441 14.9535 36.5905 29.9421 15.2327 14.7094 16.4677 11.3121 21.7196
internal_count=674 658 603 585 60 525 413 377 57 320 249 65 184 148 74 74 71 50 112
is_linear=0
shrinkage=0.05


Tree=22
num_leaves=20
num_cat=0
split_feature=5 5 4 2 0 5 4 3 3 7 4 5 4 6 4 2 2 4 1
split_gain=2.35399 2.33497 3.44165 3.34745 2.63113 4.69304 2.06287 2.05657 4.64228 2.31763 2.23558 2.24493 2.7641 3.7279 2.69959 2.30884 4.40966 3.85557 4.28027
threshold=0.0086210435058315955 0.0018934601860988167 5.8500148228236624 0.018263764288858387 1635.9008431785921 -1.0000000180025095e-35 5.1714346749441971 18.60800102373403 23.958206249849521 -0.0075862568603267113 7.0464433942522335 0.0011723871044925229 4.6535731724330374 -0.00053312992808968163 5.2607116699218759 0.0084275320425460602 0.0045070911987715604 6.4250008719308047 1448.8491614645952
decision_type=2 2 2 2 2 2 2 2 2 2 2 2 2 2 2 2 2 2 2
left_child=1 4 6 -4 7 -6 -3 -1 -9 -10 11 12 13 -11 -13 16 17 18 -14
right_child=-2 2 3 -5 5 -7 -8 8 9 10 -12 14 15 -15 -16 -17 -18 -19 -20
leaf_value=0.032952112793642449 0.035896150455091445 -0.0089154902700907136 0.018879726443926912 -0.03699880685440831 -0.060459474156609051 0.017788115419463721 -0.057848522883402323 -0.046978103208616992 0.03681076044522047 0.00714205447269414 -0.022047845209798328 0.05515396632397826 -0.016726851300965042 -0.056755849013036964 0.0065299693021764298 0.020057303663667488 -0.032003084932533662 -0.035613160743420025 0.028617067723400943
leaf_weight=5.6673081666231147 4.3719702064990988 3.4364488571882266 8.311908155679701 3.9556943625211707 4.40898497402668 3.3893412798643103 5.7705076858401299 4.6142395287752143 5.2085584998130789 4.674007847905159 8.396879166364668 4.5799217671155912 7.3414094448089662 4.4613617956638318 7.577258288860321 18.542927220463753 9.0243019312620145 4.3379395157098761 17.879346907138824
leaf_count=26 18 20 41 20 33 18 33 25 23 22 45 20 38 24 36 81 47 23 81
internal_value=-0.000197892 -0.00139719 -0.0164791 0.000861666 0.00154438 -0.0264512 -0.0395845 0.00367837 0.00196162 0.00441554 0.00247196 0.00509749 0.00147382 -0.0240632 0.0248479 0.00555761 -0.00141092 0.0079289 0.0154181
internal_weight=135.95 131.578 21.4746 12.2676 110.104 7.79833 9.20696 102.305 96.6382 92.0239 86.8154 78.4185 66.2613 9.13537 12.1572 57.1259 38.583 29.5587 25.2208
internal_count=674 656 114 61 542 51 53 491 465 440 417 372 316 46 56 270 189 142 119
is_linear=0
shrinkage=0.05


Tree=23
num_leaves=20
num_cat=0
split_feature=4 4 4 0 0 0 2 1 7 0 1 1 6 7 7 5 7 5 7
split_gain=2.92423 2.89557 3.16831 2.47946 2.57379 4.43431 3.82924 6.86131 5.02365 6.7182 5.97631 5.16255 4.86338 4.00195 3.1952 2.45291 3.65255 3.90421 3.29239
threshold=3.7643083844866077 4.6535731724330374 4.9321419852120547 1401.1256334841703 1434.7188331296277 1448.7514177501478 0.0053330050840345675 1524.092824600124 0.0088603833868864407 1597.0579548780197 1531.6675052023468 1474.790288722915 0.0013403985730109371 0.0036368855960227102 0.0021776678314407998 -0.0038402268427583648 -0.0040874807333144405 -0.00024967569670475415 0.00049638908115612345
decision_type=2 2 2 2 2 2 2 2 2 2 2 2 2 2 2 2 2 2 2
left_child=-1 -2 -3 -4 -5 -6 7 -7 9 10 11 -8 -12 15 -13 -9 -17 -18 -19
right_child=1 2 3 4 5 6 8 13 -10 -11 12 14 -14 -15 -16 16 17 18 -20
leaf_value=0.049073604774384966 -0.022626535916784346 0.028102550605924238 -0.031552581782166293 0.033631181862517005 -0.045381853684118782 0.050372783247615294 0.010206069113749073 -0.031509656375630413 0.027428918491831218 -0.057633348089690374 0.05586262817664428 -0.057929052508718694 -0.0081455592976038133 -0.045881712301148458 -0.0060530439742633889 0.045111900873346593 -0.02518189555997391 -0.00054075417387885994 0.056371999620907866
leaf_weight=2.9456951916217795 14.202375806868075 10.063066825270651 6.3456992581486693 5.5940274298191062 5.3754258453845969 9.2927285432815534 8.0508195608854312 3.4325903058052054 8.2729489505290967 7.6224051415920249 5.7514169514179212 8.8428835123777372 6.1311682537198067 3.8977136909961692 4.4680790007114402 6.7157551199197796 7.6778663322329583 6.548422157764433 4.1526008695363998
leaf_count=13 74 47 33 25 29 41 37 17 36 49 26 49 32 21 23 29 42 31 20
internal_value=-0.000198966 -0.00129489 0.00126745 -0.00122896 0.000660762 -0.00125581 0.00135483 0.0124953 -0.00810296 -0.0152959 -0.00558864 -0.0213998 0.0228357 0.00163988 -0.0405159 0.00813282 0.0135553 0.00202439 0.0215446
internal_weight=135.384 132.438 118.236 108.173 101.827 96.2328 90.8574 41.7177 49.1397 40.8668 33.2444 21.3618 11.8826 32.4249 13.311 28.5272 25.0946 18.3789 10.701
internal_count=674 661 587 540 507 482 453 201 252 216 167 109 58 160 72 139 122 93 51
is_linear=0
shrinkage=0.05


Tree=24
num_leaves=20
num_cat=0
split_feature=4 4 3 4 0 0 0 2 1 7 0 1 1 3 7 7 5 7 5
split_gain=2.09804 2.74906 3.30418 2.53858 2.26881 2.30655 4.0803 3.474 6.13762 4.60069 4.86298 5.84363 5.30546 4.87157 3.85904 3.0413 2.22642 3.28203 3.53001
threshold=3.810708182198661 4.6285792759486624 48.525997506264936 4.9321419852120547 1401.1256334841703 1434.7188331296277 1448.7514177501478 0.005467376366998805 1524.092824600124 0.009377349003305337 1597.0579548780197 1531.6675052023468 1474.790288722915 64.159845331956163 0.0035586775883972304 0.0021776678314407998 -0.0038402268427583648 -0.0040874807333144405 -0.00024967569670475415
decision_type=2 2 2 2 2 2 2 2 2 2 2 2 2 2 2 2 2 2 2
left_child=-1 2 -2 -3 -5 -6 -7 8 -8 10 11 12 -9 -13 16 -14 -10 -18 -19
right_child=1 3 -4 4 5 6 7 9 14 -11 -12 13 15 -15 -16 -17 17 18 -20
leaf_value=0.037205022734846875 -0.0042835836374704268 0.024244200477958847 -0.057399440994435662 -0.03040337366386843 0.031696821661147324 -0.043964231874258373 0.046544219957202163 0.0096709090189383493 -0.030284295857131851 0.027574325300630566 -0.051003675766729963 -0.0090671026920145174 -0.060421657883649053 0.054874076088008455 -0.044990779906800921 -0.010391690586905422 0.042712384088895605 -0.024199080693127345 0.020311050982877974
leaf_weight=3.6469715237617484 8.1705254614353162 10.797269836068152 4.5630526691675177 6.2585370615124694 5.6374801844358435 5.2739301770925513 9.7492218613624555 8.0709794163703936 3.3939078971743575 7.6867762655019751 7.4862108007073394 6.2132179364562017 8.2117709070444089 5.7223550826311111 3.9531314373016349 4.8210257291793814 6.7377778291702297 7.592427693307406 10.777922898530958
leaf_count=16 43 50 25 33 25 29 43 37 17 33 49 33 47 25 22 25 29 42 51
internal_value=-0.000201981 -0.00124244 -0.0233175 0.001132 -0.00118752 0.000617003 -0.00121402 0.00127956 0.0117547 -0.00789025 -0.0146171 -0.00637242 -0.0221863 0.0215887 0.0013043 -0.0419148 0.00772526 0.0128631 0.00191511
internal_weight=134.764 131.118 12.7336 118.384 107.587 101.328 95.6907 90.4167 42.2044 48.2123 40.5256 33.0393 21.1038 11.9356 32.4552 13.0328 28.502 25.1081 18.3704
internal_count=674 658 68 590 540 507 482 453 204 249 216 167 109 58 161 72 139 122 93
is_linear=0
shrinkage=0.05


Tree=25
num_leaves=20
num_cat=0
split_feature=5 2 3 3 3 3 4 3 2 2 3 6 6 1 4 6 1 0 7
split_gain=2.03569 2.31441 4.25336 2.49464 3.59537 2.22283 2.21411 3.81718 5.58762 5.32061 7.20256 3.36074 5.13386 3.96782 3.37104 3.57752 2.93845 7.21769 3.08947
threshold=0.0086210435058315955 0.020083607041073662 80.981696710705265 76.068771026384823 70.475889184605947 65.711682642526497 6.0357186453683047 55.379261832401937 0.0053330050840345675 0.0022351741828198464 40.708200358771649 -0.0059152777853045948 -0.0035396585896651507 1535.2887596036576 5.4071437290736624 0.00053667220118669434 1449.7567161066138 1397.0607284362552 0.0039960960612634997
decision_type=2 2 2 2 2 2 2 2 2 2 2 2 2 2 2 2 2 2 2
left_child=1 3 -3 4 5 6 11 8 9 10 -8 -1 -13 16 15 -15 17 -14 -18
right_child=-2 2 -4 -5 -6 -7 7 -9 -10 -11 -12 12 13 14 -16 -17 18 -19 -20
leaf_value=-0.048348637434340459 0.033456855043646615 -0.054835458519450646 0.0057860954433472554 -0.023259952210039351 0.029800535454140516 -0.029854767045544142 0.028518014541348682 0.044415846814547584 -0.047457270794588224 0.054845321184496601 -0.044236607039892656 0.042185632572365711 0.01409926066304271 0.029354513748254641 -0.049349962386044666 -0.039451801370298148 0.023267204898383569 -0.066179325921166779 -0.025032564013784914
leaf_weight=3.9630921855568806 4.3459751158952704 5.4454621300101262 6.1740830391645432 9.9011204093694669 11.187430918216704 5.9080173373222342 8.0423484221100896 7.2300358712673178 4.4707837104797354 5.7676981389522544 5.8954570442438117 6.2030793651938358 7.3460201323032503 4.0254034698009482 8.0791673138737661 3.5597565919160843 17.960994675755504 4.524259053170681 4.059013456106185
leaf_count=20 18 29 33 52 52 32 36 34 25 27 32 29 36 20 47 20 85 26 21
internal_value=-0.000204183 -0.00133172 -0.022624 0.000762752 0.00296055 -0.000133897 0.00179299 0.0125403 0.00300778 0.0144573 -0.00225597 -0.00385888 -0.000696678 -0.00606454 -0.0268752 -0.00293666 0.00355428 -0.0164983 0.014364
internal_weight=134.089 129.743 11.6195 118.124 108.223 97.0351 91.1271 31.4063 24.1763 19.7055 13.9378 59.7208 55.7577 49.5546 15.6643 7.58516 33.8903 11.8703 22.02
internal_count=674 656 62 594 542 490 458 154 120 95 68 304 284 255 87 40 168 62 106
is_linear=0
shrinkage=0.05


Tree=26
num_leaves=20
num_cat=0
split_feature=4 4 4 6 5 1 0 3 2 2 5 5 0 7 6 4 4 6 2
split_gain=2.34613 2.38847 2.67844 3.71136 2.89328 1.98721 6.31844 3.5039 4.00922 4.35329 2.76201 2.03208 2.90307 7.48495 3.47894 3.10511 2.98584 3.71056 2.12438
threshold=3.7643083844866077 4.6535731724330374 4.9321419852120547 -0.0087981228047399589 -0.0038402268427583648 1633.2126358392181 1635.9008431785921 18.60800102373403 -0.0010736713136663076 -0.00070641235948750044 -0.0015829643092801213 -0.0012898233825827663 1483.5465869475213 0.0032089743495229421 -0.0010837592834005425 6.8892953055245547 5.6642892020089297 0.0015023815558669054 0.0084275320425460602
decision_type=2 2 2 2 2 2 2 2 2 2 2 2 2 2 2 2 2 2 2
left_child=-1 -2 -3 -4 -5 6 7 -6 10 -10 -9 -11 13 -13 -14 16 17 -16 -18
right_child=1 2 3 4 5 -7 -8 8 9 11 -12 12 14 -15 15 -17 18 -19 -20
leaf_value=0.043621715262859621 -0.020833769276891359 0.025697875139791694 0.067219677593959956 -0.037112090118624465 0.056800774442870738 0.029971310475140407 -0.061500823681919448 0.012954712027553873 0.093684039161613636 0.020278678317008348 -0.031916218307524634 0.066566115165786782 -0.037636593102377928 -0.023469933759108982 0.017779691289078435 -0.030753552821930943 0.00029749209526433104 -0.044244548439796916 0.033217175173909784
leaf_weight=2.9850871711969367 13.85856384038925 10.124437808990477 1.9450970813632 5.7038335651159278 2.6991697549819937 5.0794999152421942 4.2781219482421866 4.4885168969631222 1.3454813957214202 13.352670684456816 14.536238901317104 4.8713497966528276 7.613073781132683 4.3872441649436951 4.420059010386483 6.8584474697709075 9.2142964601516741 5.3059547543525696 10.468588665127752
leaf_count=13 74 47 9 30 12 26 33 21 6 62 78 21 38 21 22 38 49 28 46
internal_value=-0.000206973 -0.00120913 0.00112153 -0.00121335 -0.00248562 -0.000488997 -0.00213781 0.000697823 -0.00104553 0.00464314 -0.0213298 0.00284136 -0.00154025 0.023902 -0.00690846 -0.000458147 0.00660704 -0.0160572 0.0178062
internal_weight=133.536 130.551 116.692 106.568 104.623 98.9187 93.8392 89.5611 86.8619 67.8372 19.0248 66.4917 53.139 9.25859 43.8804 36.2673 29.4089 9.72601 19.6829
internal_count=674 661 587 540 531 501 475 442 430 331 99 325 263 42 221 183 145 50 95
is_linear=0
shrinkage=0.05


Tree=27
num_leaves=20
num_cat=0
split_feature=4 4 7 2 3 3 3 3 1 2 2 2 6 6 1 0 0 4 3
split_gain=2.10582 2.20082 1.7587 2.52977 2.85328 1.60818 2.17821 2.44963 1.86821 2.91608 5.46995 7.31567 2.84438 4.23554 3.7364 3.9984 2.68626 5.15348 4.94537
threshold=3.7643083844866077 4.5214364188058047 0.015165750838616156 0.020083607041073662 80.981696710705265 76.068771026384823 70.475889184605947 66.726751471754895 1540.2029298496379 0.012606647405563885 0.0055364483512403886 0.0021309854303833129 -0.0043850810324903003 -0.003409606063589143 1578.1120266045352 1603.2993586189625 1494.6145782411297 5.2392970493861615 42.809671577806817
decision_type=2 2 2 2 2 2 2 2 2 2 2 2 2 2 2 2 2 2 2
left_child=-1 -2 3 5 -5 6 7 8 9 10 11 16 -10 -14 -15 -16 17 -3 -18
right_child=1 2 -4 4 -6 -7 -8 -9 12 -11 -12 -13 13 14 15 -17 18 -19 -20
leaf_value=0.041189619623068732 -0.022922903346847674 0.0076986083117617111 0.031941974409327285 -0.050953920314270588 0.00024714340711525895 -0.02039013254844059 0.02513972420657028 -0.035788921228404533 -0.048130821783190725 0.042035738900361115 -0.032602591220234713 0.062888441872619077 0.056816691837122103 -0.049280916717928308 0.051087631443885374 -0.0091988889588180949 0.040290221307640907 -0.049723636634775248 -0.026403639528039525
leaf_weight=3.0027993768453589 10.666447684168814 13.310631744563581 4.3628008961677542 5.028986379504202 5.9288502708077431 7.4418303146958342 10.580647051334379 4.2769292369484893 3.6806440576910999 5.8353016525506964 8.1683850809931737 6.055355191230773 2.8089591413736406 4.4666445404291144 3.3523560762405422 15.315197184681891 9.2468451112508756 5.5309400111436835 3.9740671068429938
leaf_count=13 58 65 18 28 32 39 49 24 19 25 47 26 13 23 17 85 41 31 21
internal_value=-0.000206559 -0.00116251 0.000781988 -0.000400114 -0.0232511 0.00200651 0.00373184 0.0010987 0.00302866 0.0087272 0.004528 0.0124848 -0.00699761 -0.0011619 -0.00820168 0.00162748 0.00296554 -0.00915768 0.0202427
internal_weight=133.035 130.032 119.365 115.003 10.9578 104.045 96.6029 86.0223 81.7453 52.1215 46.2862 38.1178 29.6238 25.9432 23.1342 18.6676 32.0625 18.8416 13.2209
internal_count=674 661 603 585 60 525 486 437 413 256 231 184 157 138 125 102 158 96 62
is_linear=0
shrinkage=0.05


Tree=28
num_leaves=20
num_cat=0
split_feature=5 5 4 2 4 1 1 0 0 2 6 0 6 5 7 7 1 4 1
split_gain=1.75478 2.10317 2.92861 2.97536 2.04292 2.08383 5.38206 4.02025 3.48112 3.6468 3.42814 3.83402 3.18471 4.13915 3.84465 3.7983 3.62615 3.06938 2.95356
threshold=0.0086210435058315955 0.0018934601860988167 5.9142804827008932 0.012606647405563885 3.7643083844866077 1420.2531727626231 1448.8491614645952 1434.7188331296277 1454.0614944917695 0.004995484335723035 0.0043760518703802606 1634.2211349464194 0.0020080388525849373 -0.00046968472661873534 0.00024773005847367196 -0.0001435892685303086 1622.3398820976447 4.9321419852120547 1526.4479606819316
decision_type=2 2 2 2 2 2 2 2 2 2 2 2 2 2 2 2 2 2 2
left_child=1 4 -3 -4 -1 -6 -7 -8 -9 12 11 18 13 15 -15 16 17 -10 -11
right_child=-2 2 3 -5 5 6 7 8 9 10 -12 -13 -14 14 -16 -17 -18 -19 -20
leaf_value=0.047100365004341116 0.031148456305920849 -0.035833274157316103 0.02707926257961717 -0.024634330232395665 0.019741565046034568 -0.040348374375731376 0.069914173012739181 -0.068828399000382734 -0.013059277554474703 -0.024415266399261375 0.031575269407997403 -0.060254869196095365 -0.026168657134382708 0.019903268609686147 0.074420424311577291 -0.036819384554005678 -0.028825384899611142 0.038725768887734643 0.0082727987240011382
leaf_weight=2.4077377319335929 4.3171596080064765 9.72566816955805 5.6731485053896886 5.4568146467208862 12.426037490367888 8.3517502099275571 2.1080405563116065 1.7976667433977116 3.9210710227489427 14.746846690773969 4.3263025879859915 4.2193448916077605 5.038145847618579 10.844233900308614 4.6081575751304618 4.8041852489113834 4.0407148748636237 10.588264182209967 13.00445583462715
leaf_count=10 18 58 29 27 58 46 9 10 20 81 20 33 26 49 21 26 24 47 62
internal_value=-0.000204938 -0.00126169 -0.0157896 0.00172505 0.00156384 0.000517907 -0.00206733 0.00173664 -1.73559e-05 0.00152615 -0.0101964 -0.0158489 0.0112306 0.0160861 0.0361612 0.00280335 0.013065 0.0247311 -0.00909741
internal_weight=132.406 128.089 20.8556 11.13 107.233 104.825 92.3992 84.0474 81.9394 80.1417 36.297 31.9706 43.8448 38.8066 15.4524 23.3542 18.5501 14.5093 27.7513
internal_count=674 656 114 56 542 532 474 428 419 409 196 176 213 187 70 117 91 67 143
is_linear=0
shrinkage=0.05


Tree=29
num_leaves=20
num_cat=0
split_feature=4 4 4 6 5 1 0 3 2 2 6 6 6 1 1 2 3 4 0
split_gain=1.75029 1.98379 2.29232 2.72867 3.20351 1.92501 5.57917 3.06168 3.58362 2.71964 2.47202 1.98779 4.14046 3.4325 7.19576 4.22968 3.698 3.23225 5.55112
threshold=3.7643083844866077 4.6535731724330374 4.9321419852120547 -0.0083291534898594071 -0.0038402268427583648 1633.2126358392181 1635.9008431785921 18.60800102373403 -0.0010736713136663076 -0.00056109465615896607 -0.0020807768155051694 0.0017936256206482206 0.0026293845284147692 1477.4420856115973 1527.7878565520782 0.0058568863072325393 49.31694118544744 6.9571489606584835 1586.5919367694034
decision_type=2 2 2 2 2 2 2 2 2 2 2 2 2 2 2 2 2 2 2
left_child=-1 -2 -3 -4 -5 6 7 -6 10 -10 -9 13 -13 -11 15 -15 -16 18 -14
right_child=1 2 3 4 5 -7 -8 8 9 11 -12 12 17 14 16 -17 -18 -19 -20
leaf_value=0.037462131396905782 -0.019188262740817506 0.02373784342169305 0.050101030878484387 -0.041154806564743275 0.052812991987788049 0.02970773754743963 -0.060832084896355665 0.0077980406089468886 0.070329610342027629 0.03600607929029976 -0.032224802721469568 -0.051602911941007336 0.025208220391669145 0.0067269994929713616 -0.014479771138833525 -0.056938094146691591 0.035305209865997382 -0.037169301449258917 -0.040276380427698912
leaf_weight=3.0135581940412512 13.543576195836065 10.14522412419319 2.5344659239053717 5.0728591606020919 2.7139072716236106 5.0346352010965338 3.8665402531623831 5.452566176652911 1.5219512432813491 9.5681721270084648 13.193753555417045 4.4689508229494121 14.197622306644922 4.4188999235630053 5.2691737562418011 6.368864081799984 12.769359692931173 4.4591176807880393 4.191723369061946
leaf_count=13 74 47 12 28 12 26 32 25 7 43 74 23 66 20 27 40 60 23 22
internal_value=-0.000204999 -0.00108636 0.00104092 -0.00114995 -0.00241636 -0.000400728 -0.00204018 0.00052569 -0.00112665 0.00425218 -0.0205213 0.00272176 -0.00758797 0.0100571 0.00144394 -0.0308595 0.0207627 0.00102095 0.0102815
internal_weight=131.805 128.791 115.248 105.103 102.568 97.4952 92.4606 88.5941 85.8802 67.2338 18.6463 65.7119 27.3174 38.3945 28.8263 10.7878 18.0385 22.8485 18.3893
internal_count=674 661 587 540 528 500 474 442 430 331 99 324 134 190 147 60 87 111 88
is_linear=0
shrinkage=0.05


Tree=30
num_leaves=20
num_cat=0
split_feature=7 2 2 3 3 1 1 3 3 0 6 6 3 7 4 4 4 4 1
split_gain=1.67519 1.97496 2.74349 2.27656 2.1927 2.02492 1.7295 1.54093 2.12606 2.40665 2.0154 5.08792 3.53795 1.90748 1.80372 3.66691 4.38112 3.5446 2.50585
threshold=0.015165750838616156 0.020083607041073662 0.023773587481964651 76.068771026384823 70.475889184605947 1489.8171902481906 1472.3052726959611 65.711682642526497 59.61142843475502 1529.9231711646764 -0.0046106433072307098 -0.003701791364790596 44.117040839977093 -0.0075862568603267113 4.5214364188058047 5.2392970493861615 5.8678545270647327 6.7107238769531259 1515.2631534896298
decision_type=2 2 2 2 2 2 2 2 2 2 2 2 2 2 2 2 2 2 2
left_child=1 3 -3 4 7 -6 -5 8 10 -10 12 -12 -1 -13 -15 -16 -17 18 -18
right_child=-2 2 -4 6 5 -7 -8 -9 9 -11 11 13 -14 14 15 16 17 -19 -20
leaf_value=3.3240031788817604e-05 0.030337773115212626 -0.054700959314939984 -0.0022844597737506508 0.0030410397060073088 -0.0039543544025066818 0.039439545016288477 -0.041313173087735508 -0.025721688244896113 0.043035859974788156 -0.00045477715035168196 0.064613763995445578 0.037749788493557597 -0.058238017037328317 -0.024620165924084191 0.021638269036893532 -0.031103471893633501 -0.016087046663650423 -0.026619349182083488 0.027642615812513469
leaf_weight=7.2704058736562711 4.3404784798622122 3.9811490997672063 6.6934634521603584 3.694803334772585 4.2803820967674238 7.228219285607338 5.4245464280247688 5.4092263951897612 6.1901295483112317 6.5436324328184128 3.0907586514949648 3.0098548084497301 4.0591836795210838 8.3376374840736656 14.62794618308544 13.15236736834049 4.3798302039504113 6.5165393799543372 12.99843981862068
leaf_count=35 18 24 36 19 20 33 31 31 29 34 14 13 22 45 72 75 22 36 65
internal_value=-0.000206451 -0.00125128 -0.0218335 0.000639259 0.00268137 0.0233001 -0.0233426 0.000198862 0.0017537 0.0206869 -0.00135944 0.00197961 -0.0208443 -0.0010921 -0.00304016 0.000441711 -0.00792768 0.00482893 0.0166215
internal_weight=131.229 126.889 10.6746 116.214 107.095 11.5086 9.11935 95.586 90.1767 12.7338 77.443 66.1134 11.3296 63.0226 60.0128 51.6751 37.0472 23.8948 17.3783
internal_count=674 656 60 596 546 53 50 493 462 63 399 342 57 328 315 270 198 123 87
is_linear=0
shrinkage=0.05


Tree=31
num_leaves=20
num_cat=0
split_feature=4 4 4 0 0 6 5 6 0 6 1 0 0 1 4 4 3 1 1
split_gain=1.60664 1.73117 1.97259 1.97466 2.26779 2.42672 2.47006 1.95397 3.75119 2.58574 2.38796 2.77953 2.85177 3.06983 4.29305 3.18829 2.16175 3.13661 2.17222
threshold=3.7643083844866077 4.6535731724330374 4.9321419852120547 1401.1256334841703 1424.2309765005878 -0.0083291534898594071 -0.0038402268427583648 -0.0020807768155051694 1528.786278074446 -0.003409606063589143 1633.2126358392181 1633.3147096393739 1543.068494756423 1538.8654743872473 5.9214346749441971 5.4607195172991085 63.898731511431599 1524.092824600124 1488.8701685147457
decision_type=2 2 2 2 2 2 2 2 2 2 2 2 2 2 2 2 2 2 2
left_child=-1 -2 -3 -4 -5 -6 -7 8 -8 -10 11 12 16 -14 15 -15 17 18 -9
right_child=1 2 3 4 5 6 7 10 9 -11 -12 -13 13 14 -16 -17 -18 -19 -20
leaf_value=0.035893980996727727 -0.018097085171939958 0.02191863093662182 -0.028805517511130092 0.043381383870380374 0.04729402231758488 -0.037763170279000356 0.042436534276940684 -0.0061614894158692731 0.017865423718787157 -0.032128575781995523 0.03181452898544667 -0.042735891944871485 0.049228942218445371 0.0094708782987673948 0.022441819163127305 -0.050044414705894082 -0.027239932351749371 -0.031840723927499086 0.031621389129861475
leaf_weight=3.0114326775073996 13.345015212893484 10.199409008026121 6.0661660879850379 3.0015306621789923 2.5566609725356093 4.6100468114018431 7.1970720291137722 9.0695904716849345 5.7921208292245874 4.6730107292532894 4.3763758391141883 4.8555759713053694 4.1029707640409496 4.0396095216274279 11.289882116019724 5.0803600177168846 14.539587639272211 6.4142387583851805 6.5524386540055266
leaf_count=13 74 47 33 13 12 26 32 48 29 26 22 35 20 20 54 28 77 34 31
internal_value=-0.000204062 -0.00105492 0.000932799 -0.00112102 0.000590006 -0.000759866 -0.00208672 -0.00021738 0.0146505 -0.00445847 -0.0039517 -0.00632532 -0.00343126 0.00976491 0.00183149 -0.0236826 -0.0122752 -0.00240145 0.009686
internal_weight=130.773 127.762 114.417 104.217 98.1511 95.1495 92.5929 87.9828 17.6622 10.4651 70.3206 65.9443 61.0887 24.5128 20.4099 9.11997 36.5759 22.0363 15.622
internal_count=674 661 587 540 507 494 482 456 87 55 369 347 312 122 102 48 190 113 79
is_linear=0
shrinkage=0.05


Tree=32
num_leaves=20
num_cat=0
split_feature=7 2 3 3 3 1 1 0 2 2 6 7 6 4 4 4 0 2 3
split_gain=1.53624 1.69761 2.61704 2.14504 2.00124 1.75554 1.74061 3.86097 2.51175 2.76517 1.86066 3.32304 3.05672 2.44223 5.66805 4.21764 3.62081 4.09586 2.28382
threshold=0.015165750838616156 0.020083607041073662 80.981696710705265 76.068771026384823 74.39714680045644 1471.4649316779787 1631.0288499490091 1633.3147096393739 -0.023061708248620784 -0.020706635414361661 -0.00012310337546816982 0.0013792282300012506 0.00037703322867388428 5.0821446010044644 5.6285792759486624 4.5214364188058047 1488.3721170135364 0.0077069085225261198 46.42150852714051
decision_type=2 2 2 2 2 2 2 2 2 2 2 2 2 2 2 2 2 2 2
left_child=1 3 -3 4 6 -5 7 8 -1 -10 11 18 -12 15 -15 -14 -16 -18 -11
right_child=-2 2 -4 5 -6 -7 -8 -9 9 10 12 -13 13 14 16 -17 17 -19 -20
leaf_value=0.06661468383918781 0.029082396176787512 -0.048015426981430069 0.002197494155927922 0.0044107580586372199 0.038704808930566374 -0.040750520245710846 0.030992599175786412 -0.048362804241023169 -0.053186983167992342 0.014755159769762299 -0.044284323364916632 0.044891917258683821 -0.01498889638800497 -0.044152703673210766 -0.040400129723651326 0.053577719840025864 -0.00015689124230103453 0.054096563655186149 -0.0084614143727491011
leaf_weight=1.4733421653509129 4.3296820968389502 4.7318125888705236 5.7459057494997978 3.5588347092270833 3.6890118718147269 5.4431325867772102 4.6862818747758856 3.9916855171322814 2.3114866912364951 23.104865156114094 4.532456122338778 5.657795898616313 4.1735344752669317 7.8496494069695499 3.5195708274841335 4.8479491025209427 12.214676409959795 4.8641468584537497 19.560268424451351
leaf_count=6 18 28 32 18 17 32 24 32 12 110 26 27 22 45 17 23 63 23 99
internal_value=-0.00020172 -0.00120835 -0.020479 0.00054014 0.00252156 -0.0228965 0.00122296 -0.000199127 0.00184375 0.000813592 0.00219551 0.008886 -0.00550185 -0.000810571 -0.00799904 0.0218573 0.00577842 0.0152948 0.00411128
internal_weight=130.286 125.956 10.4777 115.479 106.477 9.00197 102.788 98.1014 94.1097 92.6364 90.3249 48.3229 42.002 37.4695 28.448 9.02148 20.5984 17.0788 42.6651
internal_count=674 656 60 596 546 50 529 505 473 467 455 236 219 193 148 45 103 86 209
is_linear=0
shrinkage=0.05


Tree=33
num_leaves=20
num_cat=0
split_feature=5 5 5 0 2 0 5 3 4 6 6 1 2 4 4 5 1 6 0
split_gain=1.46852 1.92207 2.48693 1.96266 1.63403 1.6128 5.48416 1.40832 2.85053 2.00803 3.63958 2.26818 2.18198 3.9234 2.14556 2.8753 3.04853 4.61842 4.28199
threshold=0.0086210435058315955 0.0018934601860988167 0.0029368003928398338 1546.3156934389187 0.010462211923139716 1635.9008431785921 0.00018082510315242664 79.985697183604429 7.1071515764508932 -0.0046106433072307098 -0.0035396585896651507 1524.4692158537978 0.012452475242798905 5.7321384974888403 6.4250008719308047 -0.00046968472661873534 1449.7567161066138 0.0020080388525849373 1544.664457306252
decision_type=2 2 2 2 2 2 2 2 2 2 2 2 2 2 2 2 2 2 2
left_child=1 5 -3 4 -4 7 -7 8 9 11 -11 -1 14 -14 15 -12 -17 18 -18
right_child=-2 2 3 -5 -6 6 -8 -9 -10 10 12 -13 13 -15 -16 16 17 -19 -20
leaf_value=-0.038451270538590904 0.028666865117122287 -0.038593923135801303 0.0033695138673833919 0.02510190998994832 -0.040182611004304619 -0.058683602243872937 0.032937069534655319 0.024958370914505368 -0.030344911518813862 0.049800592379432622 -0.0093895455212846968 0.0076656588923512421 -0.015034146857480751 0.04512625875042995 -0.026318864209575316 -0.024287873316182085 0.017595830523344572 -0.010747593565405613 0.071837348481575303
leaf_weight=5.5498322471976262 4.2609689384698859 7.3065934702754047 4.8675268590450269 4.3841728940606108 3.8628124594688416 4.0791715309023848 2.7239527329802513 6.8985605388879767 6.5142383053898802 4.6332246661186209 23.305581003427498 5.131464958190918 4.2169235944747907 7.5841246694326401 6.812220223248004 4.2951032146811583 10.278307080268862 7.5227118730545035 5.6323338598012915
leaf_count=29 18 48 24 22 20 37 14 31 39 21 119 23 21 32 38 24 51 38 25
internal_value=-0.000200728 -0.00118007 -0.0152174 -0.00219342 -0.0159005 0.00154539 -0.0219989 0.0031736 0.00153073 0.00397472 0.00688957 -0.016296 0.00403496 0.0236289 3.76618e-05 0.00355583 0.0144363 0.0215341 0.0367972
internal_weight=129.86 125.599 20.4211 13.1145 8.73034 105.178 6.80312 98.3746 91.4761 84.9618 74.2805 10.6813 69.6473 11.801 57.8463 51.034 27.7285 23.4334 15.9106
internal_count=674 656 114 66 44 542 51 491 460 421 369 52 348 53 295 257 138 114 76
is_linear=0
shrinkage=0.05


Tree=34
num_leaves=20
num_cat=0
split_feature=7 2 2 3 3 3 1 3 3 7 6 3 6 3 7 2 3 2 4
split_gain=1.37464 1.5809 2.42972 1.97567 1.8584 1.77571 1.58863 1.36536 1.57471 1.82646 2.18222 3.00828 2.94907 1.72585 5.36987 4.81633 2.95788 4.73124 3.47711
threshold=0.015165750838616156 0.020083607041073662 0.023773587481964651 76.068771026384823 70.475889184605947 72.805201938677456 1471.4649316779787 66.726751471754895 59.61142843475502 0.0038206898057734366 -0.0046106433072307098 44.117040839977093 -0.003503329858094872 33.662205423908496 -0.0022863930714374088 -0.0087740722643228405 44.642094144585023 0.00046376481706879703 5.9214346749441971
decision_type=2 2 2 2 2 2 2 2 2 2 2 2 2 2 2 2 2 2 2
left_child=1 3 -3 4 7 -6 -5 8 9 10 11 -1 -12 14 -14 -15 -17 -18 -19
right_child=-2 2 -4 6 5 -7 -8 -9 -10 -11 12 -13 13 15 -16 16 17 18 -20
leaf_value=-7.1991325913054393e-05 0.027558347980786581 -0.052223789205998863 -0.0016937291914198172 0.0036801380120477269 0.045552746073615487 0.0053996237664446153 -0.039528081949222534 -0.026910344081207533 0.017214550688366862 -0.021624946647724644 0.042615663705892405 -0.05563934282727321 0.01998186666282099 0.049725146574396563 -0.039240703801523003 0.022987678860956054 -0.059684160579500489 -0.021199689147480841 0.02512037718884047
leaf_weight=7.2033078521489937 4.3116520792245856 3.7188492305576784 6.6031896844506264 3.5566916912794095 4.5815995037555677 6.9003412127494812 5.293280154466629 4.4522463232278815 13.475670933723448 9.6759677752852422 4.911081813275799 3.6799953803420067 7.1027287393808356 5.8136574625968782 8.3009942173958091 9.4894702285528343 3.9827837646007564 8.4032856002450007 7.8236002400517455
leaf_count=35 18 24 36 18 20 33 32 26 68 53 23 21 33 27 49 48 22 48 40
internal_value=-0.000198968 -0.00115665 -0.0198988 0.000530777 0.00242915 0.0214218 -0.0221632 0.000116972 0.00145604 -0.00132397 0.00162055 -0.0188611 0.00561334 0.00204434 -0.0119329 0.00810698 -3.98485e-05 -0.0108524 0.00113298
internal_weight=129.28 124.969 10.322 114.647 105.797 11.4819 8.84997 94.3148 89.8625 76.3869 66.7109 10.8833 55.8276 50.9165 15.4037 35.5128 29.6991 20.2097 16.2269
internal_count=674 656 60 596 546 53 50 493 467 399 346 56 290 267 82 185 158 110 88
is_linear=0
shrinkage=0.05


Tree=35
num_leaves=20
num_cat=0
split_feature=4 4 5 5 4 4 0 5 2 6 0 5 5 1 0 1 1 1 1
split_gain=1.33047 2.57224 1.22929 2.00798 2.31679 2.73001 2.50555 1.89981 3.24195 3.90234 2.53669 3.25156 1.74324 1.64641 3.56252 3.37237 2.48638 3.2767 4.42976
threshold=3.9107273646763399 4.5214364188058047 0.0086210435058315955 0.0016951597313829005 5.9142804827008932 6.3107081821986615 1582.8684219252741 0.00064879644473803133 0.0020484993649269958 0.0010675330066569624 1635.9008431785921 0.00040246634495477723 0.00019320962480928741 1526.4479606819316 1522.3475302774177 1488.8701685147457 1420.2531727626231 1448.8491614645952 1475.3378134893157
decision_type=2 2 2 2 2 2 2 2 2 2 2 2 2 2 2 2 2 2 2
left_child=-1 -2 3 7 -5 -6 -7 10 -9 -10 11 12 13 14 15 16 -3 -18 -19
right_child=1 2 -4 4 5 6 -8 8 9 -11 -12 -13 -14 -15 -16 -17 17 18 -20
leaf_value=0.024243247750797638 -0.029012404024340067 0.014896644793996772 0.027056891288373758 -0.033745876257873002 0.032960343695724537 -0.043121300896340947 0.011954116464262672 -0.012960093486256589 0.058299986720272583 0.0039992982079109377 -0.034676745232058763 -0.03941394064432914 0.037762399231048127 0.012528802115962984 -0.044414830082267258 0.038553787318596468 -0.050439181890689355 0.027505553698396797 -0.043496418439383608
leaf_weight=5.3374242708086959 7.8174024373292914 8.7931576222181373 4.2367520779371253 8.8529236912727374 4.126534476876258 4.32494058459997 3.9519894048571587 6.258234620094302 6.5125470310449582 6.7255996242165565 5.1635804697871199 4.4752060845494261 3.7510333359241477 24.085100568830967 4.8140925467014304 5.1857547014951697 5.2272041067481032 5.5051263496279699 3.6553710475564003
leaf_count=25 46 42 18 54 19 24 20 31 31 34 43 24 18 117 26 24 30 26 22
internal_value=-0.000197643 -0.00125425 0.000622151 -0.000383136 -0.0142071 -0.000261421 -0.0168244 0.00287634 0.016694 0.0307127 -0.000936432 0.00172375 0.00474095 0.00257797 -0.00464511 0.0021042 -0.00604988 -0.0188515 -0.000826811
internal_weight=128.8 123.463 115.645 111.408 21.2564 12.4035 8.27693 90.152 19.4964 13.2381 70.6556 65.492 61.0168 57.2658 33.1807 28.3666 23.1809 14.3877 9.1605
internal_count=674 649 603 585 117 63 44 468 96 65 372 329 305 287 170 144 120 78 48
is_linear=0
shrinkage=0.05


Tree=36
num_leaves=20
num_cat=0
split_feature=1 0 0 0 4 6 0 1 1 3 7 7 6 6 3 0 2 6 7
split_gain=1.29963 5.40358 1.60327 4.51704 3.87572 2.99849 2.66766 3.67075 3.09115 2.33864 3.76369 3.93111 2.5009 4.42764 2.88359 2.40738 2.17935 2.01657 1.75256
threshold=1633.2126358392181 1635.9008431785921 1546.851101501685 1586.5919367694034 5.1714346749441971 0.0019077826816774615 1529.9231711646764 1526.4479606819316 1515.2631534896298 35.785403924451124 -0.0021441597075370629 -0.0038933959874218322 -0.00048669799577616407 -0.00099627962608139753 47.831017929023481 1483.5465869475213 0.0037944927944493097 0.0010451402694084957 0.0061925372486687511
decision_type=2 2 2 2 2 2 2 2 2 2 2 2 2 2 2 2 2 2 2
left_child=1 2 6 -4 -5 -6 8 -8 9 10 11 -1 13 14 -11 -16 -9 -10 -14
right_child=-2 -3 3 4 5 -7 7 16 17 12 -12 -13 18 -15 15 -17 -18 -19 -20
leaf_value=-0.027836201934407445 0.024521520136274875 -0.059737958551492415 0.049863764207486672 0.048194791104517881 0.0053539414607401857 -0.033195205970575417 -0.066762396423537429 -0.029653420691925843 0.052168994264017443 0.038123768624356874 -0.050918155061052406 0.036498822624992273 -0.00021270891275268264 0.060637290949827297 0.017106203718023079 -0.033482146623420715 0.014579450340400075 0.0054599019323839917 -0.030988407856788931
leaf_weight=5.5869186818599692 5.1061993613839141 3.8226636722683898 5.8326465412974349 3.8533905893564251 17.542549170553688 7.0804611742496482 3.5402346402406684 5.7750185057520849 4.4559218510985357 4.1097671538591412 5.9770769625902167 4.1294520348310462 21.339095905423175 4.4140479192137638 4.0994543358683568 5.5160947889089584 5.377891980111599 4.799819141626358 5.9062700346112242
leaf_count=27 27 36 27 19 86 39 20 31 21 18 36 20 116 22 20 29 27 23 30
internal_value=-0.000196268 -0.00122107 0.000653382 0.00977688 0.00156613 -0.00573105 -0.00302802 -0.0224048 0.0010199 -0.00306057 -0.0196987 -0.000493853 0.00269267 0.0170773 0.00306843 -0.0119145 -0.00832449 0.0279467 -0.00688429
internal_weight=128.265 123.159 119.336 34.309 28.4764 24.623 85.0271 14.6931 70.3339 61.0782 15.6934 9.71637 45.3847 18.1394 13.7253 9.61555 11.1529 9.25574 27.2454
internal_count=674 647 611 171 144 125 440 78 362 318 83 47 235 89 67 49 58 44 146
is_linear=0
shrinkage=0.05


Tree=37
num_leaves=20
num_cat=0
split_feature=7 3 0 2 3 2 2 7 2 2 0 3 2 0 5 5 3 3 7
split_gain=1.36817 1.45536 3.29544 3.0134 2.45577 2.99905 1.90023 4.11404 3.26912 3.95702 4.13868 2.80698 2.55626 2.52751 2.17908 3.18526 3.23547 4.82186 4.87306
threshold=0.015165750838616156 76.068771026384823 1468.1879001129562 0.018433333220444235 74.39714680045644 0.019435947600626311 0.012452475242798905 -0.00029017770909633972 0.0055364483512403886 0.0018947196848556594 1523.4506357851858 55.972826240447553 0.01580820741723284 1623.0133838262443 0.00040246634495477723 -0.00052506312664640775 42.343907680996203 33.662205423908496 -0.0031732246489563627
decision_type=2 2 2 2 2 2 2 2 2 2 2 2 2 2 2 2 2 2 2
left_child=1 4 -3 -4 5 6 8 -8 9 14 -11 13 -9 -12 15 16 17 18 -1
right_child=-2 2 3 -5 -6 -7 7 12 -10 10 11 -13 -14 -15 -16 -17 -18 -19 -20
leaf_value=0.008255420861866437 0.027580268457646512 0.026136993721286236 -0.056182891544970748 -0.0049303674580626579 0.039598631748502505 -0.039306303601799021 -0.022153265872667093 0.062585026325655199 -0.021814986392778665 0.060417729247149068 -0.00043412625289822657 -0.026361607420781627 0.0099600652715751883 0.048574932246544716 -0.019733499251027575 0.032084605672024161 -0.029591748021517691 0.047826190813625824 -0.06278532292571419
leaf_weight=9.8138817399740148 4.2846692502498618 3.5908060148358336 5.3513984903693181 6.1797506585717201 3.9437561184167853 4.7744968906044951 4.225225307047368 4.8215589672327006 16.065141387283802 5.1943266391754177 5.7038150951266271 4.1462535485625258 4.4257869124412537 4.8828642442822456 15.701592348515986 7.2911002486944261 9.031049616634844 5.1782913506031027 3.2013961933553263
leaf_count=47 18 17 34 35 18 30 24 21 96 23 27 23 21 25 84 35 51 23 22
internal_value=-0.000196189 -0.00115968 -0.0156906 -0.0287157 0.000867394 -0.000594901 0.00125927 0.0187222 -0.00146978 0.00318986 0.022042 0.008512 0.0373987 0.0221702 -0.00429105 0.0027339 -0.00512659 0.00701759 -0.00921863
internal_weight=127.807 123.522 15.122 11.5311 108.401 104.457 99.6823 13.4726 86.2097 70.1446 19.9273 14.7329 9.24735 10.5867 50.2173 34.5157 27.2246 18.1936 13.0153
internal_count=674 656 86 69 570 552 522 66 456 360 98 75 42 52 262 178 143 92 69
is_linear=0
shrinkage=0.05


Tree=38
num_leaves=20
num_cat=0
split_feature=7 2 3 3 2 5 0 2 1 0 4 6 0 7 5 6 6 4 4
split_gain=1.2384 1.36045 2.18269 1.69104 1.46552 1.92275 1.86375 2.56734 3.09567 4.39511 2.96424 2.81214 2.45201 1.86037 2.42283 5.66173 3.89927 4.45115 3.45783
threshold=0.015165750838616156 0.020083607041073662 80.981696710705265 76.068771026384823 0.0007397333421843077 -0.0037033615688006889 1388.8261178655182 -0.0066357190762352577 1448.8491614645952 1397.0607284362552 5.4000200544084835 -0.00069852452592034087 1494.6145782411297 -0.0069183570982704881 -0.0011654557436073241 -0.00095313004536101687 -0.00012310337546816982 5.6642892020089297 5.1714346749441971
decision_type=2 2 2 2 2 2 2 2 2 2 2 2 2 2 2 2 2 2 2
left_child=1 3 -3 4 6 -6 -1 8 9 -8 -10 -12 -9 -7 -15 -16 -17 18 -18
right_child=-2 2 -4 -5 5 13 7 12 10 -11 11 -13 -14 14 15 16 17 -19 -20
leaf_value=0.033514657895755501 0.026257632721237961 -0.045247825848812505 0.0017641606720616096 -0.020903814346381739 -0.0324121047705608 0.054777173926820591 0.016908702526162226 -0.046547253214370206 0.050972522520510294 -0.053848896934556079 0.028401608932067585 -0.027665578460716697 -0.0087248135667100518 0.027038599778864799 -0.036131692577843356 0.051302674609340126 0.0071381079303489059 0.019377041037720571 -0.050270798124624982
leaf_weight=3.0257257819175711 4.2756991088390341 4.3812000416219217 5.6567604467272758 8.5647379979491216 2.8674240484833637 2.1867175698280255 4.368697404861452 6.0588726997375515 4.820113703608512 4.410073384642601 4.8181035369634619 4.1738542318344107 14.637385506182907 12.4157780855894 7.917725071310989 5.06954859942197 5.162875868380107 17.015676774084568 5.3315037414431572
leaf_count=14 18 28 32 50 18 10 22 36 21 27 22 21 80 62 43 25 26 86 33
internal_value=-0.000195043 -0.00111546 -0.0187548 0.000453625 0.00220776 0.0075059 -0.00442365 -0.0070755 0.00457949 -0.0186368 0.0193355 0.00237655 -0.0197974 0.00958326 0.00771555 0.00179143 0.0110078 0.00358224 -0.0220276
internal_weight=127.158 122.883 10.038 112.845 104.28 57.9672 46.3128 43.2871 22.5908 8.77877 13.8121 8.99196 20.6963 55.0998 52.9131 40.4973 32.5796 27.5101 10.4944
internal_count=674 656 60 596 546 303 243 229 113 49 64 43 116 285 275 213 170 145 59
is_linear=0
shrinkage=0.05


Tree=39
num_leaves=20
num_cat=0
split_feature=4 4 3 5 2 5 1 1 0 4 0 6 6 1 0 1 1 2 1
split_gain=1.2323 2.26938 1.23942 1.07001 3.13684 1.73569 2.6042 1.8052 3.98715 2.00192 2.2566 2.13759 2.91573 2.59469 2.47543 2.82744 4.3113 4.04227 3.0354
threshold=3.9107273646763399 4.5214364188058047 44.642094144585023 -0.002675055265043635 0.0042633407615408651 -0.0016411087102261022 1539.2419840806492 1633.2126358392181 1633.3147096393739 4.9178510393415182 1401.1256334841703 0.0053655140031418922 0.0085490199861095757 1437.8474645768733 1481.2236212382268 1540.1087645862524 1531.6675052023468 0.005467376366998805 1560.8640321602454
decision_type=2 2 2 2 2 2 2 2 2 2 2 2 2 2 2 2 2 2 2
left_child=-1 2 -2 4 -3 6 -5 8 9 -7 -11 13 -13 -12 -15 16 17 -16 -17
right_child=1 3 -4 5 -6 7 -8 -9 -10 10 11 12 -14 14 15 18 -18 -19 -20
leaf_value=0.023456504864267744 -0.010500460068099416 0.0066019102236561785 -0.051454783876754284 0.0019653444149819741 -0.044181027026825304 0.023270411772166003 0.050828731089153339 0.030158488566056896 -0.044042737085581846 -0.033303526834635243 0.036104301944716248 -0.04896221545282424 0.0047552734489826002 -0.033108480331071166 0.032581829667906674 -0.049838415175095935 0.049236731783300215 -0.014689600413078804 5.1616803458463032e-05
leaf_weight=5.2782214060425749 4.3970947340130797 7.8509628027677518 3.1859287694096565 7.1973698288202268 4.9632446020841599 8.9706905111670476 4.3899053931236267 4.6742297708988181 5.2310345433652392 5.2624792158603659 5.848668009042739 4.7432855516672117 5.4042797386646271 4.8317129388451567 7.2351440489292207 3.8687015101313618 6.8385677933692923 12.061563193798063 14.385750748217104
leaf_count=25 26 40 20 35 29 44 23 24 41 29 27 26 23 29 33 20 35 71 74
internal_value=-0.000193887 -0.00122266 -0.027707 0.000542772 -0.0130675 0.00227052 0.0204775 -9.04735e-05 -0.00176014 0.00102374 -0.00180781 0.000733612 -0.0203539 0.00461934 0.000878181 0.00457755 0.0151238 0.00303444 -0.0105217
internal_weight=126.619 121.341 7.58302 113.758 12.8142 100.943 11.5873 89.3561 84.6819 79.4508 70.4802 65.2177 10.1476 55.0701 49.2214 44.3897 26.1353 19.2967 18.2545
internal_count=674 649 46 603 69 534 58 476 452 411 367 338 49 289 262 233 139 104 94
is_linear=0
shrinkage=0.05


Tree=40
num_leaves=20
num_cat=0
split_feature=4 4 5 3 3 4 6 0 6 0 7 2 5 6 2 4 3 0 7
split_gain=1.11131 1.83097 1.25759 1.06289 3.7095 3.07424 1.88766 1.81103 4.28284 3.73733 3.15934 4.73615 3.01311 2.81882 2.57553 3.74075 3.76213 2.98577 2.47379
threshold=3.8750130789620543 4.5214364188058047 -0.0002091843828075923 23.958206249849521 18.60800102373403 4.9321419852120547 -0.0055879226977028065 1546.851101501685 -0.0031563464121252545 1588.7897870323175 0.0088603833868864407 0.0037944927944493097 -0.00012580090685115894 -0.0020807768155051694 -0.0010736713136663076 6.9571489606584835 73.481465001675204 1530.1708714446725 -0.0020459897425699198
decision_type=2 2 2 2 2 2 2 2 2 2 2 2 2 2 2 2 2 2 2
left_child=-1 2 -2 4 -3 -5 -7 8 -8 -9 11 12 -11 -10 -15 17 -17 -16 -13
right_child=1 3 -4 5 -6 6 7 9 13 10 -12 18 -14 14 15 16 -18 -19 -20
leaf_value=0.023494775470000395 -0.0087854118185635346 0.010169521479016079 -0.049645752768109321 0.028258825444477026 -0.054972987506715067 0.027604733743489637 -0.05193579779565996 0.040683436907202442 0.032359224829166928 -0.008807870074915165 0.03832448226309379 0.01441946982329217 0.048140537474833517 -0.029712632296853472 0.018411856082325723 -0.061029059262473907 0.0074391464053460343 -0.01988943899288978 -0.036904515615861458
leaf_weight=4.7645301595330229 4.9836319908499718 5.4670597426593286 3.0267986208200437 10.0289109647274 3.6406876370310783 5.485272377729415 5.097652405500404 6.4425776153802863 4.8600727915763775 4.7151085361838341 4.2191913351416579 2.9463932402431992 4.5776824951171928 10.261035248637191 18.976784072816397 4.5329362377524358 3.5994196757674217 6.9524220973253241 11.556353576481337
leaf_count=22 29 30 20 48 22 26 28 30 22 25 19 18 21 62 91 29 19 38 75
internal_value=-0.000192552 -0.00112243 -0.0242248 0.000510076 -0.0158702 0.00194111 -0.000860101 -0.00261964 -0.00831077 0.00634554 -0.00155118 -0.00862154 0.0192452 -0.00378915 -0.0077529 -0.00113753 -0.0307247 0.00814209 -0.0264775
internal_weight=126.135 121.37 8.01043 113.36 9.10775 104.252 94.2229 88.7376 54.2803 34.4573 28.0147 23.7955 9.29279 49.1827 44.3226 34.0616 8.13236 25.9292 14.5027
internal_count=674 652 49 603 52 551 503 477 289 188 158 139 46 261 239 177 48 129 93
is_linear=0
shrinkage=0.05


Tree=41
num_leaves=20
num_cat=0
split_feature=7 0 1 2 2 5 5 7 5 4 5 7 5 6 6 5 6 6 6
split_gain=1.06716 1.27303 3.8687 2.14969 2.85921 1.57187 2.71036 1.79351 1.71273 1.59256 1.27053 2.11676 2.05914 4.34364 4.16897 3.84226 3.45165 2.97163 4.13093
threshold=0.015165750838616156 1635.9008431785921 1633.2126358392181 -0.023061708248620784 -0.021016411945063599 0.0018001233423065035 0.0029368003928398338 0.0082377523307078943 0.0021892351637710088 5.8500148228236624 -0.0038402268427583648 -0.0075862568603267113 -0.0012898233825827663 -0.0038193785035515733 -0.0027405802018634069 -0.00040120149509681452 0.00057709273202988254 0.0013403985730109371 0.0022720467616001998
decision_type=2 2 2 2 2 2 2 2 2 2 2 2 2 2 2 2 2 2 2
left_child=1 3 -3 -1 -5 10 8 9 -7 -8 -6 -12 13 -13 -15 16 -14 -17 -19
right_child=-2 2 -4 4 5 6 7 -9 -10 -11 11 12 15 14 -16 17 -18 18 -20
leaf_value=0.060692839816790634 0.024455710576703791 -0.059180272551306215 0.01088592707696906 -0.067762341637764317 -0.018707006817889799 -0.011182364061312879 -0.0087880308488180944 -0.027158246743131192 -0.0612728460181034 0.033927870407131501 0.040102194447114797 0.059780674234293854 -0.039429030191997332 -0.037276151238694814 0.018493341913881408 0.016324681827017642 0.014146675770568502 -0.045209917623293384 0.0066149298051643522
leaf_weight=1.454744204878806 4.2428616285324088 3.5563565231859675 4.4169113039970398 1.5571021959185589 6.1536943987011901 3.2184071764349964 4.1219823658466321 3.8401820957660666 3.632864885032177 4.6362579390406609 4.0486103147268286 4.5033010095357922 10.470222733914843 4.4268409609794661 13.788713999092568 25.814514085650458 4.2171526551246634 5.7231926843524006 11.717693895101545
leaf_count=6 18 36 24 9 34 19 23 19 28 23 18 20 62 22 69 131 21 32 60
internal_value=-0.000192784 -0.00105495 -0.0203661 0.000303722 -0.000481566 0.000468118 -0.0124323 0.00133204 -0.0377427 0.013824 0.00322948 0.00482304 0.00305229 0.0158104 0.00493994 -0.00195006 -0.024046 0.00555261 -0.0103913
internal_weight=125.542 121.299 7.97327 113.325 111.871 110.314 19.4497 12.5984 6.85127 8.75824 90.8639 84.7102 80.6616 22.7189 18.2156 57.9428 14.6874 43.2554 17.4409
internal_count=674 656 60 596 590 581 112 65 47 46 469 435 417 111 91 306 83 223 92
is_linear=0
shrinkage=0.05


Tree=42
num_leaves=20
num_cat=0
split_feature=0 0 3 4 3 2 7 3 2 0 7 0 7 7 3 6 3 4 7
split_gain=1.05148 1.59869 1.10398 2.41474 2.09828 4.36413 2.68376 3.72318 3.35162 2.40703 4.48711 3.19992 3.63469 3.25282 3.19319 2.98172 3.24402 2.53319 2.35583
threshold=1392.7827359668354 1412.1160213019996 26.668665222026181 5.3857203892299115 44.642094144585023 -0.0010736713136663076 0.0028872599032508943 41.368283735246237 -0.0063936916476465119 1483.5465869475213 0.00072884596852462746 1489.0268268116733 0.0050946203546755617 0.0035586775883972304 76.068771026384823 -0.00080656978193915918 51.608319243505342 6.5500095912388403 -0.0010507214859886147
decision_type=2 2 2 2 2 2 2 2 2 2 2 2 2 2 2 2 2 2 2
left_child=-1 -2 3 -3 6 -6 7 8 -4 10 -7 -11 13 14 15 -13 -17 -14 -10
right_child=1 2 4 -5 5 9 -8 -9 18 11 -12 12 17 -15 -16 16 -18 -19 -20
leaf_value=0.019346894963442537 -0.027091869064095678 0.0084077602024572231 0.040831587489041254 -0.035674744777979293 -0.05221088178213891 0.052846824555689398 -0.020824445733701163 0.060773032067522673 0.012548674125444005 -0.045197313143053912 -0.0053301078522323825 -0.014786756958015358 0.044070886700918743 -0.052318532647631082 -0.040577672780059387 -0.024575202881753262 0.027798726277838217 0.00098930887935134927 -0.037570726752020417
leaf_weight=6.5259409397840491 5.7048671171069136 6.1066364794969541 5.6672636717557934 6.3233225978910923 4.1473077461123458 5.7863385081291181 4.4225843250751486 4.7726019173860541 5.8603141158819225 4.3371220901608458 7.75840013474226 13.951453909277907 6.5743976905941945 3.7757408842444411 5.0164422169327727 3.7884082794189586 13.465635165572165 7.093808613717556 3.9082337580621234
leaf_count=32 33 31 25 38 29 25 24 23 28 23 40 79 31 24 34 22 72 36 25
internal_value=-0.000192159 -0.00126855 3.79707e-05 -0.0140177 0.00177941 -0.00234538 0.0144556 0.0221765 0.0102429 0.000545102 0.0195232 -0.00388662 -0.00054801 -0.00815465 -0.00355104 0.00240117 0.0162992 0.0217115 -0.00750327
internal_weight=124.987 118.461 112.756 12.43 100.326 75.6951 24.631 20.2084 15.4358 71.5477 13.5447 58.003 53.6659 39.9977 36.2219 31.2055 17.254 13.6682 9.76855
internal_count=674 642 609 69 540 415 125 101 78 386 65 321 298 231 207 173 94 67 53
is_linear=0
shrinkage=0.05


Tree=43
num_leaves=20
num_cat=0
split_feature=6 6 5 6 6 1 5 7 3 6 7 0 0 0 4 5 3 7 4
split_gain=1.04465 4.74467 1.40938 2.03019 2.7167 1.85546 1.57926 1.29521 5.80191 2.47957 2.53136 1.87137 2.63305 3.22442 2.25731 2.19273 1.77515 7.3062 4.11342
threshold=0.012387978831468917 0.0085490199861095757 0.0018934601860988167 0.0032052531301334235 0.0046152013450513349 1560.8640321602454 -0.0038402268427583648 0.0045558127347380415 69.952254182231414 0.0017936256206482206 0.0012284437979984688 1635.9008431785921 1540.8040607498904 1528.786278074446 6.3642708914620547 -1.0000000180025095e-35 34.745027450484869 -0.0022863930714374088 4.8321446010044644
decision_type=2 2 2 2 2 2 2 2 2 2 2 2 2 2 2 2 2 2 2
left_child=1 2 6 5 -5 -4 -1 9 -9 11 -11 12 13 16 -14 -13 17 18 -8
right_child=-2 -3 3 4 -6 -7 7 8 -10 10 -12 15 14 -15 -16 -17 -18 -19 -20
leaf_value=-0.022460672557015428 -0.026987433587818927 0.053822989944376232 -0.052930891608341316 0.025320996497703044 -0.027145089933625535 -0.0023981966817820011 -0.016892109255517592 -0.018779061238753954 0.055396946072020815 0.012451563700501409 -0.034866857843493908 -0.058100163225266482 0.029357563913656466 -0.035459537053896401 -0.012150806786959035 0.009335538067239196 0.013113817938648143 -0.064483427976281399 0.048633161190885392
leaf_weight=6.6578628718852988 3.5338499248027793 4.0461011528968802 4.7426588088274029 5.2510332688689214 4.6541961953043938 2.9442688226699829 4.9734588116407377 5.1432131826877576 5.4083844572305679 4.1853707656264296 8.7048086971044523 2.5042445734143257 16.768438406288627 5.6890112385153762 4.0704404264688483 2.3242151215672484 24.047683849930763 4.1890773251652709 4.6200012117624283
leaf_count=39 15 18 33 28 27 19 25 29 26 21 48 27 78 34 22 14 124 27 20
internal_value=-0.000191091 0.000591995 -0.00125076 -0.0142945 0.000668619 -0.0335757 0.00106042 0.00275104 0.019241 0.000631134 -0.0195028 0.0043823 0.00663468 -0.00036365 0.0212498 -0.0256395 0.00491416 -0.00939254 0.0146634
internal_weight=124.458 120.924 116.878 17.5922 9.90523 7.68693 99.2862 92.6283 10.5516 82.0768 12.8902 69.1866 64.3581 43.5192 20.8389 4.82846 37.8302 13.7825 9.59346
