tree
version=v4
num_class=1
num_tree_per_iteration=1
label_index=0
max_feature_idx=7
objective=binary sigmoid:1
feature_names=EMA_Fast EMA_Slow Trend_Dist RSI ATR Ret_1 Ret_2 Ret_3
feature_infos=[995.98824681864687:1788.9461123038118] [1001.960389325447:1774.6287724906883] [-0.096405999569546069:0.1023251893715794] [0:95.892909303079222] [4.3107125418526788:23.52142333984375] [-0.060968935591442897:0.10249516508052858] [-0.062307446103993969:0.10425784404973482] [-0.060492996465388194:0.10462967073074503]
tree_sizes=2204 2249 2238 2248 2252 2243 2224 2238 2252 2252 2250 2256 2238 2272 2265 2253 2265 2236 2248 2255 2252 2270 2254 2256 2244 2251 2248 2270 2268 2257 2260 2236 2265 2269 2262 2251 2259 2244 2243 2262 2260 2237 2245 2278 2229 2253 2250 2276 2258 2243 2243 2267 2243 2249 2258 2238 2264 2260 2240 2244 2242 2243 2227 2255 2237 2271 2250 2232 2265 2258 2255 2247 2245 2261 2264 2246 2253 2239 2244 2271 2244 2265 2238 2236 2241 2248 2243 2245 2268 2250 2250 2251 2258 2251 2262 2249 2261 2251 2259 2258

Tree=0
num_leaves=20
num_cat=0
split_feature=4 1 7 4 2 0 0 4 7 0 3 0 2 1 0 4 2 2 3
split_gain=32.7085 22.834 19.722 15.7384 21.997 17.0899 15.6476 14.7999 13.6591 13.2109 13.1632 15.6653 10.5208 17.1427 11.0255 11.754 10.3859 20.6055 15.7102
threshold=14.369646344866073 1014.4803819723455 -0.00096008715818679524 10.885711669921877 -0.035246445179445952 1686.9471056470081 1675.4380393501435 5.7696446010044653 0.0040191543985768083 1611.2750328788209 62.752707564163167 1004.8138922207056 0.039094475064122364 1344.916477443169 1649.9413772556154 15.655330113002234 0.032539058780368245 0.041580990103149341 67.808220132533606
decision_type=2 2 2 2 2 2 2 2 2 2 2 2 2 2 2 2 2 2 2
left_child=1 7 -2 9 -5 16 12 8 -1 -3 11 -9 13 -4 -15 -16 18 -18 -6
right_child=2 3 6 4 5 -7 -8 10 -10 -11 -12 -13 -14 14 15 -17 17 -19 -20
leaf_value=-0.83384751089286946 -0.81760983913918084 -0.87979445258831745 -0.75202445485718117 -0.79283134981104109 -0.86147350644400045 -0.89797070281457603 -0.91122768605784177 -0.76119230427294449 -0.93452195728972143 -0.90604432504200638 -0.72577106789385859 -0.89223276059608447 -0.89264308633719924 -0.878052226924534 -0.76405725721537054 -0.86753935749580002 -0.76405725721537054 -0.86668998321169255 -0.90208057838283806
leaf_weight=10.388270020484926 37.813302874565125 620.80301642417908 5.1941350102424648 9.5572084188461286 151.6687422990799 45.085091888904572 13.5047510266304 4.3630734086036664 4.9863696098327628 51.941350102424622 4.5708388090133658 4.7786042094230652 10.596035420894621 15.790170431137087 5.8174312114715558 5.1941350102424622 7.4795544147491482 14.128047227859495 28.256094455718994
leaf_count=50 182 2988 25 46 730 217 65 21 24 250 22 23 51 76 28 25 36 68 136
internal_value=-0.873679 -0.876439 -0.845518 -0.877805 -0.867258 -0.870143 -0.864331 -0.832816 -0.866499 -0.881821 -0.795051 -0.829691 -0.849461 -0.83516 -0.851272 -0.81287 -0.863917 -0.831163 -0.867851
internal_weight=1051.92 958.006 93.91 928.919 256.175 246.618 56.0967 29.0872 15.3746 672.744 13.7125 9.14168 42.5919 31.9959 26.8017 11.0116 201.532 21.6076 179.925
internal_count=5063 4611 452 4471 1233 1187 270 140 74 3238 66 44 205 154 129 53 970 104 866
is_linear=0
shrinkage=1


Tree=1
num_leaves=20
num_cat=0
split_feature=4 1 7 4 2 0 0 3 4 3 0 7 3 3 4 4 3 2 1
split_gain=29.1744 20.2802 17.1393 14.2229 19.1224 15.495 14.1425 13.2888 13.2425 16.7847 12.1672 10.0863 9.8746 11.7477 16.5249 11.6728 9.38733 9.31941 14.3773
threshold=14.369646344866073 1014.4803819723455 -0.00096008715818679524 10.885711669921877 -0.035246445179445952 1686.9471056470081 1675.4380393501435 42.493537893296477 5.7696446010044653 58.482373311826883 1611.2750328788209 -0.006515290929985428 9.0932015429895916 30.634514807777908 8.6535600934709844 6.4178684779575894 18.483410678667564 0.039094475064122364 1344.916477443169
decision_type=2 2 2 2 2 2 2 2 2 2 2 2 2 2 2 2 2 2 2
left_child=1 7 11 10 -5 -6 17 -1 -9 -10 12 -2 -3 14 16 -15 -14 18 -4
right_child=2 3 6 4 5 -7 -8 8 9 -11 -12 -13 13 15 -16 -17 -18 -19 -20
leaf_value=0.11748841230764911 0.029439869038329583 -0.070743406500012804 0.11013749456955718 0.074332745135730155 0.0092303909643345131 -0.02331804240267905 -0.036251792659346124 -0.0090594873429017866 0.0052140755179708887 0.12691928184487414 -0.03117690470239682 0.080889085262086338 0.085368339286296446 -0.026752321440312084 -0.0094052012989205673 -0.0051484593116566859 0.022730451757567896 -0.018162307483829063 0.021073526132204857
leaf_weight=4.4776844233274486 21.671855896711349 5.8027813434600821 5.4434195160865775 9.8665747940540296 202.32329568266869 44.631725266575813 13.294051960110663 13.726753234863283 5.8704251945018751 5.4750785082578659 51.243849098682404 16.997534036636353 7.0462344884872428 72.742008984088898 48.909157037734985 445.15622591972351 39.583258450031281 10.512979477643965 27.039107710123062
leaf_count=21 102 28 25 46 970 217 65 66 28 25 250 80 34 351 236 2148 191 51 129
internal_value=-7.53754e-06 -0.00263083 0.0264261 -0.00393025 0.00607507 0.00334797 0.00881977 0.0381463 0.0239765 0.0639462 -0.00776268 0.0520549 -0.00582509 -0.00521099 0.0108989 -0.00818286 0.0321957 0.0227557 0.0359989
internal_weight=1051.81 956.855 94.9589 927.305 256.822 246.955 56.2896 29.5499 25.0723 11.3455 670.484 38.6694 619.24 613.437 95.5386 517.898 46.6295 42.9955 32.4825
internal_count=5063 4611 452 4471 1233 1187 270 140 119 53 3238 182 2988 2960 461 2499 225 205 154
is_linear=0
shrinkage=0.05


Tree=2
num_leaves=20
num_cat=0
split_feature=4 1 7 4 0 1 0 0 3 4 3 3 3 4 3 3 4 0 2
split_gain=26.0732 18.0729 14.9487 12.8669 17.0949 17.1888 12.8014 11.2585 11.2105 11.6212 14.1834 9.17256 12.2064 14.5082 11.1825 11.1238 10.1835 8.72868 8.57626
threshold=14.369646344866073 1014.4803819723455 -0.00096008715818679524 10.885711669921877 1671.2759319882678 1672.2941612753664 1675.4380393501435 1637.1890037204098 42.493537893296477 5.7696446010044653 58.482373311826883 9.0932015429895916 30.634514807777908 8.8660670689174115 19.025789212745433 27.749469636186031 6.4178684779575894 1698.7001849109199 -0.035246445179445952
decision_type=2 2 2 2 2 2 2 2 2 2 2 2 2 2 2 2 2 2 2
left_child=1 8 17 7 5 18 -4 11 -1 -10 -11 -3 13 14 -13 -16 -14 -2 -5
right_child=2 3 6 4 -6 -7 -8 -9 9 10 -12 12 16 -15 15 -17 -18 -19 -20
leaf_value=0.10690378837584653 0.039971037827526056 -0.06932665595685561 0.021425964363042747 0.05946325310770828 -0.016432818171337168 0.10024665652597826 -0.03499950095418778 -0.033531418937114935 -0.0086394606690815539 0.0049427992529366927 0.11559307612099201 0.074340747125861695 -0.025708766711405314 -0.010542944933102599 -0.0032192821386614542 0.048472205080400094 -0.0054610332816427401 0.11361137956759147 0.0083216223682888394
leaf_weight=4.6696097701787975 34.88176317512989 5.6296865940093985 43.346681505441666 8.592513754963873 64.919641122221947 5.5136039555072776 13.086586967110632 38.83029842376709 13.675742089748384 5.8826554268598539 5.7045284658670425 10.593829542398451 71.93101841211319 43.338536024093628 26.510467246174812 17.134610414505005 454.31903061270714 4.5487363189458838 178.38057589530945
leaf_count=21 161 28 205 39 316 26 65 192 66 28 25 50 351 210 127 82 2198 21 852
internal_value=-1.35298e-05 -0.00250725 0.0248454 -0.0037437 0.00575457 0.0132377 0.00834119 -0.00740218 0.0357313 0.0225758 0.0594174 -0.00579031 -0.00521693 0.0110256 0.0282594 0.0170743 -0.00822862 0.0484663 0.0106719
internal_weight=1051.49 955.626 95.8638 925.694 257.406 192.487 56.4333 668.287 29.9325 25.2629 11.5872 629.457 623.827 97.5774 54.2389 43.6451 526.25 39.4305 186.973
internal_count=5063 4611 452 4471 1233 917 270 3238 140 119 53 3046 3018 469 259 209 2549 182 891
is_linear=0
shrinkage=0.05


Tree=3
num_leaves=20
num_cat=0
split_feature=4 1 4 2 0 0 3 3 1 0 3 4 3 6 2 2 3 6 5
split_gain=23.9717 15.1992 17.6039 22.4001 18.6663 23.0966 12.0917 13.0757 11.9714 10.4657 9.58804 10.2613 12.1784 9.54451 13.2138 9.5076 10.0439 9.73435 8.92881
threshold=16.839276994977684 1014.4803819723455 10.885711669921877 -0.035246445179445952 1671.2759319882678 1649.9413772556154 39.741435649454473 42.732951759618736 1179.6392559244616 1611.2750328788209 42.493537893296477 5.7696446010044653 58.482373311826883 0.00034172535180498903 0.047126913597303748 0.031818271925723153 50.777645533409903 0.0057804150370047722 -0.0074575351417057725
decision_type=2 2 2 2 2 2 2 2 2 2 2 2 2 2 2 2 2 2 2
left_child=1 10 9 -4 5 6 -5 -8 -9 -3 -1 -12 -13 -10 15 16 -15 -18 -6
right_child=-2 2 3 4 18 -7 7 8 13 -11 11 12 -14 14 -16 -17 17 -19 -20
leaf_value=0.098186791224077419 0.042938366061551936 -0.005273726894086778 0.068427586626415349 -0.015642276590515605 0.041294862375441249 0.058498290981868734 0.071230332637704549 0.069766773577852659 0.02034124682336148 -0.029064465655501207 -0.0082377160741305879 0.0046862101153998291 0.10637010782094398 0.038854337895948894 -0.070995627800817113 0.040385455596826242 -0.039033034713885903 0.0068078558870354987 -0.020995143249551425
leaf_weight=4.82563288509846 31.50330662727356 616.14123331010342 14.26175221800804 48.129346504807472 6.230265036225318 23.612614303827286 9.0877471268177015 7.7834508568048468 63.430026426911354 49.97626693546772 13.626841753721239 5.8942108750343305 5.8841726928949356 9.4950374364852888 7.0799103379249564 12.39478489756584 24.741202890872955 21.771794989705086 75.106082573533058
leaf_count=21 147 2988 64 228 30 110 43 37 300 250 66 28 25 45 34 58 118 104 367
internal_value=-1.84735e-05 -0.00134591 -0.00241316 0.0071635 0.00433462 0.0116839 0.00626289 0.0130305 0.00942503 -0.00705866 0.0335776 0.0213054 0.0554848 0.00604401 -0.00597031 0.000760019 -0.00800924 -0.0175758 -0.0162238
internal_weight=1050.98 1019.47 989.242 323.124 308.862 227.526 203.913 155.784 146.696 666.118 30.2309 25.4052 11.7784 138.913 75.4827 68.4028 56.008 46.513 81.3363
internal_count=5063 4916 4776 1538 1474 1077 967 739 696 3238 140 119 53 659 359 325 267 222 397
is_linear=0
shrinkage=0.05


Tree=4
num_leaves=20
num_cat=0
split_feature=4 1 4 2 0 0 3 3 1 0 0 3 3 4 3 3 4 6 2
split_gain=21.2984 13.6134 15.8814 19.6988 16.8469 20.2579 10.8909 11.3745 10.4429 9.67901 8.83465 8.62871 11.041 12.9708 9.66878 9.80448 9.40022 8.55471 12.3605
threshold=16.839276994977684 1014.4803819723455 10.885711669921877 -0.035246445179445952 1671.2759319882678 1649.9413772556154 39.741435649454473 42.732951759618736 1179.6392559244616 1637.1890037204098 1002.7894979826654 9.0932015429895916 30.634514807777908 8.8660670689174115 19.025789212745433 27.749469636186031 6.4178684779575894 0.00027882375132604059 0.047126913597303748
decision_type=2 2 2 2 2 2 2 2 2 2 2 2 2 2 2 2 2 2 2
left_child=1 10 9 -4 5 6 -5 -8 -9 11 -1 -3 13 14 -13 -16 -14 -10 -19
right_child=-2 2 3 4 -6 -7 7 8 17 -11 -12 12 16 -15 15 -17 -18 18 -20
leaf_value=0.089712748281817009 0.040142626014269635 -0.067937346088873515 0.063592593808397047 -0.014955248679753164 -0.015526811789498602 0.054378818958993484 0.06582619091534038 0.064485227686003538 0.019294025189847464 -0.031313876166346066 0.019151898050751671 0.069101969866230073 -0.024494733083976761 -0.009804793895656104 -0.0027874637678551762 0.045527666629102431 -0.0049224946575573674 0.0007665002774127934 -0.069556940243963569
leaf_weight=5.3899753242731121 31.999152332544327 5.440878450870513 14.570370405912398 47.831126481294632 80.767736613750458 24.117626428604126 9.3353743404149991 7.994145691394805 63.295677155256271 37.752682685852051 25.066728457808495 10.867676764726637 70.977078303694725 43.044533684849739 26.414533510804176 17.428213179111481 452.17687529325485 69.036302477121353 6.8703438043594351
leaf_count=24 147 28 64 228 397 110 43 37 297 192 116 50 351 210 127 82 2198 328 34
internal_value=-2.31852e-05 -0.00128526 -0.00230029 0.00677831 0.00410148 0.0110401 0.00592551 0.012306 0.00891169 -0.00672705 0.0316392 -0.0052451 -0.00469575 0.0107286 0.0268836 0.0164186 -0.00757789 0.0057202 -0.00559851
internal_weight=1050.38 1018.38 987.921 323.819 309.248 228.481 204.363 156.532 147.196 664.102 30.4567 626.35 620.909 97.755 54.7104 43.8427 523.154 139.202 75.9066
internal_count=5063 4916 4776 1538 1474 1077 967 739 696 3238 140 3046 3018 469 259 209 2549 659 362
is_linear=0
shrinkage=0.05


Tree=5
num_leaves=20
num_cat=0
split_feature=4 1 7 0 4 0 2 0 2 2 3 3 6 1 3 1 3 3 3
split_gain=19.0023 12.9675 12.411 10.5124 9.41048 13.2476 9.32274 8.99842 8.6155 16.9209 13.8702 8.62902 12.1258 8.75911 9.83975 8.5879 11.3665 8.2487 10.2931
threshold=14.369646344866073 1014.4803819723455 -0.00096008715818679524 1675.4380393501435 10.885711669921877 1686.9471056470081 -0.035246445179445952 1611.2750328788209 0.032539058780368245 0.041580990103149341 67.808220132533606 39.741435649454473 0.0017259178796795729 1657.2303985860046 50.01403224190625 1672.2941612753664 32.357985041544282 47.164093147500004 54.817073341910323
decision_type=2 2 2 2 2 2 2 2 2 2 2 2 2 2 2 2 2 2 2
left_child=1 17 -2 -4 7 6 -6 -3 10 -10 11 15 -13 14 -14 -8 -17 -1 -19
right_child=2 4 3 -5 5 -7 8 -9 9 -11 -12 12 13 -15 -16 16 -18 18 -20
leaf_value=0.068115930312403247 0.0420205962633051 -0.0047702324715248488 0.017460482702193435 -0.03384339181756265 0.055294094542849316 -0.020420047115957126 -0.016428593206170641 -0.027086516643299832 0.095403142449883488 0.004472429149694054 -0.028306260614157044 0.032536438734781424 0.050170404164338524 -0.056441016215557416 -0.0086940408206488459 0.093638010083280432 -0.017936858338932438 -0.040828349032224438 0.035203091845968044
leaf_weight=9.6251375526189822 40.759565100073814 613.26585413515568 44.413605287671089 12.880618646740912 10.746457561850546 43.258316516876221 42.208482518792152 48.763003647327423 7.9442185759544399 14.371590524911879 28.208434388041496 60.542040050029755 9.7287426292896253 6.3586155474185935 26.267384469509125 4.5003920346498472 4.6319831609725952 6.3733967989683178 14.761212617158888
leaf_count=43 182 2988 205 65 46 217 203 250 36 68 136 284 45 30 125 21 22 30 67
internal_value=-2.7389e-05 -0.002187 0.0209304 0.00592659 -0.00325382 0.00483116 0.00989975 -0.00641398 0.00751733 0.0368429 0.00393039 0.00982613 0.01818 -0.00234121 0.00721537 -0.00691655 0.0370467 0.0297483 0.0122749
internal_weight=1049.61 951.555 98.0538 57.2942 920.796 258.767 215.508 662.029 204.762 22.3158 182.446 154.238 102.897 42.3547 35.9961 51.3409 9.13238 30.7597 21.1346
internal_count=5063 4611 452 270 4471 1233 1016 3238 970 104 866 730 484 200 170 246 43 140 97
is_linear=0
shrinkage=0.05


Tree=6
num_leaves=20
num_cat=0
split_feature=4 1 4 0 0 2 3 3 4 3 3 1 3 3 3 4 7 6 3
split_gain=17.8293 10.9194 12.7617 16.2718 20.1905 11.2402 8.93592 8.9302 14.1553 8.795 9.43397 9.55149 8.30066 8.15029 11.7442 8.05144 11.5398 8.0322 7.84793
threshold=16.839276994977684 1014.4803819723455 10.885711669921877 1669.3626045573744 1649.9413772556154 -0.035246445179445952 9.0932015429895916 30.634514807777908 8.7857099260602691 39.741435649454473 44.703186023214606 1179.6392559244616 19.025789212745433 30.088759616921056 58.176040007797361 5.7696446010044653 0.0040191543985768083 -0.0021958091487724314 22.9650486003646
decision_type=2 2 2 2 2 2 2 2 2 2 2 2 2 2 2 2 2 2 2
left_child=1 15 6 4 5 17 -3 8 12 -7 -11 -12 -8 -6 -15 16 -1 -4 -14
right_child=-2 2 3 -5 13 9 7 -9 -10 10 11 -13 18 14 -16 -17 -18 -19 -20
leaf_value=0.031853492055792465 0.036345133614409102 -0.066765173691935784 0.023078650375210716 -0.013035782088950926 0.11704388505671003 -0.013875382805382658 0.065256590515557586 -0.0081021078430057857 -0.010966942753367138 0.049176258268542425 0.059207178696117913 0.0036428646663332846 -0.025791554913361964 0.011991600630772536 0.096562043473046144 0.053970065378923231 -0.060323064631454065 0.10306078870878105 0.026963118179672532
leaf_weight=10.849152818322183 32.637809246778488 6.0170782804489127 8.694348990917204 83.491300538182259 4.6062456816434887 47.341881468892097 10.681585773825644 549.5530026704073 51.145209759473801 14.466644734144209 8.2025789916515333 135.46703611314297 8.9027527272701246 11.405147939920427 6.4136184602975836 15.21711905300617 4.9421829730272284 4.9126176387071601 33.870365411043167
leaf_count=50 147 32 37 413 20 228 48 2702 253 65 37 637 43 51 29 66 24 21 160
internal_value=-3.0596e-05 -0.00119892 -0.00211845 0.00599215 0.0125702 0.00794495 -0.0061113 -0.00555339 0.00783722 0.00503055 0.0106905 0.00681522 0.0258289 0.0577574 0.0424316 0.0280157 0.00300518 0.0519552 0.0159828
internal_weight=1048.82 1016.18 985.171 325.001 241.51 219.085 660.17 654.153 104.6 205.478 158.136 143.67 53.4547 22.425 17.8188 31.0085 15.7913 13.607 42.7731
internal_count=5063 4916 4776 1538 1125 1025 3238 3206 504 967 739 674 251 100 80 140 74 58 203
is_linear=0
shrinkage=0.05


Tree=7
num_leaves=20
num_cat=0
split_feature=4 3 1 4 0 1 3 4 3 7 0 0 6 0 1 3 1 3 0
split_gain=15.9063 10.5956 10.6272 11.6517 14.976 17.8987 8.5176 8.4043 10.6215 10.5498 10.1356 8.13381 7.74172 7.51986 7.30281 7.21226 11.9276 11.0793 10.8059
threshold=16.839276994977684 91.153355049349258 1014.4803819723455 10.885711669921877 1669.3626045573744 1674.7421441522499 9.0932015429895916 5.7696446010044653 62.752707564163167 0.0040191543985768083 1004.8138922207056 1611.2750328788209 -0.0050350171898465015 1649.9413772556154 1339.0635047769813 30.634514807777908 1204.9159387575958 27.259605806120437 1055.1424826380919
decision_type=2 2 2 2 2 2 2 2 2 2 2 2 2 2 2 2 2 2 2
left_child=1 2 7 6 5 13 -4 9 10 -1 -9 15 -2 -5 -14 16 18 -18 -8
right_child=12 -3 3 4 -6 -7 11 8 -10 -11 -12 -13 14 -15 -16 -17 17 -19 -20
leaf_value=0.029920214153646447 0.0795065553335874 -0.058898075333327408 -0.06568246573821096 0.0073407861674260238 -0.012189454158671028 0.078764500757282863 -0.013103572797876118 0.076055950022228314 0.11540420198787545 -0.058859619558867364 -0.024570929211635117 -0.024931960186195076 0.073695627053747215 0.044612517331690846 0.007673279048231528 -0.0057310546539083252 -0.017152297328839088 0.02957522436949685 0.050017363805403087
leaf_weight=10.969439238309862 7.3140883743762961 7.8799149245023719 5.8155595064163199 215.835154697299 82.625829666852951 9.7728978842496854 9.3084328621625883 4.9934461116790754 4.9109148979187003 4.8150496929883948 5.0163637101650238 47.000491291284561 5.2680889964103725 14.438164740800856 20.436255291104317 504.20855383574963 44.560174211859703 17.73397234082222 24.965946480631828
leaf_count=50 32 38 32 1008 411 42 44 21 20 24 23 245 23 64 92 2477 215 84 118
internal_value=-3.32829e-05 -0.00114445 -0.000692503 -0.00160345 0.00617071 0.0124904 -0.00544147 0.0282708 0.0551759 0.00283797 0.0256273 -0.00490064 0.0341193 0.00967773 0.0212045 -0.00333354 0.0091845 -0.00384985 0.0328746
internal_weight=1047.87 1014.85 1006.97 976.265 322.672 240.046 653.593 30.7052 14.9207 15.7845 10.0098 647.778 33.0184 230.273 25.7043 600.777 96.5685 62.2941 34.2744
internal_count=5063 4916 4878 4740 1525 1114 3215 138 64 74 44 3183 147 1072 115 2938 461 299 162
is_linear=0
shrinkage=0.05


Tree=8
num_leaves=20
num_cat=0
split_feature=4 3 1 4 2 0 0 3 1 3 5 6 2 2 3 7 1 3 4
split_gain=14.215 9.81712 9.56094 10.5258 13.731 11.7338 13.448 8.52154 10.0685 9.27799 7.91342 7.77437 10.2142 8.21675 7.86518 7.82586 7.75232 7.63704 7.50999
threshold=16.839276994977684 91.153355049349258 1014.4803819723455 10.885711669921877 -0.035246445179445952 1671.2759319882678 1649.9413772556154 39.741435649454473 1172.1328945159523 44.703186023214606 -0.0074575351417057725 0.00021002800194735996 0.047126913597303748 0.011623802619265416 63.398800637956121 0.012109609745903029 1635.9347000488667 51.378049118653067 5.7696446010044653
decision_type=2 2 2 2 2 2 2 2 2 2 2 2 2 2 2 2 2 2 2
left_child=1 2 18 16 -5 6 7 -6 -9 -10 -7 13 15 14 -11 17 -4 -13 -1
right_child=-2 -3 3 4 5 10 -8 8 9 11 -12 12 -14 -15 -16 -17 -18 -19 -20
leaf_value=0.0026820284305969812 0.032092823470405062 -0.057370630012324488 -0.0038174000132891886 0.052199619938104319 -0.013615854184564631 0.040911330321212379 0.043622889320497397 0.0681534149933051 0.045502313689795952 0.0086802342285169729 -0.017777308839399139 0.034798169703906687 -0.06890211993826989 0.033184407172903385 -0.062283609151416043 0.022852391134080108 -0.026915447140444665 -0.022203009630330926 0.052098901398949293
leaf_weight=15.766744300723078 33.331819131970406 7.6900711059570304 613.28156451880932 15.22632624208927 47.22537425160408 6.2391703873872748 25.342093288898468 7.2506090104579917 14.728079125285147 22.45576395094395 72.335807859897614 6.936688929796218 6.1570438742637625 34.138780400156975 4.726405441761016 21.995546296238899 38.613495498895645 38.436784610152245 15.00518776476383
leaf_count=74 147 38 3011 64 228 30 110 32 65 103 365 32 31 157 22 103 204 183 64
internal_value=-3.54783e-05 -0.00109205 -0.000661791 -0.00152777 0.00585013 0.00355856 0.00927057 0.00500419 0.0106113 0.00782196 -0.0131172 0.00370648 -0.00725744 0.0168526 -0.00365888 -0.00162356 -0.00518556 -0.0134887 0.026779
internal_weight=1046.88 1013.55 1005.86 975.09 323.194 307.968 229.393 204.051 156.826 149.575 78.575 134.847 73.5261 61.3209 27.1822 67.369 651.895 45.3735 30.7719
internal_count=5063 4916 4878 4740 1525 1461 1066 956 728 696 395 631 349 282 125 318 3215 215 138
is_linear=0
shrinkage=0.05


Tree=9
num_leaves=20
num_cat=0
split_feature=4 3 1 4 0 1 0 6 4 4 7 3 0 4 7 1 1 0 2
split_gain=12.7126 9.10254 8.58608 9.49751 12.2473 14.8239 7.19734 6.68849 6.70116 6.67385 9.64634 9.43041 8.94811 6.68502 6.50403 8.00423 6.46434 6.07412 7.24743
threshold=16.839276994977684 91.153355049349258 1014.4803819723455 10.885711669921877 1669.3626045573744 1674.7421441522499 1637.1890037204098 -0.0050350171898465015 19.437504359654024 5.7696446010044653 0.0040191543985768083 62.752707564163167 1004.8138922207056 5.2303553989955374 -0.00111104881647045 1673.5786319142442 1716.6060698055685 1023.6277211248429 0.0063520860749579746
decision_type=2 2 2 2 2 2 2 2 2 2 2 2 2 2 2 2 2 2 2
left_child=1 2 9 6 5 -5 17 -2 -9 10 13 12 -11 -1 15 -6 -8 -4 -19
right_child=7 -3 3 4 14 -7 16 8 -10 11 -12 -13 -14 -15 -16 -17 -18 18 -20
leaf_value=0.070634789878162393 0.071711765234566544 -0.055923097695216362 -0.030488975595841933 0.0086283932759549081 0.068180135329062863 0.070684819508625069 -0.041471461511708281 0.036849557837045056 -0.016227416885128101 0.068117366599329737 -0.05753947276190189 0.10531718070703365 -0.025710838506133628 -0.0073541499899631452 -0.024166867438988739 -0.0041945263988272417 0.0043234893907719346 0.0017246225701441024 -0.0095585959244242451
leaf_weight=5.0235061347484606 7.5312975794076911 7.4995319843292227 20.419847145676613 231.54582966864109 4.3170701563358298 10.0407278239727 24.127643138170242 16.948739305138592 9.1610060781240445 5.1003491878509504 4.6934259831905356 4.9872550368309012 5.0637793391942978 6.065366804599762 44.242869362235069 33.192053943872452 11.322117894887922 358.50015853345394 236.00764313340187
leaf_count=22 32 38 101 1072 21 42 130 74 41 21 24 20 23 28 227 163 61 1759 1164
internal_value=-3.74277e-05 -0.00104245 -0.000632779 -0.00145665 0.00554681 0.0112076 -0.00493846 0.0302005 0.0182267 0.0253007 0.00254535 0.0490036 0.0213721 0.0279766 -0.0111814 0.00413535 -0.0268452 -0.00367556 -0.00275459
internal_weight=1045.79 1012.15 1004.65 973.716 323.339 241.587 650.377 33.641 26.1097 30.9337 15.7823 15.1514 10.1641 11.0889 81.752 37.5091 35.4498 614.928 594.508
internal_count=5063 4916 4878 4740 1525 1114 3215 147 115 138 74 64 44 50 411 184 191 3024 2923
is_linear=0
shrinkage=0.05


Tree=10
num_leaves=20
num_cat=0
split_feature=4 7 0 7 3 1 0 3 1 0 4 2 3 2 0 4 0 7 1
split_gain=11.4464 10.1714 8.19991 8.14405 7.92898 8.6039 21.3429 12.4241 10.7449 12.7798 10.6748 8.57221 18.9879 14.4641 11.5015 8.29303 7.76104 7.66627 8.25881
threshold=14.369646344866073 -0.00096008715818679524 1698.7001849109199 -0.006515290929985428 91.153355049349258 1172.1328945159523 1159.3789517930211 30.634514807777908 1195.6465206202572 1188.7096257690398 6.7821437290736615 0.033876921337362129 72.836300991726219 0.043322259630585981 1513.1977546557939 6.4803553989955365 1675.4380393501435 -0.014683218753275383 1014.4803819723455
decision_type=2 2 2 2 2 2 2 2 2 2 2 2 2 2 2 2 2 2 2
left_child=4 2 3 -2 5 6 7 10 -7 -10 -1 12 15 14 -13 -11 -3 -9 -19
right_child=1 16 -4 -5 -6 8 -8 17 9 11 -12 13 -14 -15 -16 -17 -18 18 -20
leaf_value=0.070223863907978065 0.0058755856657899692 0.012057519432937971 0.095888349332332368 0.052942562724143861 -0.054273628823167358 -0.045271463854431343 0.068765428038109727 0.063283930841139716 0.072782279502592626 -0.030804513401803527 0.010345969294452882 0.0083612772279568412 -0.033401681508034665 -0.028766538347303951 0.09111749630534477 -0.0011330092039204508 -0.032315054228708139 0.020908035429868771 -0.0082156802206000603
leaf_weight=11.62065267562866 20.691952392458916 45.69599287211895 4.8518686145544043 16.534974634647369 7.129591464996337 15.464497372508047 13.229293420910833 4.4168010950088492 5.4999543577432624 24.534168720245361 20.705926492810249 8.03367623686791 53.449937745928764 8.386469826102255 8.7947237491607648 586.51466853916645 12.563817813992499 29.155564367771149 147.45426407456398
leaf_count=53 90 205 21 71 37 75 64 21 26 122 96 38 264 41 41 2871 65 131 731
internal_value=-3.85117e-05 0.0160178 0.0347495 0.0267812 -0.00174444 -0.00134486 0.00713934 0.00331812 -0.00404984 -0.0031329 0.0318707 -0.00373826 -0.0048241 0.0248772 0.0516107 -0.00232435 0.00248851 -0.00178062 -0.0034078
internal_weight=1044.73 100.339 42.0788 37.2269 944.39 937.261 226.583 213.353 710.678 695.214 32.3266 689.714 664.499 25.2149 16.8284 611.049 58.2598 181.027 176.61
internal_count=5063 452 182 161 4611 4574 1096 1032 3478 3403 149 3377 3257 120 79 2993 270 883 862
is_linear=0
shrinkage=0.05


Tree=11
num_leaves=20
num_cat=0
split_feature=4 3 0 1 4 1 0 1 0 2 2 1 6 2 3 3 4 4 2
split_gain=10.7322 7.85425 7.55993 13.1418 8.14403 8.49723 7.75326 7.42001 6.63041 7.16658 14.1499 9.444 6.27847 6.19764 6.1916 9.75191 14.4477 6.003 5.96531
threshold=16.839276994977684 91.153355049349258 1669.3626045573744 1674.7421441522499 10.750000000000002 1014.4803819723455 1649.9413772556154 1635.9347000488667 1023.6277211248429 0.0063520860749579746 -0.005827302745158503 1147.7528498911277 -0.007085709542409834 -0.017106677829305802 47.164093147500004 54.817073341910323 5.596429007393974 6.4803553989955365 -0.035246445179445952
decision_type=2 2 2 2 2 2 2 2 2 2 2 2 2 2 2 2 2 2 2
left_child=1 2 3 4 5 14 18 8 -7 10 11 -10 -4 -5 -1 -16 -17 -13 -6
right_child=-2 -3 12 13 6 7 -8 -9 9 -11 -12 17 -14 -15 15 16 -18 -19 -20
leaf_value=0.055143331640887722 0.027599202488019926 -0.053272609776025326 0.014680504098541504 0.097279073145414882 0.037792179955830056 -0.031619240924301073 0.04255256602514508 -0.044388875133284544 0.014827031039228054 -0.0090813126815590204 0.013304325469230816 -0.049968688539060786 -0.0186270902986123 0.021953410364480549 -0.04346711483499692 -0.015342449316656768 0.084766461661456932 -0.010019107546518323 0.0036576818805074082
leaf_weight=10.009001001715662 33.975975722074509 7.127509042620658 16.849792316555977 4.8622487187385559 13.60820013284683 19.964906319975853 15.209345400333403 11.185761317610739 39.313329175114632 233.66931599378586 157.72478021681309 10.082799315452574 88.249510705471039 6.2291703671216947 6.5133249163627651 7.9301707893609983 6.6066338419914246 139.5477734208107 215.32390819489956
leaf_count=43 147 38 82 20 57 100 66 60 188 1161 778 50 459 27 30 38 27 684 1008
internal_value=-4.11391e-05 -0.000970942 -0.000599232 0.000886086 0.000209503 -0.00274424 0.00798335 -0.00404009 -0.00328825 -0.0023136 0.00224812 -0.00698127 -0.0132871 0.0549746 0.0227684 0.00737465 0.0301547 -0.0127111 0.00568671
internal_weight=1043.98 1010.01 1002.88 897.781 886.689 642.548 244.141 611.489 600.303 580.338 346.669 188.944 105.099 11.0914 31.0591 21.0501 14.5368 149.631 228.932
internal_count=5063 4916 4878 4337 4290 3159 1131 3021 2961 2861 1700 922 541 47 138 95 65 734 1065
is_linear=0
shrinkage=0.05


Tree=12
num_leaves=20
num_cat=0
split_feature=4 0 1 3 3 3 7 1 3 4 3 4 3 1 4 1 0 1 1
split_gain=9.68062 9.29448 12.0692 8.30206 9.87561 8.23018 7.80213 7.11524 6.75095 11.3473 7.55854 7.17206 6.77993 6.68323 8.71977 6.66913 7.02699 6.58378 6.97805
threshold=10.885711669921877 1671.2759319882678 1667.3682449792996 30.088759616921056 38.585165444791848 9.0932015429895916 -0.00111104881647045 1014.4803819723455 30.634514807777908 8.7857099260602691 19.025789212745433 6.4178684779575894 22.9650486003646 1673.5786319142442 14.973214285714286 1435.6881255136063 1055.1424826380919 1605.2863885033894 1716.6060698055685
decision_type=2 2 2 2 2 2 2 2 2 2 2 2 2 2 2 2 2 2 2
left_child=5 2 -2 -4 -5 -1 13 -7 9 10 -9 -10 -12 -3 -15 16 -14 -13 -19
right_child=1 6 3 4 -6 7 -8 8 11 -11 12 17 15 14 -16 -17 -18 18 -20
leaf_value=-0.06429145754656003 0.0077737387127556918 0.061643577666207788 0.086245168078742773 -0.033192197328365834 0.049690668569163765 0.020159812427074226 -0.021573942872783313 0.060540568226458882 -0.021535568738998659 -0.0096284933239639894 -0.025139738643085704 -0.0026028754195134745 -0.025080605965099662 -0.011175914858809715 0.05387753335952631 -0.023268807966285152 0.04465562187733866 -0.04042302315921769 0.009564125188777025
leaf_weight=5.5303514301776877 249.03745286166668 5.16046518087387 7.9956618100404766 5.1679585129022625 11.800265192985533 31.491905823349953 46.675375461578369 10.900007069110869 68.604005679488182 50.421344727277756 8.8279920369386655 438.60796761512756 4.2493959218263653 28.335154935717583 6.2956647276878348 6.1417791545391074 24.097082197666168 23.554810866713524 9.9227329194545728
leaf_count=32 1143 24 33 22 50 140 244 48 351 253 43 2168 20 142 27 29 111 129 54
internal_value=-4.21165e-05 0.00658596 0.0110962 0.0442405 0.0244473 -0.00354356 -0.00770631 -0.00304719 -0.00417968 0.0074453 0.023324 -0.00642942 0.0139589 0.0085605 0.000650392 0.023967 0.0342015 -0.00423418 -0.0256068
internal_weight=1042.82 360.468 274.001 24.9639 16.9682 682.349 86.4667 676.819 645.327 104.638 54.2163 540.69 43.3162 39.7913 34.6308 34.4883 28.3465 472.086 33.4775
internal_count=5063 1685 1248 105 72 3378 437 3346 3206 504 251 2702 203 193 169 160 131 2351 183
is_linear=0
shrinkage=0.05


Tree=13
num_leaves=20
num_cat=0
split_feature=4 3 2 4 1 0 3 1 7 0 7 2 3 2 0 0 0 4 1
split_gain=9.03563 7.30742 6.63042 7.6594 7.00837 19.1462 13.9402 9.00333 8.23803 7.81154 7.75431 7.71071 16.1827 11.5286 7.78833 10.7638 11.1093 9.88082 8.08167
threshold=16.839276994977684 91.153355049349258 -0.033994761436463357 11.742867606026786 1172.1328945159523 1159.3789517930211 19.668287344480223 1195.6465206202572 -0.015222875038927717 1188.7096257690398 -0.0090824536622994816 0.032539058780368245 72.836300991726219 0.049531959255077418 1304.8287009118856 1261.3838064109382 1233.7817338128168 15.782130650111609 1309.8785089894359
decision_type=2 2 2 2 2 2 2 2 2 2 2 2 2 2 2 2 2 2 2
left_child=1 2 3 -1 5 6 -4 -6 -8 -9 -10 12 14 -13 15 16 -11 18 -16
right_child=-2 -3 4 -5 7 -7 8 9 10 11 -12 13 -14 -15 17 -17 -18 -19 -20
leaf_value=0.0040640523423218734 0.025194410805573549 -0.052042551782656613 0.081929464767718174 0.050863646547166311 -0.042455244904880833 0.064080006282748209 0.062988135560862066 0.067820583598476245 -0.039776146998586698 -0.013155920344518127 0.0014728464223712069 0.030351993278190138 -0.030671516060083667 -0.040970318610522034 0.045096722894738477 -0.024619264444113598 0.020864492790010025 -0.051288736037835431 0.0012498131554851371
leaf_weight=26.467597350478172 34.297483339905739 6.9371324926614752 5.4043324291706076 13.05521374940872 14.674865752458571 13.550899654626845 5.1436115801334372 3.88394571840763 12.159938037395476 62.799890205264091 180.75921446084976 32.999242305755615 54.459752798080444 6.8403495103120795 10.772806540131567 80.648408025503159 38.835913941264153 8.7654511183500272 429.22495745122433
leaf_count=130 147 38 23 54 73 64 24 18 58 311 882 153 274 34 52 393 189 41 2105
internal_value=-4.31998e-05 -0.000902442 -0.000547835 0.0195229 -0.00137335 0.00653244 0.00269978 -0.00367968 0.000537918 -0.00289937 -0.00112713 -0.00327805 -0.00452084 0.0181061 -0.00226402 -0.0109796 -0.000156428 0.00127617 0.00232335
internal_weight=1041.68 1007.38 1000.45 39.5228 960.924 217.018 203.467 743.906 198.063 729.231 192.919 725.347 685.507 39.8396 631.047 182.284 101.636 448.763 439.998
internal_count=5063 4916 4878 184 4694 1051 987 3643 964 3570 940 3552 3365 187 3091 893 500 2198 2157
is_linear=0
shrinkage=0.05


Tree=14
num_leaves=20
num_cat=0
split_feature=4 0 0 6 3 1 0 0 0 3 2 3 1 2 0 4 6 1 0
split_gain=8.36116 8.18703 11.0786 12.4036 7.29447 10.8888 7.05418 12.8372 11.6715 11.0858 10.6283 9.64322 9.91144 9.48957 12.0069 7.93651 10.7868 7.76018 27.114
threshold=10.885711669921877 1671.2759319882678 1633.3186901351598 0.00049491689840208697 67.107551814455022 1673.5786319142442 1261.3838064109382 1257.9005696781599 1304.8287009118856 39.164279223162829 -0.013068327310714762 72.836300991726219 1635.9347000488667 -0.0068913106943224549 1412.8746913979624 8.2000034877232171 -0.0047887363588404721 1461.3279556597881 1457.0615489464146
decision_type=2 2 2 2 2 2 2 2 2 2 2 2 2 2 2 2 2 2 2
left_child=6 2 -2 -4 5 -3 7 9 -8 10 -1 12 13 14 -10 16 -12 18 -15
right_child=1 4 3 -5 -6 -7 8 -9 11 -11 15 -13 -14 17 -16 -17 -18 -19 -20
leaf_value=0.00064597731348569156 0.0057521938783347505 0.054045431142315851 0.060265004428563473 0.008789953984746357 -0.035342827603606942 -0.0072560538653239047 -0.026276923954704032 0.075534683712387848 0.023040214864805147 -0.0056628721811016192 -0.03317100150279443 -0.031670648734177471 -0.025199448937994081 0.018916569721301676 -0.024341505923070578 0.065288499939978067 0.036155057305993853 0.022306741870064199 -0.051546657816544661
leaf_weight=61.319954290986061 227.69891785085201 8.2502811253070814 21.605415105819702 25.533519521355629 18.324367836117744 59.389328062534332 71.855780050158501 5.8047315925359717 18.269682809710503 227.33155970275402 7.4895964264869717 27.505011588335037 34.651138916611671 47.764719098806381 49.860581859946251 13.228884875774382 22.369792729616165 73.596728056669235 19.116326719522476
leaf_count=293 1044 39 92 112 96 302 358 28 90 1125 36 142 192 234 249 64 107 366 94
internal_value=-4.51321e-05 0.00610745 0.0103197 0.0323828 -0.00735979 0.00022114 -0.00330885 0.00182127 -0.00836297 0.000531439 0.0140185 -0.00360893 -0.000436032 0.00367733 -0.0116357 0.0330493 0.0187661 0.011104 -0.00122364
internal_weight=1040.97 360.802 274.838 47.1389 85.964 67.6396 680.164 337.545 342.62 331.74 104.408 270.764 243.259 208.608 68.1303 43.0883 29.8594 140.478 66.881
internal_count=5063 1685 1248 204 437 341 3378 1653 1725 1625 500 1367 1225 1033 339 207 143 694 328
is_linear=0
shrinkage=0.05


Tree=15
num_leaves=20
num_cat=0
split_feature=4 7 0 1 3 1 7 3 1 0 7 1 0 3 4 1 1 2 2
split_gain=7.72529 8.34567 7.18207 7.02882 12.5266 8.7783 7.01676 6.28457 6.59606 16.6644 9.52628 9.27978 10.0747 7.43062 8.44736 7.01024 7.84057 12.829 13.839
threshold=14.369646344866073 -0.00096008715818679524 1698.7001849109199 1327.0510616228087 62.385183308923537 1266.5256924351836 -0.006515290929985428 91.153355049349258 1172.1328945159523 1159.3789517930211 -0.022185873402594477 1195.6465206202572 1188.7096257690398 28.970235209945695 6.8125043596540182 1147.7528498911277 1115.7143497746467 0.011179307313164898 -0.00077715437876345805
decision_type=2 2 2 2 2 2 2 2 2 2 2 2 2 2 2 2 2 2 2
left_child=7 2 6 5 -5 -3 -2 8 9 10 -1 -10 -13 14 -12 16 -15 18 -18
right_child=1 3 -4 4 -6 -7 -8 -9 11 -11 13 12 -14 15 -16 -17 17 -19 -20
leaf_value=0.070304066839351698 0.0030597219095189949 -0.01056159321894202 0.086219613451810145 0.0094028848406204537 -0.046379820881743805 0.080256215580033541 0.046391290983220604 -0.050282200685832196 -0.042621043273600071 0.059386725976294422 0.066466389157734548 0.06326042686293952 -0.0032184972873815325 -0.0047107728592485363 0.0038918857482673572 -0.062944339938939955 0.046300420907452108 0.10809911590613855 -0.036086026246120485
leaf_weight=5.1066658794879904 20.923848673701286 5.0307577699422819 4.9916714429855338 33.423422783613205 14.400051012635229 5.6480277627706528 16.879270568490028 6.5463303327560416 14.844121709465979 13.875638365745543 8.8131132721900958 5.7469297945499411 684.77065286040306 156.05297802388668 13.899894952774046 4.6203524172306052 11.520917862653738 3.9592547267675391 9.1418107748031598
leaf_count=23 90 22 21 151 72 25 71 37 75 64 39 26 3377 762 64 22 56 20 46
internal_value=-4.77913e-05 0.0130706 0.0298506 0.000795889 -0.00739376 0.0374721 0.0224075 -0.00146312 -0.00112035 0.00629316 0.00283631 -0.00350608 -0.00266522 0.00117996 0.0281721 -0.00212866 -0.000573441 0.0256488 0.00985019
internal_weight=1040.2 101.297 42.7948 58.5023 47.8235 10.6788 37.8031 938.899 932.352 226.991 213.115 705.362 690.518 208.008 22.713 185.295 180.675 24.622 20.6627
internal_count=5063 452 182 270 223 47 161 4611 4574 1096 1032 3478 3403 1009 103 906 884 122 102
is_linear=0
shrinkage=0.05


Tree=16
num_leaves=20
num_cat=0
split_feature=4 6 2 1 0 0 7 3 2 5 4 0 1 0 0 3 4 4 7
split_gain=7.36052 7.56919 7.61944 6.71148 6.64381 5.71382 6.75239 5.54103 5.98364 5.71236 5.50545 5.28864 5.98447 5.78479 7.64945 11.3561 8.60185 7.99212 7.57696
threshold=10.885711669921877 0.00062916093083864599 -0.031594929409786955 1014.4803819723455 1745.1703579628731 1002.7894979826654 -0.0052097722721896047 37.405042009979127 -0.015255176290762749 -0.0040257909459195376 17.628553118024559 1637.1890037204098 1716.6060698055685 1045.2320169252012 1077.5177160514024 67.808220132533606 6.4178684779575894 6.849999564034599 0.011142289593688017
decision_type=2 2 2 2 2 2 2 2 2 2 2 2 2 2 2 2 2 2 2
left_child=3 4 -3 5 10 -1 -7 -4 -9 -10 -2 13 -13 -5 15 17 -16 -15 -18
right_child=1 2 7 11 -6 6 -8 8 9 -11 -12 12 -14 14 16 -17 18 -19 -20
leaf_value=0.064765160332863878 0.012089213352593291 0.045428394529850286 -0.029249065319676054 -0.022975769246856889 -0.036778797809391819 -0.044972187947325278 0.021432882336912845 0.045924966195242833 -0.053522447006090094 -0.0010951266411255622 0.048893433694078114 -0.03811785047297743 0.0067129423355797527 0.059014961984361819 -0.024499970318306721 -0.035857068156589934 0.000520685083510543 -0.010129616396220764 -0.0207078509278977
leaf_weight=5.6905238330364254 175.67315565049648 8.0476479083299619 19.719153434038162 34.723619967699051 6.6131413877010337 4.6737543940544191 21.160251870751377 6.4949340820312491 5.4149654656648627 128.28420144319534 10.784822955727575 22.770016849040985 11.059865698218344 15.879892870783811 43.852750197052956 6.223504126071929 460.48360046744347 5.6717716306447974 46.255723968148232
leaf_count=24 809 34 95 176 35 21 95 29 26 612 45 131 61 79 223 32 2278 27 231
internal_value=-4.89939e-05 0.00571869 -0.00204336 -0.00311824 0.0124712 0.0194098 0.00941922 -0.00443238 -0.000941766 -0.00321849 0.014218 -0.00421604 -0.0234615 -0.00315409 -0.00196404 0.0236377 -0.00325555 0.0408181 -0.00141708
internal_weight=1039.48 361.032 167.961 678.445 193.071 31.5245 25.834 159.913 140.194 133.699 186.458 646.921 33.8299 613.091 578.367 27.7752 550.592 21.5517 506.739
internal_count=5063 1685 796 3378 889 140 116 762 667 638 854 3238 192 3046 2870 138 2732 106 2509
is_linear=0
shrinkage=0.05


Tree=17
num_leaves=20
num_cat=0
split_feature=4 0 0 3 1 3 3 3 0 1 1 3 3 4 1 7 3 3 0
split_gain=6.64302 7.13833 11.5381 8.03187 10.3987 7.83727 9.24624 7.68572 6.19488 11.621 6.04927 5.6667 7.98937 10.8183 5.43226 5.69503 7.40901 4.87831 6.85315
threshold=10.885711669921877 1669.3626045573744 1649.9413772556154 67.107551814455022 1673.5786319142442 30.088759616921056 58.176040007797361 57.032621814438926 1701.9323592568751 1725.3989099097951 1014.4803819723455 47.164093147500004 54.817073341910323 5.596429007393974 1687.2503830923999 -0.0071908428412130179 43.86863816929251 76.827821012808343 1036.0457291947662
decision_type=2 2 2 2 2 2 2 2 2 2 2 2 2 2 2 2 2 2 2
left_child=10 2 -2 4 7 -4 -7 -3 14 -10 11 -1 -13 -14 15 16 -6 18 -12
right_child=1 3 5 -5 8 6 -8 -9 9 -11 17 12 13 -15 -16 -17 -18 -19 -20
leaf_value=0.049265724803766571 0.0058211246247125434 0.095223904247160027 0.088729918980484532 -0.035879988412850908 0.066924555412379391 0.0038316987381324104 0.070107654018587623 0.0076022905237673084 0.040366524053621705 -0.022968154159809476 -0.030616133973178097 -0.042709464626123267 -0.016069486485740001 0.068874918305243824 -0.069437231539378572 -0.029290805727176523 -0.026469941944487537 -0.019487271458140734 -0.0017661793521186178
leaf_weight=10.106890112161638 242.20293506979942 4.6363481283187848 6.2047338634729412 18.804979726672173 4.2724362164735812 15.99002029001713 7.8441089242696753 5.4381016939878464 14.960989043116571 14.039178460836409 21.345990642905235 6.4453728497028377 7.9819879680871946 7.0667638629674911 5.1255336850881568 17.719812706112865 4.2219720929861069 47.227167740464211 577.00327146053314
leaf_count=43 1107 21 25 100 20 67 33 25 77 73 110 30 38 29 26 91 20 244 2884
internal_value=-4.94739e-05 0.00542372 0.00944616 -0.00685025 0.000902477 0.0386748 0.0256439 0.0479265 -0.00694873 0.00970578 -0.00297094 0.0183887 0.0038698 0.0238197 -0.0223599 -0.0131552 0.0205047 -0.00401649 -0.0027954
internal_weight=1038.64 361.461 272.242 89.2194 70.4144 30.0389 23.8341 10.0744 60.3399 29.0002 677.177 31.601 21.4941 15.0488 31.3398 26.2142 8.49441 645.576 598.349
internal_count=5063 1685 1232 453 353 125 100 46 307 150 3378 140 97 67 157 131 40 3238 2994
is_linear=0
shrinkage=0.05


Tree=18
num_leaves=20
num_cat=0
split_feature=3 4 1 1 2 2 4 7 0 4 3 7 4 5 3 4 2 3 2
split_gain=6.36255 5.94089 6.63131 11.6713 11.6919 12.8877 10.9642 8.74433 9.3954 12.2401 12.6507 7.69993 7.59801 8.68196 7.51139 9.00254 8.0447 12.5588 10.8202
threshold=91.153355049349258 10.885711669921877 1172.1328945159523 1113.6088877614163 0.012369996292258443 -0.00094470216655720212 8.699999128069198 0.0040191543985768083 1096.8898733567328 5.835717337472099 56.454383874851523 0.012302834047395629 8.3089250837053594 0.0033804716238333703 59.861168478183529 7.5464215959821432 -0.015017349815412652 25.068575087035061 -0.0085495871169558122
decision_type=2 2 2 2 2 2 2 2 2 2 2 2 2 2 2 2 2 2 2
left_child=1 2 3 6 5 -5 7 12 9 -9 -11 -4 13 14 15 16 17 -1 -18
right_child=-2 -3 11 4 -6 -7 -8 8 -10 10 -12 -13 -14 -15 -16 -17 18 -19 -20
leaf_value=0.056832552570365229 -0.049403440858896572 0.0054498197552177467 -0.0042617009569833946 0.038947647279261061 0.064715627498813016 -0.019439248374746747 -0.032675246314141489 -0.039630783564409716 -0.055385574266122672 -0.023182476650561334 0.062478286278592567 -0.031258687522646399 0.075915444299039292 0.060470768644190154 -0.023547271582070747 -0.046382298783412559 0.10376777120542198 -0.038421713139883441 0.020829778734116941
leaf_weight=4.8286562711000469 6.4893818646669379 359.37699533998966 428.31668692827225 19.773919627070427 13.857805013656614 18.104170918464661 24.493573784828186 12.259463727474214 10.981960088014601 7.5886482298374203 9.9765082597732526 28.147362500429153 4.3987038433551779 7.4487750530242911 19.007405325770378 6.0048306584358206 4.3621374815702429 12.2111399769783 39.927964225411415
leaf_count=21 38 1672 2162 94 65 91 122 63 55 35 47 143 21 36 94 29 20 61 194
internal_value=-4.9544e-05 0.000261082 -0.00251507 0.00471998 0.0254182 0.0110411 -0.00182991 0.00360558 -0.015848 -0.00128956 0.0254704 -0.00592644 0.0116903 0.00867818 0.00421001 0.0120454 0.0177661 -0.011429 0.0289984
internal_weight=1037.56 1031.07 671.69 215.226 51.7359 37.8781 163.49 138.996 40.8066 29.8246 17.5652 456.464 98.1896 93.7909 86.3421 67.3347 61.3299 17.0398 44.2901
internal_count=5063 5025 3353 1048 250 185 798 676 200 145 82 2305 476 455 419 325 296 82 214
is_linear=0
shrinkage=0.05


Tree=19
num_leaves=20
num_cat=0
split_feature=3 4 2 4 3 2 3 3 4 0 0 2 0 1 6 1 7 7 2
split_gain=5.90918 5.61035 5.67998 6.03066 6.59309 5.74675 12.9592 9.25824 8.57657 6.72648 14.6952 11.3646 15.1813 10.5473 6.7487 6.70962 6.56708 6.65259 6.5775
threshold=91.153355049349258 16.839276994977684 -0.033994761436463357 11.742867606026786 9.0932015429895916 0.028811651224507379 72.836300991726219 65.384677029266911 15.955361502511161 1599.9979756630426 1558.7201755363301 0.037595417477827443 1378.504488282081 1227.9561814257959 -0.00091276220622865656 1018.3918633549275 0.012302834047395629 0.013988873592069575 -0.0054263533578476179
decision_type=2 2 2 2 2 2 2 2 2 2 2 2 2 2 2 2 2 2 2
left_child=1 2 3 4 -1 6 8 -7 16 10 11 12 13 -9 -13 -8 -4 -18 -19
right_child=-2 -3 5 -5 -6 7 15 9 -10 -11 -12 14 -14 -15 -16 -17 17 18 -20
leaf_value=-0.05559487300781453 -0.048277278909167068 0.019955003281127169 0.00099689503058436493 0.045714608787486927 0.01475079559582749 -0.033245140239295777 0.037107563954468972 0.040477198692938324 -0.057311344931761946 -0.023463531652240324 0.10180807506365569 0.037848671972853659 -0.019762976692958335 0.1266416832353244 -0.017148202763503369 -0.028019049340784658 -0.043461673842364996 -0.062582175337477924 0.0033524096353263221
leaf_weight=3.9118377566337612 6.3132264763116828 34.879287138581276 757.17375995218754 13.196103394031523 22.426711708307266 9.8550063967704755 4.2289068400859824 10.236293286085131 6.6212413609027854 8.2775279581546766 5.5863427966833106 7.4031074196100226 6.6547046303749076 5.4385625272989264 22.627057000994686 61.00724133849144 16.663774520158768 4.3280328810214987 30.006414145231247
leaf_count=22 38 147 3720 54 108 46 19 49 32 41 25 33 32 25 109 316 82 20 145
internal_value=-5.12459e-05 0.000244198 -0.000446309 0.0181256 0.00430296 -0.00121425 -0.002354 0.0119697 -0.000637154 0.0186983 0.0247211 0.0164965 0.0435104 0.0703729 -0.00359024 -0.0237972 -0.00017283 -0.0175398 -0.00495898
internal_weight=1036.84 1030.52 995.643 39.5347 26.3385 956.108 880.029 76.0786 814.793 66.2236 57.9461 52.3597 22.3296 15.6749 30.0302 65.2361 808.172 50.9982 34.3344
internal_count=5063 5025 4878 184 130 4694 4334 360 3999 314 273 248 106 74 142 335 3967 247 165
is_linear=0
shrinkage=0.05


Tree=20
num_leaves=20
num_cat=0
split_feature=3 4 6 3 0 2 3 3 0 0 3 6 0 3 1 2 0 0 3
split_gain=5.48918 5.2603 9.32823 8.54546 6.86882 6.98766 5.88087 11.7827 9.33913 9.03084 7.05545 7.79562 5.57595 10.9379 8.15666 15.833 12.3079 9.83912 8.39873
threshold=91.153355049349258 11.192866734095984 -0.00039394131303904784 9.0932015429895916 1675.4380393501435 0.05326484593756186 39.741435649454473 34.180264193190993 1573.7402371107844 1300.0137151041665 43.86863816929251 -0.00065569361005235461 1199.8953013385651 16.721646954362068 1113.6088877614163 0.012369996292258443 1115.6762864960954 1115.6762864960954 63.616692246831455
decision_type=2 2 2 2 2 2 2 2 2 2 2 2 2 2 2 2 2 2 2
left_child=1 3 6 -1 5 -4 7 8 -3 -8 -11 -12 13 -5 17 16 -16 -15 -18
right_child=-2 2 4 12 -6 -7 9 -9 -10 10 11 -13 -14 14 15 -17 18 -19 -20
leaf_value=-0.063827585291849537 -0.047183968928502948 -0.0094276293315932388 0.0054569356526484106 0.071050078668508557 -0.021918576543603085 -0.045078170708431321 0.062833554906767439 -0.040549362275964153 0.038712004205670114 0.052824973640752164 0.0065864935269369278 0.072784969873021299 -0.0048807135227469925 0.0005078015071439759 0.085773825578653484 0.066425369665676401 0.0078070844231148146 -0.042159766435506868 -0.045647467785283023
leaf_weight=5.5766281634569159 6.1409431248903266 20.393084168434143 124.95703209936619 6.0224221646785727 36.097980067133904 7.2366155833005896 11.733011439442633 12.898895502090452 19.9122623950243 11.407430082559584 71.936324864625931 4.7403403520584098 464.35593450069427 146.35693389177322 4.4324816614389411 13.148625701665877 45.090531915426254 14.885608732700346 8.7789229005575162
leaf_count=34 38 92 568 26 193 35 50 60 90 51 332 22 2335 716 21 60 220 75 45
internal_value=-5.20298e-05 0.000228985 0.00553558 -0.00217711 -0.00258805 0.00269052 0.0144699 0.00104396 0.014355 0.0216261 0.0161372 0.010679 -0.00168811 0.00452222 0.00280038 0.0168632 0.00568559 -0.00343119 -0.000904223
internal_weight=1036.1 1029.96 321.313 708.648 168.292 132.194 153.021 53.2042 40.3053 99.8171 88.0841 76.6767 703.071 238.716 232.693 71.4506 58.3019 161.243 53.8695
internal_count=5063 5025 1493 3532 796 603 697 242 182 455 405 354 3498 1163 1137 346 286 791 265
is_linear=0
shrinkage=0.05


Tree=21
num_leaves=20
num_cat=0
split_feature=7 4 2 1 7 1 7 3 7 1 4 4 3 7 0 3 2 3 3
split_gain=5.11607 7.37657 7.08054 6.8726 6.90135 6.66748 5.64357 5.3874 5.69107 4.96872 8.46303 13.801 15.7283 6.59487 7.28178 8.17451 5.8634 6.37608 8.62777
threshold=0.004236032983357286 13.114283970424109 -0.033994761436463357 1014.4803819723455 -0.0052097722721896047 1026.5770155333387 0.0055738877438394905 47.802954015162179 0.00096308079824880554 1172.1328945159523 7.1428593226841528 7.4249834333147335 56.095501422810955 -0.018325268094456889 1159.3789517930211 67.808220132533606 0.034450097993825209 72.836300991726219 71.643049267285974
decision_type=2 2 2 2 2 2 2 2 2 2 2 2 2 2 2 2 2 2 2
left_child=1 3 -2 4 -1 -5 -4 -6 -9 13 -11 12 -12 -7 15 -15 17 18 -13
right_child=2 -3 6 5 7 9 -8 8 -10 10 11 16 -14 14 -16 -17 -18 -19 -20
leaf_value=-0.01828555196077317 0.052982700690032171 0.014620495173825385 -0.021037724184622408 -0.037602998653784317 0.086376279132531306 0.057570173223553733 -0.0032605537211820353 -0.011666777522655639 0.063265971778480576 -0.024057338138472488 0.0085436440228599218 -0.0020024315529948949 0.11927935976066557 0.0076913153873061912 0.050188456205048519 -0.034160061663887353 0.042350324524796992 -0.027280763179304821 0.065327231200553601
leaf_weight=5.8250509649515179 5.0734792649745932 102.60902579128742 54.948686107993126 12.063568130135534 5.3108369410037986 6.5725297629833213 238.07641953229904 5.2898392677307111 4.8636767417192459 41.159509763121605 8.8332978188991529 384.30619457364082 5.0340226441621772 96.231902182102203 8.6820067614316923 13.277446046471594 7.3383575528860083 24.872818022966385 4.8176605254411689
leaf_count=26 22 459 274 65 22 29 1172 24 21 209 43 1904 25 469 39 69 35 132 24
internal_value=-5.29569e-05 0.00218241 -0.0055802 0.000170903 0.0280988 -0.000798728 -0.00659417 0.0455706 0.0242271 -6.01289e-05 -0.00238654 -0.000337008 0.0487422 0.00882234 0.00611151 0.00261705 -0.00195234 -0.00273764 -0.00116884
internal_weight=1035.19 737.088 298.099 634.479 21.2894 613.189 293.025 15.4644 10.1535 601.126 476.362 435.202 13.8673 124.764 118.191 109.509 421.335 413.997 389.124
internal_count=5063 3595 1468 3136 93 3043 1446 67 45 2978 2372 2163 68 606 577 538 2095 2060 1928
is_linear=0
shrinkage=0.05


Tree=22
num_leaves=20
num_cat=0
split_feature=3 1 4 1 1 6 1 1 0 0 0 3 2 0 0 0 3 7 1
split_gain=5.04413 4.78758 5.53645 7.09617 6.88759 5.81782 7.50763 8.29785 8.07751 5.81727 10.9327 5.25737 11.6998 7.84022 21.0594 10.7102 10.1795 6.76241 15.0955
threshold=91.153355049349258 1761.4285112696409 10.750000000000002 1635.9347000488667 1716.6060698055685 0.00062916093083864599 1172.1328945159523 1216.8056488177247 1243.83198866835 1286.0180353365663 1297.8912602645612 47.164093147500004 -0.0071338191561656954 1479.6376394693129 1493.0920331267387 1460.2997104942317 74.099307687265409 0.0050834291798098627 1113.6088877614163
decision_type=2 2 2 2 2 2 2 2 2 2 2 2 2 2 2 2 2 2 2
left_child=1 2 3 11 -5 -4 -7 -8 -9 -10 -11 12 -1 15 -15 -13 -16 -14 -19
right_child=-2 -3 5 4 -6 6 7 8 9 10 -12 13 17 14 16 -17 -18 18 -20
leaf_value=-0.0045519168450722184 -0.045971666978062875 -0.033345386936834413 0.011270078956122018 -0.040764582652838804 0.017599892282390828 0.0515246745096863 -0.073364599576664871 0.077225868141572895 -0.039538259801367034 0.072388682118222289 -0.0032527083892180415 -0.006579180825391346 0.011418173291707315 0.11299700818464342 0.012416196787709007 -0.053053773106617033 -0.040123363014046148 -0.037088301993733142 0.07319465589872319
leaf_weight=158.76565158367157 5.9463407695293418 10.519856259226797 198.48909017443657 21.257272288203243 6.6319109201431266 6.4545419216155997 4.137180730700492 3.1818888038396826 10.310643866658209 4.9460464566946021 139.68656177818775 274.63267633318901 94.178117886185646 4.6540911793708792 49.595913723111153 12.982768833637236 11.324185460805891 4.1206896007061031 12.562874034047125
leaf_count=780 38 57 908 124 37 28 20 14 49 22 667 1378 461 23 248 66 61 20 62
internal_value=-5.33273e-05 0.00021217 0.000558979 -0.0022111 -0.0268858 0.0054677 -0.00135859 -0.0034622 -0.00163328 -0.00325272 -0.000665976 -0.00110619 0.00415151 -0.00511996 0.0104817 -0.00867701 0.00264984 0.0166157 0.0459558
internal_weight=1034.38 1028.43 1017.91 650.706 27.8892 367.206 168.717 162.262 158.125 154.943 144.633 622.817 269.627 353.19 65.5742 287.615 60.9201 110.862 16.6836
internal_count=5063 5025 4968 3260 161 1708 800 772 752 738 689 3099 1323 1776 332 1444 309 543 82
is_linear=0
shrinkage=0.05


Tree=23
num_leaves=20
num_cat=0
split_feature=3 1 4 6 1 4 7 2 5 2 3 3 4 7 6 0 0 2 0
split_gain=4.68616 4.77015 4.6445 5.07077 6.26556 5.10059 5.43306 4.96127 5.56243 5.02538 10.9806 8.20159 8.01837 6.5049 6.1665 5.80196 12.8278 9.7575 12.5331
threshold=91.153355049349258 1006.7943582245256 16.839276994977684 -0.0050350171898465015 1339.0635047769813 19.437504359654024 -0.00087268074564250664 -0.033994761436463357 0.0010423290108267926 0.028811651224507379 72.836300991726219 65.384677029266911 15.955361502511161 0.012302834047395629 0.010407430725212887 1599.9979756630426 1558.7201755363301 0.037595417477827443 1378.504488282081
decision_type=2 2 2 2 2 2 2 2 2 2 2 2 2 2 2 2 2 2 2
left_child=1 -1 7 -4 -5 6 -6 8 -3 10 12 -11 13 -9 -12 16 17 18 -13
right_child=-2 2 3 4 5 -7 -8 9 -10 11 14 15 -14 -15 -16 -17 -18 -19 -20
leaf_value=0.050253062687840515 -0.044936934889401807 0.0052247553792205545 0.053142222792482367 0.054761254360754533 0.055886541148739512 -0.035752627268414702 -0.01004305814329976 0.00070213047834260123 0.047356772418756861 -0.032002354294353358 -0.028612246984886194 0.063316800124521622 -0.056214768441793066 -0.017901871867817953 0.01835137544260811 -0.022309271374133018 0.09364681739532614 -0.0038044442913954786 -0.018562995745215125
leaf_weight=4.7376692444086066 5.7832737043499938 28.826351284980774 7.8880317062139502 5.593653246760371 4.9614602774381664 8.1731566041707975 8.4412350505590421 752.92422358691692 10.757402285933493 9.7148234099149686 54.747285664081573 16.165799692273144 6.5004788786172858 50.113223060965538 8.0126361548900586 8.1624323576688749 5.7438903301954261 29.92519998550415 6.5740943253040305
leaf_count=20 38 136 32 23 20 36 36 3706 48 46 289 74 32 245 42 41 25 142 32
internal_value=-5.4817e-05 0.000197688 -3.40752e-05 0.0178505 0.00760436 -0.00462131 0.014363 -0.000668572 0.0166747 -0.00139229 -0.00246853 0.010914 -0.000906557 -0.000458845 -0.0226163 0.0171768 0.0226948 0.0149565 0.0396454
internal_weight=1033.75 1027.96 1023.23 35.0575 27.1695 21.5759 13.4027 988.168 39.5838 948.584 872.298 76.2862 809.538 803.037 62.7599 66.5714 58.409 52.6651 22.7399
internal_count=5063 5025 5005 147 115 92 56 4858 184 4674 4314 360 3983 3951 331 314 273 248 106
is_linear=0
shrinkage=0.05


Tree=24
num_leaves=20
num_cat=0
split_feature=7 4 1 1 7 1 2 3 1 0 0 7 0 0 1 7 1 5 3
split_gain=4.40311 6.20321 7.37159 6.50441 6.17607 6.14772 5.88526 5.8 5.90995 5.69385 10.9747 8.87129 12.1839 6.6257 9.17645 5.30986 4.96008 4.89676 4.65375
threshold=0.004236032983357286 11.628579275948661 1725.3989099097951 1014.4803819723455 -0.0052097722721896047 1712.8945841709485 -0.033994761436463357 9.0932015429895916 1026.5770155333387 1669.3626045573744 1633.3186901351598 -0.011609056637234714 1607.8024617211088 1565.1182712077364 1522.975076400329 0.0055738877438394905 1018.3918633549275 -0.0036411296923714027 47.802954015162179
decision_type=2 2 2 2 2 2 2 2 2 2 2 2 2 2 2 2 2 2 2
left_child=1 3 5 4 -1 9 -2 -5 16 10 11 -3 13 14 -13 -8 -9 -12 -6
right_child=6 2 -4 7 18 -7 15 8 -10 -11 17 12 -14 -15 -16 -17 -18 -19 -20
leaf_value=-0.017507239717244698 0.047799630986676611 -0.017514546478266464 -0.029285202337390626 -0.049469239208256882 0.080729637557977199 0.06827621710849556 -0.020218913169052177 -0.00037377850892689489 -0.00027031803215687609 -0.006299808818453218 0.087262428710112375 0.026359328426532359 -0.030830995777456568 0.067369796374594268 -0.039228031575903738 -0.0029003666302021801 -0.065611329026588602 0.034072617180721174 0.023121199837657702
leaf_weight=5.7940406203269985 5.1473455727100363 23.783621519804001 11.06899209320545 6.260432392358779 5.3513634204864493 4.8583231270313254 54.421457573771477 5.3188583105802518 521.25055016577244 36.064890906214714 5.790118262171748 51.655653968453407 11.186201646924017 8.3006126433610898 5.9470179527997962 237.00943454355001 6.443080723285675 17.124425917863846 10.164221316576002
leaf_count=26 22 104 58 38 22 23 274 29 2596 177 24 231 51 37 26 1172 36 72 45
internal_value=-5.44949e-05 0.00201725 0.0102126 -0.00055254 0.0265413 0.012867 -0.00519834 -0.00162317 -0.0010612 0.0111829 0.0162764 0.00918072 0.0174167 0.0256061 0.019588 -0.00613441 -0.0361103 0.0475128 0.0429905
internal_weight=1032.94 736.362 175.78 560.583 21.3096 164.711 296.578 539.273 533.012 159.853 123.788 100.873 77.0895 65.9033 57.6027 291.431 11.7619 22.9145 15.5156
internal_count=5063 3595 803 2792 93 745 1468 2699 2661 722 545 449 345 294 257 1446 65 96 67
is_linear=0
shrinkage=0.05


Tree=25
num_leaves=20
num_cat=0
split_feature=3 1 4 1 1 3 3 1 0 0 6 3 3 0 6 7 0 4 7
split_gain=4.30452 4.22834 4.62208 6.49892 6.45856 5.92167 5.80684 9.71216 5.8199 4.9952 5.26339 5.39967 13.1518 9.9241 9.56936 6.22656 6.05364 8.15381 6.95687
threshold=91.153355049349258 1761.4285112696409 10.750000000000002 1635.9347000488667 1716.6060698055685 9.0932015429895916 18.483410678667564 1204.9159387575958 1407.2723917992487 1104.1419465559823 0.00062916093083864599 39.164279223162829 34.180264193190993 1633.3186901351598 -0.0035919673386998747 -0.0092701135384399818 1686.9471056470081 12.571432931082592 -0.0022370363624007457
decision_type=2 2 2 2 2 2 2 2 2 2 2 2 2 2 2 2 2 2 2
left_child=1 2 3 5 -5 -1 7 -7 -9 -4 11 12 13 -11 15 -15 -13 -18 -19
right_child=-2 -3 9 4 -6 6 -8 8 -10 10 -12 16 -14 14 -16 -17 17 18 -20
leaf_value=-0.061258829100568214 -0.043778580390661577 -0.031741892664158132 0.07104852838052983 -0.039608473922729134 0.016952534435753695 0.073096740167855098 -0.0015154255806645721 -0.027902561261067445 0.034538463340401365 -0.0047585378737222805 -0.0020677607057901668 0.020488631012223851 -0.041790532711409714 0.036877185991724397 -0.0092373383571522968 0.11450023867702899 -0.041508092180908528 0.05263902996507458 -0.026275779747451173
leaf_weight=4.047604799270629 5.5982116609811774 10.266987100243567 2.839602679014205 20.751188278198246 6.6691665500402442 7.0349028557539013 595.47221428155899 7.8288049995899183 7.1308629214763641 33.319006651639938 166.74790289998055 111.05127222836018 15.624653726816176 5.8139970302581796 5.6810114085674277 4.6495535522699365 10.004363849759104 6.7890859097242355 4.7444926798343641
leaf_count=27 38 57 12 124 37 30 2970 37 35 152 794 494 74 25 27 20 54 31 25
internal_value=-5.3906e-05 0.000184562 0.000507126 -0.00202969 -0.0258517 -0.000978693 -0.000583546 0.0246458 0.00186136 0.00498952 0.00447479 0.00999366 -0.0018008 0.0108312 0.0430053 0.0713695 0.0157836 -0.00847604 0.0201764
internal_weight=1032.06 1026.47 1016.2 648.935 27.4204 621.514 617.467 21.9946 14.9597 367.265 364.425 197.677 65.0882 49.4636 16.1446 10.4636 132.589 21.5379 11.5336
internal_count=5063 5025 4968 3260 161 3099 3072 102 72 1708 1696 902 298 224 72 45 604 110 56
is_linear=0
shrinkage=0.05


Tree=26
num_leaves=20
num_cat=0
split_feature=3 1 4 4 7 3 2 0 1 3 4 7 3 1 5 6 7 1 1
split_gain=3.99904 3.88198 4.16887 6.23817 5.60388 5.52187 12.0883 7.44401 12.2341 9.01089 7.38716 9.96593 6.94005 10.5245 15.2682 8.203 6.38243 16.0154 9.09437
threshold=91.153355049349258 1761.4285112696409 10.750000000000002 10.350006103515627 -0.0088009839528213601 47.164093147500004 -0.0071338191561656954 1417.4564241836626 1435.6881255136063 31.237459565745969 6.7821437290736615 -0.0062387809400120111 22.9650486003646 1206.7096048843366 0.0003369479376574836 -0.011270007436801342 0.004608295256135154 1113.6088877614163 1106.0905738638955
decision_type=2 2 2 2 2 2 2 2 2 2 2 2 2 2 2 2 2 2 2
left_child=1 2 3 5 -5 6 7 8 9 10 11 -1 15 -14 -15 -12 18 -18 -8
right_child=-2 -3 -4 4 -6 -7 16 -9 -10 -11 12 -13 13 14 -16 -17 17 -19 -20
leaf_value=-0.014042095221264301 -0.042789823773756737 -0.030677483263354233 0.0047345396428609505 0.034782214871574145 -0.02549222163698241 -0.0048327328804650882 0.042063504301989796 -0.022783260986010939 0.086894063695042947 -0.016281086364395403 0.04103706462961132 0.074117333683804007 -0.012890124563548816 0.012595078630636967 0.13111481082605303 -0.033800703550426595 -0.038266129447615677 0.071280546420364146 0.0039231806622324582
leaf_weight=4.8857470154762259 5.4451135098934165 10.096464872360228 367.423284932971 4.2561802715063086 41.036485180258751 337.33595237135887 19.901382744312286 40.043442264199257 4.1165277510881415 51.117704600095749 4.6557658910751369 9.3223454356193525 11.419001772999765 7.7259080708026868 4.1916213184595108 17.147586360573769 4.4121073186397579 13.684770956635473 72.812148734927177
leaf_count=22 38 57 1708 21 214 1711 93 212 20 257 22 42 53 37 20 84 22 66 364
internal_value=-5.3777e-05 0.000173121 0.000479852 -0.00193236 -0.0198282 -0.000587659 0.0048073 -0.0042255 0.00225995 -0.000893964 0.0123593 0.0438019 0.00246253 0.0214128 0.0542807 -0.0178203 0.0174117 0.0445725 0.0121102
internal_weight=1031.03 1025.58 1015.49 648.065 45.2927 602.772 265.436 154.626 114.582 110.466 59.348 14.2081 45.1399 23.3365 11.9175 21.8034 110.81 18.0969 92.7135
internal_count=5063 5025 4968 3260 235 3025 1314 769 557 537 280 64 216 110 57 106 545 88 457
is_linear=0
shrinkage=0.05


Tree=27
num_leaves=20
num_cat=0
split_feature=7 4 2 4 0 6 1 0 7 1 1 1 2 2 2 3 7 7 3
split_gain=3.9543 5.66543 5.30731 4.92263 5.35134 5.18042 4.84887 6.25796 5.52327 4.56022 11.8113 9.57764 6.88262 5.87637 5.49376 7.72361 8.05794 9.55111 6.71016
threshold=0.004236032983357286 17.628553118024559 -0.033994761436463357 5.3785727364676346 1675.4380393501435 -0.002786659795169177 1014.4803819723455 1023.6277211248429 -0.0052097722721896047 1087.1196606331991 1113.6088877614163 1172.1328945159523 0.047126913597303748 0.012369996292258443 0.033876921337362129 63.860821144665891 0.0059724263495962724 0.012302834047395629 56.095501422810955
decision_type=2 2 2 2 2 2 2 2 2 2 2 2 2 2 2 2 2 2 2
left_child=1 6 -2 -4 5 -5 8 -8 -1 -7 -11 13 14 -12 15 16 -13 18 -18
right_child=2 -3 3 4 -6 9 7 -9 -10 10 11 12 -14 -15 -16 -17 17 -19 -20
leaf_value=-0.017017202396437472 0.045252403638144534 0.033931612556725339 -0.050156826235585185 -0.036344169846651751 -0.026659605829332161 0.019725244749875245 -0.030091978968066396 0.0013204533362951843 0.040275451636613273 -0.044384785987321575 0.005539140280814165 -0.020630672493117549 -0.04961277239905959 0.059834465335082368 0.024467384447361563 -0.020001185777607171 0.036452786099420008 -0.011779114624654584 -0.0020637941755286197
leaf_weight=5.7645773887634304 5.1747391521930686 13.557756304740904 6.1319327354431143 10.967075690627096 25.651452489197254 23.5042954236269 16.231556251645088 683.67088112235069 15.565533369779585 16.318440973758698 9.9450511932373065 26.810401722788811 7.8241336047649375 9.9885628819465619 18.035844713449478 54.292246200144291 34.841551929712296 29.340037748217583 16.741078019142151
leaf_count=26 22 56 33 53 144 116 87 3359 67 83 50 131 42 47 84 275 166 140 82
internal_value=-5.49108e-05 0.00190961 -0.00493879 -0.00583319 -0.00487706 -0.00271644 0.00130766 0.000591962 0.0247918 -0.0012272 -0.00342439 -0.000208084 -0.00370434 0.0327461 -0.0017095 -0.00462338 0.00312629 0.0109972 0.0239523
internal_weight=1030.36 734.79 295.567 290.392 284.26 258.609 721.233 699.902 21.3301 247.642 224.137 207.819 187.885 19.9336 180.061 162.025 107.733 80.9227 51.5826
internal_count=5063 3595 1468 1446 1413 1269 3539 3446 93 1216 1100 1017 920 97 878 794 519 388 248
is_linear=0
shrinkage=0.05


Tree=28
num_leaves=20
num_cat=0
split_feature=3 1 2 4 2 0 2 2 7 0 4 0 0 2 1 0 4 0 7
split_gain=3.75421 4.02659 3.752 4.18595 4.86459 5.13601 4.50351 10.5992 7.2304 6.7412 6.20257 8.0973 13.7759 13.2043 10.861 6.1735 10.7487 7.70162 7.44538
threshold=91.153355049349258 1006.7943582245256 -0.033994761436463357 16.839276994977684 0.013523140392030581 1457.0615489464146 -0.0068913106943224549 0.00098473876501147212 0.013988873592069575 1769.0290423984632 9.3857334681919671 1479.6376394693129 1453.3791937607891 0.01499284570266125 1500.2046557024166 1199.8953013385651 7.3357238769531259 1159.3789517930211 0.011142289593688017
decision_type=2 2 2 2 2 2 2 2 2 2 2 2 2 2 2 2 2 2 2
left_child=1 -1 -3 6 -5 -6 -4 8 -8 10 11 12 15 14 -13 17 -17 -9 -18
right_child=-2 2 3 4 5 -7 7 9 -10 -11 -12 13 -14 -15 -16 16 18 -19 -20
leaf_value=0.046166699209008795 -0.041972517451964939 0.014157763767309071 -0.0066527915787165451 0.033385048511993046 0.017858732180432973 -0.051205212634140053 0.010345832388008366 -0.0040527180338857773 0.072736215587426739 -0.050490616448684071 0.0033509665888699861 0.10052653475956447 -0.068019574598272889 -0.020658858518326637 0.018560022869678412 -0.050316387699367138 -0.0020769796394304249 0.053594876776144308 -0.051269261521503642
leaf_weight=4.7344642728567115 5.3139744177460662 44.435449495911598 276.37107464671135 18.677776739001278 7.2039885967969877 4.2979440242052078 153.65815642476082 88.582617491483688 4.7884397953748694 7.235867276787757 266.24842721223831 4.960927069187167 10.486975729465483 19.111876174807549 21.805025279521942 20.562659308314323 55.997839614748955 6.1992078721523276 8.9166841059923154
leaf_count=20 38 204 1349 77 30 20 756 449 23 42 1301 24 54 100 112 108 282 28 46
internal_value=-5.49703e-05 0.000162499 -5.11314e-05 -0.000698629 0.0176322 -0.00794849 -0.00128409 0.000935251 0.0122313 -0.00257347 -0.00188399 -0.00777434 -0.0123105 0.0110855 0.0337521 -0.00906946 -0.0188132 -0.000282276 -0.00883405
internal_weight=1029.59 1024.28 1019.54 975.105 30.1797 11.5019 944.926 668.555 158.447 510.108 502.872 236.624 190.746 45.8778 26.766 180.259 85.4772 94.7818 64.9145
internal_count=5063 5025 5005 4801 127 50 4674 3325 779 2546 2504 1203 967 236 136 913 436 477 328
is_linear=0
shrinkage=0.05


Tree=29
num_leaves=20
num_cat=0
split_feature=5 5 3 3 4 2 1 0 5 2 4 2 0 7 1 6 4 1 7
split_gain=3.60277 6.21536 5.36156 8.58662 7.46126 7.07808 6.00277 5.53948 5.01489 4.5833 7.24349 4.33227 4.0603 6.82968 3.92061 3.76912 3.60223 3.57744 4.9457
threshold=-0.0050985247437895778 -0.0054762014609311951 50.777645533409903 44.098951898427366 8.9142979213169671 -0.013068327310714762 1101.239297850196 1657.4665992233201 -0.0049669277998459762 -0.0015679302489090589 8.0392761230468768 -0.033994761436463357 1096.8898733567328 -0.00043509212202197384 1006.7943582245256 -0.0058567538396497856 16.839276994977684 1670.251045468827 0.0027367483374873829
decision_type=2 2 2 2 2 2 2 2 2 2 2 2 2 2 2 2 2 2 2
left_child=1 2 3 5 15 6 -1 -8 -2 10 -7 12 -10 -14 -13 -4 -16 -18 -19
right_child=8 -3 4 -5 -6 9 7 -9 11 -11 -12 14 13 -15 16 -17 17 18 -20
leaf_value=0.046722154127760734 -0.057645964615598934 0.041468724137358665 0.088031538282141289 -0.042971237994431123 0.0066708351700879576 -0.012012886079399087 -0.025906173647640637 0.027467864069420242 -0.023500484322763488 -0.0062247184151383072 0.066573267262800176 0.043823118880197132 0.0078717380621277488 0.062033031889562176 -0.0023393214204412245 0.022460192522174953 0.03186130672532269 0.02642019674120917 -0.044405494488481884
leaf_weight=4.2695700377225867 3.9066018760204306 12.532319426536558 5.0620792210102081 11.650003984570501 26.032785654067993 4.1493592262268093 26.987265810370445 5.9293161183595648 5.1558271199464789 6.8832764476537696 9.996211573481558 4.7381557822227469 18.486314341425896 8.4953368455171603 845.3899891898036 3.8647286891937238 15.41854700446129 5.2786611169576627 4.6239220499992371
leaf_count=19 20 60 25 56 122 20 130 26 25 34 48 20 86 36 4209 20 64 22 21
internal_value=-5.56838e-05 0.00819015 0.00421152 -0.00378751 0.0201972 0.00405395 -0.0090568 -0.0162918 -0.00111735 0.0272382 0.0435214 -0.000874033 0.0171559 0.0249248 -0.00153591 0.0596434 -0.00178274 0.0167998 -0.00665122
internal_weight=1028.85 117.357 104.825 69.865 34.9596 58.215 37.1862 32.9166 911.493 21.0288 14.1456 907.587 32.1375 26.9817 875.449 8.92681 870.711 25.3211 9.90258
internal_count=5063 560 500 333 167 277 175 156 4503 102 68 4483 147 122 4336 45 4316 107 43
is_linear=0
shrinkage=0.05


Tree=30
num_leaves=20
num_cat=0
split_feature=7 4 1 1 1 2 2 2 3 7 7 1 5 1 3 2 4 0 6
split_gain=3.56941 4.82659 7.08291 9.46442 11.112 6.95837 5.39055 7.43739 8.55654 6.87904 7.39575 6.79623 5.40808 5.99304 5.19637 11.0174 10.0455 4.66825 8.42176
threshold=0.004236032983357286 5.924998692103796 1084.7609081410919 1113.6088877614163 1172.1328945159523 -0.033041599934398931 0.047126913597303748 0.031818271925723153 63.860821144665891 0.006130209522798081 0.012302834047395629 1671.2214828121334 0.0064434478660502234 1427.5601150447417 56.454383874851523 -0.0075090236163853153 11.051788330078127 1264.2773946475602 0.018406591415460753
decision_type=2 2 2 2 2 2 2 2 2 2 2 2 2 2 2 2 2 2 2
left_child=-1 -2 -3 -4 -5 -6 7 8 9 -7 11 14 -12 -14 15 -11 -16 -10 -19
right_child=1 2 3 4 5 6 -8 -9 17 10 12 -13 13 -15 16 -17 -18 18 -20
leaf_value=0.0018094499550955889 -0.033921951525517934 0.027265011257925027 -0.040411653515598972 0.032152102174051303 0.054959254780079583 -0.020877477007529191 -0.045920995985357552 0.020923654818127999 0.01618616320601899 -0.0066739955001448225 -0.028595292105218745 -0.025347112870100743 -0.022865353215313074 0.047937852287316451 -0.027058484355778491 0.053172898711749399 0.062877076429287332 -0.034720352713664672 0.035296864118455881
leaf_weight=734.22624064981937 13.491319507360457 17.749150991439819 17.95254921913147 20.80697850883007 4.5787076950073233 33.565952435135841 8.6859032437205297 23.284581281244755 6.419338345527648 11.381277143955222 21.066151231527328 8.4192141741514188 5.8191694468259794 6.1444388329982758 10.821341693401335 23.711920902132995 4.3542187809944144 51.118684142827988 4.6886143609881392
leaf_count=3595 72 85 93 100 19 168 47 109 33 55 104 46 28 29 55 111 20 270 24
internal_value=-5.48433e-05 -0.00470973 -0.00330504 -0.00536955 -0.00280041 -0.00604623 -0.0073189 -0.00572828 -0.00903785 -0.00151041 0.00557736 0.0162289 -0.0133485 0.0134988 0.0231922 0.0337636 -0.00125389 -0.0241932 -0.0288379
internal_weight=1028.29 294.06 280.568 262.819 244.866 224.06 219.481 210.795 187.51 125.284 91.7177 58.688 33.0298 11.9636 50.2688 35.0932 15.1756 62.2266 55.8073
internal_count=5063 1468 1396 1311 1218 1118 1099 1052 943 616 448 287 161 57 241 166 75 327 294
is_linear=0
shrinkage=0.05


Tree=31
num_leaves=20
num_cat=0
split_feature=3 0 0 0 4 1 0 1 1 0 4 2 4 6 1 3 3 3 1
split_gain=3.51702 3.39257 8.3739 10.7904 9.57948 6.82344 5.59606 13.9732 11.9958 9.53279 9.41136 8.3482 8.68662 7.07349 5.58678 10.6653 5.26659 5.07992 7.02266
threshold=91.153355049349258 1669.3626045573744 1622.2396037408155 1611.2750328788209 10.789271763392859 1635.9347000488667 1565.1182712077364 1522.975076400329 1570.9825930928139 1523.2369399331676 11.782152448381698 -0.0013445215857947198 9.8964364188058056 -0.0073914190928146542 1625.2456284883006 35.802622475542861 70.784815068878871 18.483410678667564 1204.9159387575958
decision_type=2 2 2 2 2 2 2 2 2 2 2 2 2 2 2 2 2 2 2
left_child=1 2 3 6 5 -4 7 9 -8 17 16 13 -13 -10 15 -15 -11 18 -1
right_child=-2 -3 4 -5 -6 -7 8 -9 11 10 -12 12 -14 14 -16 -17 -18 -19 -20
leaf_value=0.063310780075209544 -0.041148465093162584 -0.0081699700982413356 0.028290649884634485 -0.039934353456880581 0.02817908042870923 -0.042168706990884423 0.069971650458026627 -0.032373522869322428 -0.036838186675936392 0.10885887442898477 -0.010488597955513436 0.02248581043259313 -0.048750097022963845 0.11587712136631867 -0.012739780515862506 0.025702728613367583 0.032341408119042979 -0.00068173209710892442 0.0055339198494135846
leaf_weight=7.3276253044605282 5.1806390434503546 109.34890434145927 5.3300297111272803 16.750138998031616 52.454813584685326 9.6701421439647657 8.6810469180345518 32.905774757266045 4.2043709754943874 4.7307149320840818 5.5032124668359748 7.051457047462466 10.886407881975172 4.2442422956228318 5.1223493665456763 14.418738231062887 4.2863397300243378 700.92226648330688 18.633411943912506
leaf_count=31 38 581 30 80 229 60 39 163 20 23 24 35 52 20 25 66 21 3435 91
internal_value=-5.54386e-05 0.000152771 0.00114944 -0.000202869 0.0181031 -0.0171323 0.000599994 -0.000491016 0.0160697 0.000924028 0.0410382 0.00588136 -0.0207469 0.0229467 0.0335145 0.0462097 0.0724856 0.000122705 0.0218417
internal_weight=1027.65 1022.47 913.123 845.668 67.455 15.0002 828.918 774.309 54.6086 741.404 14.5203 45.9276 17.9379 27.9897 23.7853 18.663 9.01705 726.883 25.961
internal_count=5063 5025 4444 4125 319 90 4045 3788 257 3625 68 218 87 131 111 86 44 3557 122
is_linear=0
shrinkage=0.05


Tree=32
num_leaves=20
num_cat=0
split_feature=7 0 4 1 4 0 0 7 2 3 7 2 3 2 0 2 4 3 0
split_gain=3.34095 5.24792 5.28154 9.52238 5.09005 5.66225 8.43184 4.91976 6.24517 11.7938 7.28254 6.73521 6.70438 6.11496 7.91593 8.25724 6.35013 5.71689 6.2464
threshold=-0.00063647298855379331 1673.7705081183828 5.7696446010044653 1015.4592677475642 13.717864990234377 1698.7001849109199 1669.3626045573744 -0.0035455136796444515 0.0017324919316000431 60.114650430823581 -0.0077241828027028716 -0.0031744804884676105 45.924725814886095 0.0042790044351437807 1498.6486225587673 0.017631671086654196 9.7785600934709844 62.574383906443039 1552.7289081012368
decision_type=2 2 2 2 2 2 2 2 2 2 2 2 2 2 2 2 2 2 2
left_child=4 2 -2 -4 7 6 -6 8 9 11 13 12 -1 -10 15 16 -15 -9 -19
right_child=1 -3 3 -5 5 -7 -8 17 10 -11 -12 -13 -14 14 -16 -17 -18 18 -20
leaf_value=-0.00073977796193775531 -0.020846565334223521 -0.018057688203416349 0.048687159220808046 -0.00087048808817179885 0.021024461605923396 0.057937482330448459 -0.028198592908578665 0.013950133579636004 -0.03721000980996006 0.057004574961236759 -0.024194932733826474 0.020321769738102222 -0.030944791499453235 -0.017423244030796672 0.063523447562694207 -0.052424080845131719 0.062106377306446373 -0.024185451503352912 0.02696117258425625
leaf_weight=131.87998567521572 31.891470849514008 50.697287864983082 9.90526135265827 452.60872446745634 42.247804433107376 7.2682427018880835 10.956371396780012 110.35093469917774 6.1838551610708263 9.3340687453746778 57.755818948149681 31.851463824510574 21.344715014100075 4.6755712330341357 6.8868991881608954 5.1718979179859152 5.4189745932817459 22.330947585403923 8.1474299579858762
leaf_count=644 167 288 42 2226 178 32 50 547 31 46 289 155 105 23 33 25 25 115 42
internal_value=-5.59225e-05 -0.00273716 -0.00116617 0.000190845 0.00297757 0.0165429 0.0108879 0.00103059 -0.00279772 0.00216703 -0.0140088 -0.000598627 -0.00494744 0.0067521 0.0190236 -0.00105085 0.02527 0.0086558 -0.010513
internal_weight=1026.91 545.103 494.405 462.514 481.805 60.4724 53.2042 421.333 280.503 194.41 86.093 185.076 153.225 28.3372 22.1533 15.2664 10.0945 140.829 30.4784
internal_count=5063 2723 2435 2268 2340 260 228 2080 1376 950 426 904 749 137 106 73 48 704 157
is_linear=0
shrinkage=0.05


Tree=33
num_leaves=20
num_cat=0
split_feature=3 1 1 1 7 4 6 1 2 3 2 2 0 1 0 1 4 3 2
split_gain=3.26798 3.28545 3.49866 7.5583 4.38703 4.36226 5.99186 5.2975 5.04139 4.96925 4.86999 12.7937 8.51568 26.5372 15.8769 12.621 6.77727 6.96162 6.45052
threshold=91.153355049349258 1761.4285112696409 1712.8945841709485 1691.9330050951787 -0.0073121235968519596 11.628579275948661 0.00040574057244791023 1680.8507087816963 0.05326484593756186 9.0932015429895916 0.0063520860749579746 -0.005827302745158503 1328.7065412713703 1452.923723877632 1264.2773946475602 1456.5851857358537 6.4178684779575894 65.384677029266911 0.0017324919316000431
decision_type=2 2 2 2 2 2 2 2 2 2 2 2 2 2 2 2 2 2 2
left_child=1 2 3 5 -5 7 -7 9 -8 -1 11 -11 14 18 16 -15 17 -13 -14
right_child=-2 -3 -4 4 -6 6 8 -9 -10 10 -12 12 13 15 -16 -17 -18 -19 -20
leaf_value=-0.046996389897708296 -0.040244568905053624 -0.028741565609272116 0.018974492516709272 0.0060780608754694128 -0.0550007462700976 0.014314018581215449 0.00080867810576939776 -0.048147476578166162 -0.046115032683349357 -0.0052483598853005275 -0.0057692104146369882 0.0071201879658902168 0.12662695666312182 -0.053961847186117864 -0.024714583475315161 0.019636929110026902 0.025825812899819153 -0.054397831313761885 0.056223481159573478
leaf_weight=5.8344730883836737 5.0335597842931739 9.7512067407369596 24.785734698176384 4.2094781398773184 9.7474431544542295 118.71572321653366 112.43753550946712 6.0165885090827933 6.0311215966939917 237.17239363491535 284.05632643401623 34.295785412192345 6.3026790320873243 6.5637394636869422 34.675435274839401 51.751070782542229 56.709163248538971 5.3109760284423819 6.7248679548501968
leaf_count=38 38 57 133 21 55 525 524 35 31 1174 1437 169 30 33 173 255 274 28 33
internal_value=-5.58602e-05 0.000142253 0.000420747 -4.53882e-05 -0.0365791 0.000478875 0.00637521 -0.0014228 -0.00158016 -0.00103738 -0.000666789 0.00263095 0.0118669 0.0257663 0.00429691 0.0113529 0.0147416 -0.00112893 0.0902844
internal_weight=1026.13 1021.09 1011.34 986.555 13.9569 972.598 237.184 735.413 118.469 729.397 723.562 439.506 202.334 71.3424 130.991 58.3148 96.3159 39.6068 13.0275
internal_count=5063 5025 4968 4835 76 4759 1080 3679 555 3644 3606 2169 995 351 644 288 471 197 63
is_linear=0
shrinkage=0.05


Tree=34
num_leaves=20
num_cat=0
split_feature=7 4 0 6 5 5 4 6 4 1 0 7 3 7 1 0 1 1 1
split_gain=3.05881 4.35494 4.31704 4.74756 4.39207 5.38559 7.57636 8.4981 4.18968 4.01828 5.52202 4.86419 3.87557 4.85427 3.84284 3.95644 7.17292 5.09343 9.62911
threshold=0.004236032983357286 5.3785727364676346 1675.4380393501435 -0.002786659795169177 -0.0040257909459195376 -0.0015808635789681389 11.942858014787948 0.0050594325502938417 17.628553118024559 1014.4803819723455 1023.6277211248429 -0.0052097722721896047 47.802954015162179 0.00096308079824880554 1673.5786319142442 1265.1234433744312 1357.6509187933598 1113.6088877614163 1087.1196606331991
decision_type=2 2 2 2 2 2 2 2 2 2 2 2 2 2 2 2 2 2 2
left_child=8 -2 3 -3 -5 6 7 -6 9 11 -11 -1 -13 -14 15 17 -17 18 -7
right_child=1 2 -4 4 5 14 -8 -9 -10 10 -12 12 13 -15 -16 16 -18 -19 -20
leaf_value=-0.016972186966869956 -0.047381492396785199 -0.033437634706999918 -0.02359289303247758 -0.035932681100899755 -0.021367309240020799 0.012100077331653272 0.076607642241112675 0.059397207985029003 0.02916387955460217 -0.028646067568753032 0.0011725606347406173 0.071512293097051399 -0.013926641495630308 0.054882808016873764 0.044692716450876691 -0.027304072048211704 -0.0006707068648028131 0.016024527510026872 -0.041593444941459924
leaf_weight=5.7070297151803997 5.7725787013769141 11.234644189476965 24.488036528229713 8.3204659223556501 9.2626283466815966 21.676901087164879 5.3886725008487693 5.0234000086784354 13.595916345715521 15.887509897351263 682.54415941983461 5.3417731970548621 5.355664521455763 4.9156368374824524 4.4692058712244025 34.255564302206039 96.48795972764492 52.109463632106781 13.581504002213476
leaf_count=26 33 55 144 41 47 107 24 25 56 87 3359 22 24 21 19 171 474 256 72
internal_value=-5.69849e-05 -0.00438418 -0.00351723 -0.00163949 -0.000213808 0.00101299 0.0260879 0.00703194 0.00166641 0.00114699 0.000494264 0.0225299 0.036969 0.0190042 -0.00120348 -0.00214391 -0.0076488 0.006094 -0.00858262
internal_weight=1025.42 292.071 286.298 261.81 250.576 242.255 19.6747 14.286 733.348 719.752 698.432 21.3201 15.6131 10.2713 222.581 218.111 130.744 87.3679 35.2584
internal_count=5063 1468 1435 1291 1236 1195 96 72 3595 3539 3446 93 67 45 1099 1080 645 435 179
is_linear=0
shrinkage=0.05


Tree=35
num_leaves=20
num_cat=0
split_feature=3 1 0 1 7 0 4 1 1 4 2 2 1 3 0 6 7 3 2
split_gain=3.05729 3.08843 9.79715 9.65288 8.03737 7.79871 6.24697 5.25523 10.1323 6.6159 6.4779 8.22889 8.67332 7.94454 6.3267 4.81227 6.83361 4.78776 5.75248
threshold=91.153355049349258 1172.1328945159523 1172.7954725371894 1195.6465206202572 -0.024263194999731726 1188.7096257690398 6.4803553989955365 1113.6088877614163 1107.5938226028113 8.699999128069198 0.012369996292258443 -0.00020734466811528563 1147.7528498911277 39.968477828773025 1162.6354599783015 -0.0042425338936233339 0.0067872194006599615 25.720518761873084 -0.015017349815412652
decision_type=2 2 2 2 2 2 2 2 2 2 2 2 2 2 2 2 2 2 2
left_child=1 2 4 -3 -1 -5 -7 8 9 17 11 12 13 -9 -12 -11 -17 -6 -19
right_child=-2 3 -4 5 7 6 -8 10 -10 15 14 -13 -14 -15 -16 16 -18 18 -20
leaf_value=0.072114232815822438 -0.039414912606944665 -0.040508930669775706 0.064243340774006605 0.056754123086412193 0.040707946510442128 -0.026431231819764298 -0.00019941251661571114 0.087304633279266908 -0.049555582166120125 0.015209702178045462 0.091172577675693589 -0.018437309392612396 -0.03199342857825109 0.018226649791236279 0.011644312828347419 -0.054968443467468389 0.012102467720914126 -0.025476185149449038 0.0071741378872505913
leaf_weight=4.1809454411268225 4.9102882519364348 15.418111324310301 6.8356896936893454 5.8910061568021765 9.0238500833511335 23.404785692691803 749.62709508836269 6.4858474731445375 10.581223905086516 6.2622026652097729 5.1073103696107847 17.580377593636513 4.9030268043279639 11.618176594376562 4.9000659435987473 13.096294626593592 5.3487577885389319 15.501732409000395 103.96450842916965
leaf_count=18 38 80 29 26 40 125 3694 28 55 31 23 89 22 55 21 66 26 80 517
internal_value=-5.61163e-05 0.000133407 0.00529914 -0.00133234 0.00345556 -0.000556876 -0.000993623 0.0021165 -0.00223466 0.00103376 0.0162015 0.00731767 0.0269978 0.0429741 0.0522319 -0.0226615 -0.035519 0.00559011 0.00293749
internal_weight=1024.64 1019.73 225.39 794.341 218.554 778.923 773.032 214.373 163.779 153.197 50.5948 40.5874 23.0071 18.104 10.0074 24.7073 18.4451 128.49 119.466
internal_count=5063 5025 1100 3925 1071 3845 3819 1053 815 760 238 194 105 83 44 123 92 637 597
is_linear=0
shrinkage=0.05


Tree=36
num_leaves=20
num_cat=0
split_feature=5 5 6 3 3 2 1 4 6 4 4 1 4 2 5 7 3 6 7
split_gain=2.96166 5.39802 4.98137 7.54021 7.69391 6.51867 6.19805 4.68227 5.89452 8.92694 4.2291 3.62138 3.96053 3.45812 4.03982 3.68127 6.4075 3.15379 3.14617
threshold=-0.0050985247437895778 -0.0054762014609311951 0.0018412498948064961 50.777645533409903 44.098951898427366 -0.013346087716909543 1102.7933667834666 8.9142979213169671 -0.0096623168872104741 11.628579275948661 13.246420724051342 1357.6509187933598 9.1250217982700921 -0.033994761436463357 -0.0049669277998459762 -0.0043300739292420612 21.217255221049658 -0.0096623168872104741 -0.011609056637234714
decision_type=2 2 2 2 2 2 2 2 2 2 2 2 2 2 2 2 2 2 2
left_child=1 2 3 4 5 6 -1 -5 -9 -10 -8 12 -7 15 -15 17 -17 -2 -16
right_child=13 -3 -4 7 -6 11 10 8 9 -11 -12 -13 -14 14 18 16 -18 -19 -20
leaf_value=0.048557316817879809 0.031479841072159863 0.038172444231535589 -0.047742962198659165 0.057838661988420415 -0.041148326715737947 -0.0192938749537543 -0.027772662403522181 -0.020972617039908267 -0.001038987646249116 0.076447252651429098 0.013896330490356788 0.046138291642716919 0.040520754457048197 -0.055543508066447526 -0.015827467723681616 0.00013755548270074573 0.064403744496007179 -0.015460758397714134 -0.00077797120589007465
leaf_weight=4.106993094086639 5.1488866806030265 12.71935899555683 4.5070731937885276 8.5548888593912142 11.223585724830626 6.6235013008117765 23.057087086141113 7.7517310678958919 8.5494922995567304 6.5760276615619651 8.2744442373514158 10.782301515340803 4.753593698143959 3.4594047069549552 36.236062750220299 7.6788239926099759 7.8367783427238464 11.730669960379602 834.40056727826595
leaf_count=18 23 60 23 42 55 32 114 35 42 29 36 52 22 18 172 36 34 56 4164
internal_value=-5.60364e-05 0.00741349 0.00367894 0.0059907 -0.00327625 0.00410354 -0.00919755 0.0262809 0.01448 0.0326492 -0.0167682 0.0253754 0.00569796 -0.00102408 -0.0016186 0.0150175 0.0325978 -0.00114215 -0.00140433
internal_weight=1023.97 117.48 104.761 100.254 68.8215 57.5979 35.4385 31.4321 22.8773 15.1255 31.3315 22.1594 11.3771 906.491 874.096 32.3952 15.5156 16.8796 870.637
internal_count=5063 560 500 477 329 274 168 148 106 71 150 106 54 4503 4354 149 70 79 4336
is_linear=0
shrinkage=0.05


Tree=37
num_leaves=20
num_cat=0
split_feature=1 1 1 7 4 3 0 0 1 3 3 1 1 2 0 2 0 1 7
split_gain=2.93763 3.32652 6.93159 4.07382 3.63846 5.75223 7.08108 8.23381 5.00555 4.95467 8.10282 8.44855 11.514 7.65411 7.97477 5.03531 9.71253 4.9027 4.76423
threshold=1761.4285112696409 1712.8945841709485 1691.9330050951787 -0.0073121235968519596 11.628579275948661 24.598256209461322 1485.0494485588756 1603.4975945604476 1683.7839604014866 38.585165444791848 44.703186023214606 1327.0510616228087 1306.5280373499106 0.022690306156973247 1302.1904639757061 -0.011751386578634081 1573.7402371107844 1680.8507087816963 0.0030504275599551049
decision_type=2 2 2 2 2 2 2 2 2 2 2 2 2 2 2 2 2 2 2
left_child=1 2 4 -4 17 6 -6 -8 9 15 18 12 13 -12 -15 16 -7 -1 -11
right_child=-2 -3 3 -5 5 8 7 -9 -10 10 11 -13 -14 14 -16 -17 -18 -19 -20
leaf_value=-0.0011252738393379279 -0.027630324858275636 0.018250974941406369 0.0050952136912057544 -0.053852087772427532 0.075955729071722544 -0.026666230654262896 -0.04194105356633334 0.041209183301099774 0.05104850802070017 0.046263515001626093 0.051422279081362612 -0.0051775677392609885 0.091980473523888995 0.01679479314793857 -0.047632596769246735 -0.043601570188221833 0.037550839402133239 -0.04706341192879776 -0.00099020060979934199
leaf_weight=731.16693246364594 9.5679971277713758 24.909895956516266 4.2487751692533484 9.4499786645174009 6.1822291910648373 15.722556233406069 4.6918311566114417 8.146955654025076 5.3611146807670584 17.478365361690525 8.3879192173481005 118.03389805555344 5.1312453448772422 14.271611854434015 7.2394622266292563 10.677844896912573 9.4133089035749418 5.8545332700014105 7.6769751012325278
leaf_count=3673 57 133 21 55 27 71 20 35 28 75 36 551 22 65 34 49 42 35 34
internal_value=-5.51035e-05 0.000205082 -0.000249377 -0.0355691 0.000246643 0.00561576 0.0319922 0.0108226 0.00332897 0.00213369 0.00554392 0.00122188 0.0227847 0.0109094 -0.00488798 -0.0148366 -0.00261712 -0.00149018 0.0318425
internal_weight=1023.61 1014.05 989.136 13.6988 975.437 238.415 19.021 12.8388 219.394 214.033 178.219 153.064 35.0302 29.899 21.5111 35.8137 25.1359 737.021 25.1553
internal_count=5063 5006 4873 76 4797 1089 82 55 1007 979 817 708 157 135 99 162 113 3708 109
is_linear=0
shrinkage=0.05


Tree=38
num_leaves=20
num_cat=0
split_feature=7 4 1 1 1 3 4 7 2 0 4 7 3 4 1 4 0 0 3
split_gain=2.86073 4.13014 6.02117 8.08631 8.82944 6.06591 5.53031 5.32913 4.51161 5.62778 7.91184 4.43559 4.25361 4.00689 6.07009 3.65764 3.65679 3.63278 4.594
threshold=0.004236032983357286 5.924998692103796 1084.7609081410919 1113.6088877614163 1172.1328945159523 58.742359102115337 9.0285731724330365 0.015410324279119815 0.047126913597303748 1661.9681461946977 10.789271763392859 0.016329874567934669 57.774302283957525 9.8214242117745556 1138.9155660955018 17.628553118024559 1045.2320169252012 1004.8138922207056 41.825574939637463
decision_type=2 2 2 2 2 2 2 2 2 2 2 2 2 2 2 2 2 2 2
left_child=15 16 -3 -4 13 11 -7 -8 9 10 -9 12 -6 14 -5 17 -2 18 -1
right_child=1 2 3 4 5 6 7 8 -10 -11 -12 -13 -14 -15 -16 -17 -18 -19 -20
leaf_value=0.063325577415507914 -0.057905117384232999 0.025159196184282747 -0.037957412213699783 0.047497379057478813 0.0042412741030889017 -0.035031410154381583 -0.016216520721479215 -0.022487437431186304 -0.036348735256139887 -0.033745303878376598 0.0460052829038817 -0.027645618204197586 0.052850304051469066 0.067205164211463705 -0.013842521651913601 0.027309288798094286 -0.0048833495008981081 0.00072023083278690083 -0.0077048575804690884
leaf_weight=5.2043823897838575 6.6005326956510526 17.817498385906219 17.257165178656578 7.8916696980595651 89.516610562801361 23.431650072336197 62.790614537894726 5.7398958504200079 4.619803011417388 4.4804816246032706 15.883826792240141 10.451901540160177 4.7387742549180976 5.0434844940900794 8.2490191683173162 13.590688124299048 6.4096933305263519 709.17755381762981 4.0461054742336273
leaf_count=25 37 85 93 38 439 125 329 32 25 25 71 49 23 22 40 56 35 3493 21
internal_value=-5.44877e-05 -0.00424875 -0.00295975 -0.00488601 -0.0025358 -0.00548326 -0.0133099 -0.00786722 0.00919623 0.0172566 0.0278243 0.00325823 0.00668514 0.0283039 0.0161484 0.00161242 -0.0317831 0.0011263 0.0322573
internal_weight=1022.94 290.923 277.912 260.095 242.838 221.654 116.946 93.5146 30.724 26.1042 21.6237 104.707 94.2554 21.1842 16.1407 732.019 13.0102 718.428 9.25049
internal_count=5063 1468 1396 1311 1218 1118 607 482 153 128 103 511 462 100 78 3595 72 3539 46
is_linear=0
shrinkage=0.05


Tree=39
num_leaves=20
num_cat=0
split_feature=3 3 3 4 4 4 6 2 2 2 0 4 0 0 2 1 1 0 1
split_gain=2.83561 2.85718 5.05925 6.61203 5.09562 5.21182 5.24032 3.83309 5.26488 8.31528 6.01297 5.71911 7.13232 12.9285 11.2284 8.99742 5.86726 12.0072 11.1822
threshold=91.153355049349258 9.0932015429895916 18.483410678667564 7.6642717633928585 12.271436418805806 9.0750034877232171 -0.004695146148619155 -0.033994761436463357 -0.0081533362616799943 0.00098473876501147212 1769.0290423984632 9.3857334681919671 1479.6376394693129 1453.3791937607891 0.01499284570266125 1500.2046557024166 1357.6509187933598 1412.8746913979624 1212.2904405877773
decision_type=2 2 2 2 2 2 2 2 2 2 2 2 2 2 2 2 2 2 2
left_child=1 -1 3 -3 5 -5 -7 -4 -9 -10 11 12 13 16 15 -14 18 -18 -11
right_child=-2 2 7 4 -6 6 -8 8 9 10 -12 -13 14 -15 -16 -17 17 -19 -20
leaf_value=-0.031669642832720321 -0.038509317087826005 0.072049296231102941 0.018501451565940293 0.028752789162452282 0.043664509153016548 0.018653975202494729 -0.046112022099016041 -0.0073251759408580214 0.010335100524507118 -0.0018365046367457213 -0.048510232567984708 0.0034661626233865464 0.09033899020331515 -0.066557654361887306 -0.01917453845639551 0.017156893756090197 0.097364125013550212 -0.008883927548124752 -0.02953969771725767
leaf_weight=7.0166066884994498 4.7713449820876113 5.0393474102020255 26.319157049059868 8.1853110343217903 8.1961163133382779 4.9850997179746637 8.3623268157243693 235.50609737634659 187.57809241116047 113.74216513335705 6.837022364139556 283.89182913303375 5.1910961121320751 10.044752746820448 18.738552987575531 21.99827416241169 3.9152068793773642 8.2885332405567151 53.586706131696701
leaf_count=44 38 21 117 38 34 25 42 1154 912 581 42 1384 24 54 100 112 20 42 279
internal_value=-5.39849e-05 0.000126357 0.000347159 0.0190893 0.010112 -0.00265927 -0.0219227 -0.000320742 -0.000842573 0.00129621 -0.00192573 -0.00131252 -0.00707303 -0.0113559 0.0106053 0.0311291 -0.00826734 0.0252026 -0.0107084
internal_weight=1022.19 1017.42 1010.41 34.7682 29.7289 21.5327 13.3474 975.637 949.318 713.812 526.234 519.397 235.505 189.577 45.9279 27.1894 179.533 12.2037 167.329
internal_count=5063 5025 4981 160 139 105 67 4821 4704 3550 2638 2596 1212 976 236 136 922 62 860
is_linear=0
shrinkage=0.05


Tree=40
num_leaves=20
num_cat=0
split_feature=1 4 3 1 4 3 7 2 2 2 7 7 4 2 2 3 0 3 2
split_gain=2.68811 2.71344 9.96787 13.3235 6.77857 7.14727 6.26486 4.77496 6.82202 8.56964 5.98796 7.2287 4.00623 7.49756 9.39801 7.06727 6.75671 7.34589 7.16195
threshold=1006.7943582245256 6.4178684779575894 34.428879563842507 1198.2814803953104 6.1017913818359384 67.808220132533606 0.0032978508218389773 0.012651361809711402 0.0041174267914594722 -0.0039875455860012851 0.0027367483374873829 -0.0050486858352224986 7.4249834333147335 -0.0098058516665225897 0.00098473876501147212 60.114650430823581 1096.8898733567328 52.487242306018643 0.0097772229897628207
decision_type=2 2 2 2 2 2 2 2 2 2 2 2 2 2 2 2 2 2 2
left_child=-1 2 3 -2 5 7 -6 8 9 -4 11 -11 13 -3 15 -15 -16 18 -18
right_child=1 12 4 -5 6 -7 -8 -9 -10 10 -12 -13 -14 14 16 -17 17 -19 -20
leaf_value=0.037791827887812074 0.055018654879418621 -0.011462380448049841 -0.021957055006009269 -0.040367304662065201 -0.067438007682713894 -0.044584300452233577 -5.2338831134643096e-05 0.050061442213626121 -0.033234220273635116 -0.0007966321301408043 -0.02222047432701018 0.074496258964322604 -0.00053297864671341744 0.031548200121532179 0.046425174804190054 0.10204250550713977 0.055663569285668235 -0.020829070235562894 -0.019808228273052991
leaf_weight=4.670366793870925 12.036773324012758 28.319492474198341 13.523857206106181 5.2610431611537924 10.527229383587835 11.226331263780592 5.1299973130226126 4.2788607627153388 14.717625975608824 5.0518622845411256 4.0916710942983618 8.6394284367561465 824.94730070978403 20.129288420081142 8.1914058625698072 4.3180410116910926 7.9857480823993665 23.119106650352478 5.1839738190174103
leaf_count=20 55 135 72 27 57 63 27 23 79 25 21 41 4076 96 39 20 40 120 27
internal_value=-5.44439e-05 -0.0002283 -0.00829822 0.0260075 -0.0159862 -0.00851172 -0.0453595 -0.000461306 -0.00515837 0.00804035 0.0308532 0.0467144 0.000598514 0.010197 0.0190959 0.0439993 0.00540842 -0.00385021 0.0259557
internal_weight=1021.35 1016.68 94.4847 17.2978 77.1869 61.5296 15.6572 50.3033 46.0244 31.3068 17.783 13.6913 922.194 97.2471 68.9276 24.4473 44.4802 36.2888 13.1697
internal_count=5063 5043 490 82 408 324 84 261 238 159 87 66 4553 477 342 116 226 187 67
is_linear=0
shrinkage=0.05


Tree=41
num_leaves=20
num_cat=0
split_feature=3 2 3 3 3 2 0 4 0 4 0 0 0 2 7 7 7 4 3
split_gain=2.64061 2.78096 7.45356 7.45163 6.24214 5.66253 8.96883 7.75501 5.59936 5.13928 13.5548 12.2893 7.30162 6.10177 11.1154 7.65451 5.67589 4.79813 4.64502
threshold=91.153355049349258 0.031818271925723153 67.107551814455022 66.577244086371635 66.33125563429283 0.037595417477827443 1493.0920331267387 10.585706438337056 1210.2765630977585 6.4803553989955365 1190.8360842283498 1139.5121261248319 1105.3778518225488 0.0067600254307061914 0.006130209522798081 0.0014241152645628754 -0.0063748604368665243 15.080357142857144 58.482373311826883
decision_type=2 2 2 2 2 2 2 2 2 2 2 2 2 2 2 2 2 2 2
left_child=1 2 3 -1 18 7 8 -6 -7 -4 11 12 -11 14 15 -12 -15 -10 -3
right_child=-2 4 9 -5 5 6 -8 -9 17 10 13 -13 -14 16 -16 -17 -18 -19 -20
leaf_value=0.00076502136194399014 -0.037654426664746742 0.0076881399078393186 -0.039162657048811562 0.051568673961049319 0.010181085828553546 0.026112476379486833 0.048262160490511977 0.072982206668693775 -0.039468945472754785 0.025118366560875367 0.0035333414520570248 0.08529501682082051 -0.048114405685545258 0.035169228179016111 -0.047978389566996751 0.091070950112263738 -0.024618163946159732 0.009560641018636051 -0.063497263450368754
leaf_weight=805.63361374288797 4.6482980102300635 4.5032249540090543 14.905690729618071 7.2829952687025061 11.325804978609087 8.4617531448602694 9.0983947515487653 8.6854774951934797 13.88415537774563 11.642813026905065 5.4997354894876462 6.4155804365873328 4.8097708672285071 4.1831310689449301 4.9889329224824897 4.5743951201438904 77.793527886271477 7.7894627153873435 4.666211411356926
leaf_count=3962 38 20 83 36 54 38 42 37 70 58 28 28 25 20 26 22 419 35 22
internal_value=-5.47705e-05 0.000117227 -0.000585556 0.00122018 0.00985272 0.0157944 0.0047547 0.0374386 -0.00838096 -0.011474 -0.00803203 0.0265979 0.0037094 -0.0161929 0.0130562 0.0432818 -0.0215673 -0.0218478 -0.0285372
internal_weight=1020.79 1016.14 947.73 812.917 68.4145 59.245 39.2338 20.0113 30.1354 134.814 119.908 22.8682 16.4526 97.0397 15.0631 10.0741 81.9767 21.6736 9.16944
internal_count=5063 5025 4707 3998 318 276 185 91 143 709 626 111 83 515 76 50 439 105 42
is_linear=0
shrinkage=0.05


Tree=42
num_leaves=20
num_cat=0
split_feature=3 3 4 4 4 7 2 2 2 0 4 4 3 7 6 1 0 3 4
split_gain=2.59041 4.6131 5.90537 4.59998 4.7044 4.89027 3.49409 4.42232 7.37473 5.52246 5.43293 8.84289 7.82829 7.50291 5.93779 7.18033 6.41016 5.80232 14.5547
threshold=9.0932015429895916 18.483410678667564 7.6642717633928585 12.271436418805806 9.0750034877232171 -0.0074338808177628049 -0.033994761436463357 -0.0081533362616799943 0.00098473876501147212 1769.0290423984632 5.5017896379743307 7.4249834333147335 60.114650430823581 0.013988873592069575 -0.005484445613237853 1099.8530494011545 1051.2615485801937 44.703186023214606 8.0392761230468768
decision_type=2 2 2 2 2 2 2 2 2 2 2 2 2 2 2 2 2 2 2
left_child=-1 2 -2 4 -4 -6 -3 -8 10 -10 -9 12 14 17 -12 16 -16 18 -13
right_child=1 6 3 -5 5 -7 7 8 9 -11 11 13 -14 -15 15 -17 -18 -19 -20
leaf_value=-0.030592871491070407 0.068321794728784677 0.017448501867711071 0.027031747687596943 0.041471897065160468 0.01707973401804358 -0.045311478427328675 -0.0069386411026003438 -0.023746628878000671 -0.0014826281428430216 -0.047405211533980599 -0.021516083344530187 -0.051398040908523103 0.092947113403153078 0.06436036989194055 0.029296815867635963 0.012221500691815287 0.10435781493587425 -0.0066538660739413544 0.022601623937618547
leaf_weight=6.8973817378282538 5.0035687685012809 26.435123160481453 8.265455245971685 8.1956592500209791 5.1378834843635568 8.0796400308608973 234.64969336986542 11.563320219516752 522.22547187656164 6.6297703161835662 5.7874687761068335 7.501904383301734 4.7780564129352561 5.2676603496074668 6.0816846638917941 15.587469950318335 5.3433567583560944 68.493830248713493 58.162064522504807
leaf_count=44 21 117 38 34 26 41 1154 59 2634 42 28 36 22 24 27 76 25 331 284
internal_value=-5.49855e-05 0.000152904 0.0180734 0.00960194 -0.00255631 -0.0210589 -0.00048227 -0.000980134 0.000968735 -0.00205832 0.00945842 0.0116276 0.0331545 0.00582572 0.0244443 0.0342914 0.064402 0.00352738 0.0141474
internal_weight=1020.09 1013.19 34.6822 29.6786 21.483 13.2175 978.507 952.072 717.422 528.855 188.567 177.003 37.578 139.425 32.8 27.0125 11.425 134.158 65.664
internal_count=5063 5019 160 139 105 67 4859 4742 3588 2676 912 853 178 675 156 128 52 651 320
is_linear=0
shrinkage=0.05


Tree=43
num_leaves=20
num_cat=0
split_feature=7 7 7 0 5 5 4 6 3 3 2 4 2 7 4 4 4 7 7
split_gain=2.52713 3.75288 5.00189 4.20176 3.46438 4.44922 3.16639 3.27037 3.10686 9.76909 6.22575 10.1822 7.07612 5.94043 5.29994 5.21343 5.02659 4.60212 4.43715
threshold=0.004236032983357286 0.0055738877438394905 0.0057070591744128327 1592.6561165479231 0.0059978891073683158 0.00028409247327476633 17.628553118024559 -7.4882457227309893e-05 58.289981539983778 63.616692246831455 0.0042790044351437807 11.192866734095984 -0.004191798482572319 0.0013589601580937807 9.0750034877232171 6.5214276994977682 7.7714102608816971 -0.00082201431423373206 -0.0029698029617051254
decision_type=2 2 2 2 2 2 2 2 2 2 2 2 2 2 2 2 2 2 2
left_child=6 3 -3 4 5 -2 8 -8 -1 10 12 -12 -10 15 17 -11 -17 -14 -18
right_child=1 2 -4 -5 -6 -7 7 -9 9 13 11 -13 14 -15 -16 16 18 -19 -20
leaf_value=-0.00097371619055004266 -0.024209093229988876 0.054249564289616893 -0.0022547633642917768 -0.043977323142493696 -0.053910532677120232 0.010056944225833763 0.046303417968642895 -0.0033250704087680744 0.012844782650897796 -0.050309539106759886 -0.0099295296163658519 0.046772513835612546 0.049353636738574611 0.015869874461345034 0.027261363207600517 0.03159977209659328 0.0038365874130388312 0.12129092686459482 -0.019421150703186101
leaf_weight=519.10785580426455 16.422699257731438 3.9839991480112067 231.55049136281013 10.712148517370222 3.894585892558097 22.386529847979546 7.8801533579826355 5.7356559187173826 12.543142810463907 6.6827524900436392 23.899577379226685 11.839606210589407 4.1240200996398917 36.877462767064571 5.9555429220199576 8.6952173858880979 39.055718764662743 4.8237221240997306 43.180431678891182
leaf_count=2550 85 20 1168 59 21 115 32 24 60 38 123 55 20 189 28 43 187 23 223
internal_value=-5.44892e-05 -0.00401263 -0.00129901 -0.0159782 -0.00895465 -0.00444324 0.00151137 0.0253974 0.00105764 0.00639206 0.0226086 0.00885461 0.0405182 -0.00122663 0.0638091 -0.00768549 -0.00455295 0.088135 -0.00837555
internal_weight=1019.35 288.95 235.534 53.416 42.7038 38.8092 730.401 13.6158 716.785 197.677 63.1856 35.7392 27.4464 134.492 14.9033 97.6141 90.9314 8.94774 82.2362
