tree
version=v4
num_class=1
num_tree_per_iteration=1
label_index=0
max_feature_idx=7
objective=binary sigmoid:1
feature_names=EMA_Fast EMA_Slow Trend_Dist RSI ATR Ret_1 Ret_2 Ret_3
feature_infos=[2.0842327321458152:171.11468525559516] [2.5005614173291075:152.00906566422341] [-0.44315673231870062:6.2814995722791576] [0:100] [0:9.5430973058428208] [-0.8368049749287485:5.0000022121982823] [-0.83761905606371134:5.112456768147541] [-0.8382937310559947:5.0750125172162139]
tree_sizes=2219 2250 2252 2249 2271 2273 2266 2270 2259 2240 2274 2261 2252 2236 2279 2237 2264 2236 2275 2255 2251 2253 2258 2233 2249 2257 2263 2239 2259 2268 2260 2256 2259 2235 2226 2263 2265 2237 2253 2247 2256 2256 2259 2264 2239 2235 2250 2255 2253 2254 2249 2255 2248 2258 2229 2260 2253 2248 2256 2244 2239 2270 2270 2245 2251 2236 2256 2246 2250 2258 2260 2233 2255 2259 2254 2254 2249 2284 2248 2243 2249 2236 2249 2251 2242 2242 2247 2250 2258 2234 2242 2257 2245 2260 2241 2256 2273 2254 2250 2257

Tree=0
num_leaves=20
num_cat=0
split_feature=3 3 5 4 0 2 0 4 2 2 6 4 3 1 4 3 1 4 7
split_gain=16.5845 17.7167 15.8838 17.0116 46.6761 20.0272 16.9687 14.951 11.0854 23.1625 10.0835 15.0482 8.6468 12.0005 10.8023 12.2489 8.63627 13.6436 8.60115
threshold=71.136830635393551 93.39404006183274 -0.024157616057205396 0.28315286106392207 15.317072556612127 -0.145881003930451 2.7438891010230804 0.012771437172516499 -0.01420676324699185 -0.06243772962805387 -0.0045701715720243277 1.4689563980054705 33.719009391384965 5.1683948958975456 0.085288093372807947 29.668820812122579 20.492379666194001 0.59327146946412446 0.047800430612204299
decision_type=2 2 2 2 2 2 2 2 2 2 2 2 2 2 2 2 2 2 2
left_child=2 10 -1 6 -5 16 8 -8 9 -4 -2 -12 13 14 -9 -16 -6 -18 -7
right_child=1 -3 3 4 5 18 7 12 -10 -11 11 -13 -14 -15 15 -17 17 -19 -20
leaf_value=-0.50619096148314024 -0.48386621680474295 -0.56429211440492599 -0.50006564600690906 -0.48694029195589117 -0.42763390345810115 -0.52637209334838453 -0.48571400323016795 -0.56904901818090048 -0.44821887709130792 -0.56853949762343214 -0.50214698384028045 -0.53399603739028034 -0.54689056901922661 -0.47893799159009348 -0.4838467160718582 -0.56810938286712775 -0.57192665132932963 -0.48856390832543733 -0.50570534191982863
leaf_weight=161.15674795210361 47.481596276164055 13.098371386528013 48.183294743299484 98.471684888005257 4.6779897809028617 784.49888625741005 12.396672919392584 15.203466787934302 6.3152862042188636 16.606863722205162 163.72964233160019 47.949395254254341 185.4822948127985 11.694974452257155 12.630572408437731 6.5491856932640067 5.6135877370834342 39.061214670538902 53.796882480382919
leaf_count=689 203 56 206 421 20 3354 53 65 27 71 700 205 793 50 54 28 24 167 230
internal_value=-0.518888 -0.507558 -0.520998 -0.522832 -0.5196 -0.523224 -0.532946 -0.539211 -0.511453 -0.517617 -0.50469 -0.509361 -0.542075 -0.52269 -0.537571 -0.512619 -0.492271 -0.499039 -0.525046
internal_weight=1734.6 272.259 1462.34 1301.18 986.12 887.649 315.063 243.957 71.1054 64.7902 259.161 211.679 231.56 46.0782 34.3832 19.1798 49.3528 44.6748 838.296
internal_count=7416 1164 6252 5563 4216 3795 1347 1043 304 277 1108 905 990 197 147 82 211 191 3584
is_linear=0
shrinkage=1


Tree=1
num_leaves=20
num_cat=0
split_feature=3 3 7 0 0 2 0 5 4 5 3 4 0 2 4 3 2 2 7
split_gain=14.9326 16.0819 14.9469 13.316 35.143 18.3983 15.3238 13.0138 12.739 11.9982 11.0383 9.84466 11.8753 13.7844 10.9727 9.70052 11.1067 26.1627 15.5919
threshold=71.136830635393551 93.39404006183274 -0.065673664360151915 6.8806199385440481 15.317072556612127 -0.145881003930451 2.7438891010230804 -0.024706183974343873 0.012771437172516499 -0.010288143166697459 44.240325406391783 1.1502116411861161 15.493225260478072 -0.11120330730047263 1.4434299052954214 24.498758440128416 -0.016167077677630034 -0.06243772962805387 -0.028654215051221007
decision_type=2 2 2 2 2 2 2 2 2 2 2 2 2 2 2 2 2 2 2
left_child=2 -2 11 6 9 -6 15 -8 -9 10 -5 12 13 -1 -13 -4 17 18 -17
right_child=1 -3 3 4 5 -7 7 8 -10 -11 -12 14 -14 -15 -16 16 -18 -19 -20
leaf_value=0.0027657124519875312 0.01343819243503344 -0.04366787318583798 0.071177677484524596 0.033413687164446808 0.024879190258950176 -0.0051483514533918803 0.016539162884092126 0.029492523830436615 -0.023827226873271642 0.036832451891713795 -0.028182509632904848 0.11346385699059283 -0.024563519788306148 0.07294310265707038 0.028427024240599525 -0.057441987845640856 0.059115323787730781 -0.061655916125969948 0.025476148437556762
leaf_weight=19.92590714991093 260.07100436091423 12.942096114158629 5.6229972243309012 13.17319765686989 54.098703965544701 894.28860822319984 25.341717302799225 11.790804564952849 224.35650508105755 78.712064534425735 16.240113526582718 5.1637150347232845 17.116135329008102 10.784543886780737 14.295762687921522 6.5760998129844657 7.8222760111093512 15.004483610391615 41.120382145047188
leaf_count=85 1108 56 24 56 230 3828 108 50 965 334 69 22 73 46 61 28 33 65 175
internal_value=-2.73384e-06 0.0107311 -0.00200794 -0.00311881 -0.000356403 -0.0034355 -0.0117628 -0.017511 -0.021165 0.0266509 -0.000595718 0.021009 0.00880964 0.0274098 0.0509922 0.00797646 0.00293727 -0.00407124 0.0140439
internal_weight=1734.45 273.013 1461.43 1394.15 1056.51 948.387 337.635 261.489 236.147 108.125 29.4133 67.2861 47.8266 30.7105 19.4595 76.1462 70.5232 62.701 47.6965
internal_count=7416 1164 6252 5965 4517 4058 1448 1123 1015 459 125 287 204 131 83 325 301 268 203
is_linear=0
shrinkage=0.05


Tree=2
num_leaves=20
num_cat=0
split_feature=3 3 7 7 4 3 0 4 0 4 1 2 0 1 0 3 6 4 1
split_gain=13.4518 14.6054 13.4296 12.3995 13.9296 15.139 13.1192 11.5373 10.9785 10.1767 11.6732 9.47697 11.4703 9.52989 9.32396 12.3729 8.93872 13.4987 8.90315
threshold=71.136830635393551 93.39404006183274 -0.065673664360151915 0.047800430612204299 0.12188276737053468 40.27190971851622 16.36850446933245 0.012771437172516499 5.7281849111809464 0.44701874458860175 15.211795639152461 0.06951884757555972 83.756965828384509 28.378518169796969 6.2815149470475289 26.448654673979799 -0.0045701715720243277 1.4689563980054705 17.324333702691273
decision_type=2 2 2 2 2 2 2 2 2 2 2 2 2 2 2 2 2 2 2
left_child=2 16 -1 4 7 6 9 -4 -9 10 14 -8 13 18 15 -6 -2 -18 -13
right_child=1 -3 3 -5 5 -7 11 8 -10 -11 -12 12 -14 -15 -16 -17 17 -19 -20
leaf_value=0.019851077964747738 0.032204178801353629 -0.042017423465317498 0.036080236098425797 0.013545882791982331 0.071142657343928439 -0.0061181001410475387 0.0062528073384721817 -0.015593565156006432 -0.065702159537381274 0.044382711556196518 -0.032622948245500279 -0.051785147699417056 0.047563031395083714 -0.045994263757492639 0.077093870021548661 -0.0071282903018831702 0.015113848924956036 -0.015030514981457825 0.012455553177021263
leaf_weight=67.606953173875809 48.042631104588509 12.782058238983153 10.200298473238943 105.09223285317421 6.5909384787082699 719.52337275445461 207.60027949512005 196.18387250602245 11.57599802315235 35.136341229081154 12.483707740902899 7.2310157567262676 6.2984470278024665 25.422119483351707 6.6279095709323874 21.582471087574959 164.95319753885269 47.929053753614426 21.223154798150063
leaf_count=287 203 56 43 448 28 3082 888 845 50 149 53 31 27 109 28 93 700 205 91
internal_value=-5.16327e-06 0.010167 -0.00191165 -0.00296804 -0.0043158 -0.00196839 0.00655771 -0.0158366 -0.0183855 0.0240012 0.00885622 0.00118858 -0.0162828 -0.0237467 0.0237354 0.0111826 0.0127234 0.00832704 -0.00386984
internal_weight=1734.09 273.707 1460.38 1392.77 1287.68 1069.72 350.196 217.96 207.76 82.4214 47.285 267.775 60.1747 53.8763 34.8013 28.1734 260.925 212.882 28.4542
internal_count=7416 1164 6252 5965 5517 4579 1497 938 895 351 202 1146 258 231 149 121 1108 905 122
is_linear=0
shrinkage=0.05


Tree=3
num_leaves=20
num_cat=0
split_feature=6 3 3 4 2 2 1 0 0 4 7 0 2 3 0 4 3 5 2
split_gain=12.657 12.9901 13.1627 11.9853 14.0705 13.2999 11.0692 10.8374 14.9713 9.9113 10.4124 9.1956 8.8963 9.63335 10.408 8.76008 8.70949 8.67287 8.53209
threshold=-0.073202566814627543 71.136830635393551 93.39404006183274 0.086853042678290707 -0.13392359063436307 0.10174097523132637 5.687762195050472 4.6600935865414845 14.034877659762332 0.012771437172516499 0.045668987779443178 2.6252375674321256 -0.012419057836278039 71.489665471010667 142.56014417596523 1.3418851545766461 35.20100024817166 -0.019738039355856937 -0.041509351233778892
decision_type=2 2 2 2 2 2 2 2 2 2 2 2 2 2 2 2 2 2 2
left_child=-1 3 12 5 7 6 9 11 -9 -2 -11 16 15 -14 17 -3 -5 -15 -8
right_child=1 2 -4 4 -6 -7 18 8 -10 10 -12 -13 13 14 -16 -17 -18 -19 -20
leaf_value=0.033698343064198326 0.037095868741523201 -0.0007650315326396932 -0.040443954987123061 0.069293214628748573 -0.0028431405489798014 -0.068666607893162243 0.0025116228402907639 0.069037273519759634 0.014853674805920864 -0.015134554246091914 0.047677212857941784 -0.019984527202572322 0.08317445188658304 -0.033178845398557803 -0.030693115333465956 -0.07043619773848675 -0.00095256859578294294 0.019038339647885618 -0.077707017445616922
leaf_weight=27.412748992443085 11.701565623283384 35.99534684419632 12.619561195373533 6.6322460770607021 1124.1052963882685 11.015942066907881 4.8859025090932837 14.938227176666258 86.976456880569458 106.33395424485207 7.0343942046165457 35.383002281188965 5.1851373314857474 8.2911552488803846 12.176262974739073 5.158263534307479 13.184530317783354 194.39271649718285 10.307648062705992
leaf_count=116 49 152 56 28 4818 48 21 63 368 460 30 152 22 35 52 22 56 823 45
internal_value=-6.91342e-06 -0.000548403 0.00943003 -0.00245575 -0.000884218 -0.0157655 -0.0116107 0.0131313 0.0227957 -0.0067151 -0.0112371 -0.00471201 0.0118396 0.0158302 0.014205 -0.00949773 0.0225572 0.0169023 -0.0519105
internal_weight=1733.73 1706.32 273.818 1432.5 1281.22 151.279 140.263 157.114 101.915 125.07 113.368 55.1998 261.199 220.045 214.86 41.1536 19.8168 202.684 15.1936
internal_count=7416 7300 1162 6138 5485 653 605 667 431 539 490 236 1106 932 910 174 84 858 66
is_linear=0
shrinkage=0.05


Tree=4
num_leaves=20
num_cat=0
split_feature=6 0 0 4 2 2 3 6 4 2 0 2 2 7 3 3 2 2 3
split_gain=11.3352 11.9349 36.9956 12.3758 13.9815 11.9587 12.5633 14.514 11.2701 10.9456 10.6749 11.8106 14.421 11.1887 13.0988 12.5697 10.541 14.2712 10.3659
threshold=-0.073202566814627543 6.8806199385440481 15.317072556612127 0.45295956863469761 -0.15405225028715083 -0.0087014173605754822 71.136830635393551 -0.00072961037803398454 0.58237025808505971 -0.086908989725996769 2.7438891010230804 -0.01420676324699185 -0.06243772962805387 -0.038030729510830079 79.184773036663529 93.39404006183274 0.052408875624258049 0.16245089583342862 82.519798960399768
decision_type=2 2 2 2 2 2 2 2 2 2 2 2 2 2 2 2 2 2 2
left_child=-1 10 -3 9 -5 8 -7 -8 -6 -4 11 12 -2 16 -15 -16 -12 -18 -9
right_child=1 2 3 4 5 6 7 18 -10 -11 13 -13 -14 14 15 -17 17 -19 -20
leaf_value=0.031766292402926555 0.010693765903504765 0.025848510641540624 0.022800736682751593 0.0264790234472492 0.010859130269503074 -0.0010090141923798756 0.043883737947131324 0.016990610699526055 -0.013875069449474789 -0.032800616099614037 -0.0020249375930387991 0.048218838224071178 -0.03935332470562871 -0.019843872239005782 0.034546625581341896 -0.035728935507937098 0.1143676359455838 -0.0061312513179877055 -0.014713033470706991
leaf_weight=27.620445922017097 63.391059473156929 142.85475650429726 10.738569855690001 48.000531688332558 56.322144448757172 575.3717407733202 34.079691991209984 80.691890582442284 252.62889161705971 50.366333693265915 33.406503468751907 14.544271260499952 18.622356846928596 245.70234443247318 22.340159773826603 8.8969540596008283 5.146468982100485 4.7022335976362228 37.888796284794807
leaf_count=116 269 601 46 202 241 2470 143 342 1082 216 143 61 82 1065 94 40 22 20 161
internal_value=-8.44753e-06 -0.000522978 0.00185523 -0.00113542 9.76095e-05 -0.00112355 0.00237425 0.0151257 -0.009366 -0.0230292 -0.00787837 0.00669388 -0.000670165 -0.0122728 -0.0159666 0.0145307 0.011377 0.0568358 0.00686069
internal_weight=1733.32 1705.7 1288.94 1146.09 1084.98 1036.98 728.032 152.66 308.951 61.1049 416.752 96.5577 82.0134 320.195 276.939 31.2371 43.2552 9.8487 118.581
internal_count=7416 7300 5504 4903 4641 4439 3116 646 1323 262 1796 412 351 1384 1199 134 185 42 503
is_linear=0
shrinkage=0.05


Tree=5
num_leaves=20
num_cat=0
split_feature=2 3 5 5 4 4 2 1 4 7 3 4 3 1 0 1 6 4 2
split_gain=10.8159 11.9797 11.6545 14.5258 10.0199 13.1662 12.4882 10.8705 14.5566 17.6245 13.0442 13.3318 10.5269 12.6346 9.39163 9.14092 8.84818 9.87081 8.35133
threshold=0.68940269567659551 71.136830635393551 -0.024157616057205396 0.0068726510135715966 0.086853042678290707 0.012771437172516499 -0.05748829699455784 55.067908181130164 1.3929364264267907 0.011012528269921941 22.197100049026258 2.4210151403673112 49.373062281562589 47.605843287963417 55.223183176493876 136.88440033530208 -0.0045701715720243277 1.4689563980054705 -0.090699862378515114
decision_type=2 2 2 2 2 2 2 2 2 2 2 2 2 2 2 2 2 2 2
left_child=1 2 -1 4 5 -4 -7 8 12 -10 -9 -12 14 -14 -6 -13 -3 18 -18
right_child=-2 16 3 -5 7 6 -8 10 9 -11 11 15 13 -15 -16 -17 17 -19 -20
leaf_value=0.011079537879725321 -0.063559740938814849 0.029304529066123283 0.033953350443223097 0.0043765189405213243 0.0047862197583385946 -0.010870355085249389 -0.047000133942955984 0.049517099764252157 0.058845195416591993 -0.029130874261677521 -0.024771515682783664 0.020515938847541344 -0.012527998133690973 0.066825700632016094 -0.067214406330143264 -0.018270471668683598 -0.025216599842251219 -0.014860956073564538 0.014379118710701131
leaf_weight=162.11153873801231 6.669633984565734 48.284997373819351 9.8230550587177259 429.29346370697021 273.70789520442486 54.271488264203072 42.762407317757607 7.7219313234090796 20.150911018252376 7.9343820065259925 148.12408924102783 33.54713474214077 229.06736989319324 5.1284152269363394 4.6052688956260672 27.760811254382133 14.518254578113554 46.26103863120079 160.9161971360445
leaf_count=688 29 201 41 1839 1172 236 190 33 86 34 637 144 986 22 20 119 62 198 679
internal_value=-1.02662e-05 0.000235304 -0.00155843 -0.00314183 -0.00687483 -0.0212084 -0.0267926 -0.00485353 -0.00105793 0.0339911 -0.0143025 -0.0166556 -0.0029786 -0.0107903 0.00359482 0.00295309 0.00990893 0.00568459 0.0111023
internal_weight=1732.66 1725.99 1456.01 1293.9 864.605 106.857 97.0339 757.748 540.594 28.0853 217.154 209.432 512.509 234.196 278.313 61.3079 269.98 221.695 175.434
internal_count=7416 7387 6247 5559 3720 467 426 3253 2320 120 933 900 2200 1008 1192 263 1140 939 741
is_linear=0
shrinkage=0.05


Tree=6
num_leaves=20
num_cat=0
split_feature=2 2 5 4 0 2 0 2 2 3 3 7 2 3 1 1 2 0 1
split_gain=9.95096 11.2287 10.8652 11.1214 22.3768 15.0893 11.389 11.1073 13.066 9.74255 13.3834 9.51853 10.5955 9.49624 9.37867 11.5662 9.26669 12.8525 11.3893
threshold=0.68940269567659551 0.22637947162367431 -0.039291236532353217 0.45295956863469761 16.208468983065995 -0.15405225028715083 2.7438891010230804 -0.01420676324699185 -0.06243772962805387 40.27190971851622 72.065761357601261 -0.037307097572467744 0.026600873529703695 67.002871771540782 2.6460256905273103 2.982313492977775 -0.0087014173605754822 67.543673591138173 36.132323499655676
decision_type=2 2 2 2 2 2 2 2 2 2 2 2 2 2 2 2 2 2 2
left_child=1 2 -1 6 9 -6 7 8 13 -5 -11 12 -8 14 -4 -16 -7 18 -18
right_child=-2 -3 3 4 5 16 11 -9 -10 10 -12 -13 -14 -15 15 -17 17 -19 -20
leaf_value=0.019641265767269933 -0.061533831445207236 0.011013755666995192 0.067960527772982657 0.04513576894306387 0.026227905051087453 -0.010646043489753794 -0.0024996104563359562 0.0481282202998373 -0.037277429535202598 -0.00021522327263463872 0.049444724959597765 -0.015184116853426015 0.062418799310058941 -0.027105742125649715 -0.025103051467627181 0.031053685349952287 8.5693186691676842e-05 -0.011138338142377684 0.019042103488002074
leaf_weight=59.583571180701256 6.5478626787662497 211.48111012578011 8.7310638129711133 33.075231894850731 45.740960031747818 282.21608543395996 29.140171870589256 13.982133373618124 18.294523179531097 53.660742789506912 18.158337280154228 331.8463576734066 8.0137860327959043 12.98680806159973 14.372080966830252 25.327803641557693 281.5288250297308 167.17532631754875 110.27252124249935
leaf_count=251 29 899 37 138 191 1213 125 58 82 227 76 1439 34 55 61 107 1204 718 472
internal_value=-1.18531e-05 0.000221596 -0.00128579 -0.00214305 0.000843147 -0.00173959 -0.00854423 0.00702338 -0.000186717 0.0226815 0.0123405 -0.0124971 0.0115027 0.0108615 0.0210425 0.0107239 -0.00326036 0.000468518 0.00542098
internal_weight=1732.14 1725.59 1514.11 1454.52 991.828 886.934 462.695 93.6944 79.7123 104.894 71.8191 369 37.154 61.4178 48.4309 39.6999 841.193 558.977 391.801
internal_count=7416 7387 6488 6237 4239 3798 1998 400 342 441 303 1598 159 260 205 168 3607 2394 1676
is_linear=0
shrinkage=0.05


Tree=7
num_leaves=20
num_cat=0
split_feature=6 0 0 4 2 2 2 3 6 3 4 6 0 2 2 3 7 3 3
split_gain=9.36396 9.78375 31.6794 10.5677 10.8335 9.95896 9.55029 10.3585 12.1254 10.336 9.76816 9.38675 8.99412 9.27812 11.672 9.59621 8.94797 11.2699 10.7452
threshold=-0.073202566814627543 6.8806199385440481 15.317072556612127 0.45295956863469761 -0.15405225028715083 -0.086908989725996769 -0.0087014173605754822 71.136830635393551 -0.0076530851753134335 82.519798960399768 0.58237025808505971 -0.0187845325005177 2.7438891010230804 -0.01420676324699185 -0.06243772962805387 74.805109164414858 -0.038030729510830079 79.184773036663529 93.39404006183274
decision_type=2 2 2 2 2 2 2 2 2 2 2 2 2 2 2 2 2 2 2
left_child=-1 12 -3 5 -5 -4 10 -8 11 -10 -6 -9 13 14 15 -2 -14 -18 -19
right_child=1 2 3 4 6 -7 7 8 9 -11 -12 -13 16 -15 -16 -17 17 18 -20
leaf_value=0.028710016371214744 0.015147582397789038 0.023772987910235441 0.022139039658430025 0.023089738017382035 0.010337678024413918 -0.030891097215874803 -0.0010243597842319978 0.01038343601544689 0.016763445001736273 -0.014134229746882002 -0.01268262548251009 0.074823361039290548 0.0098332317007382656 0.042609575943258787 -0.035867723679999013 -0.059088077125269069 -0.018206420171301224 0.031896730811092948 -0.033483659234080802
leaf_weight=27.917388468980789 58.957199320197105 143.93718385696411 10.770696371793745 48.608226001262665 56.450373440980911 49.734150588512421 575.32862056791782 9.9363482445478457 92.16141052544117 38.321931466460228 250.8903564363718 13.104253917932509 43.522996336221695 14.811095684766768 18.068704932928085 4.7003181725740424 242.99335300922394 22.558946847915653 8.7110316604375821
leaf_count=116 249 601 46 202 241 216 2470 41 388 163 1082 54 185 61 82 20 1065 94 40
internal_value=-1.31794e-05 -0.000483884 0.00166417 -0.00111437 1.99065e-05 -0.021451 -0.00106231 0.00205477 0.0135938 0.00768904 -0.0084544 0.0470334 -0.00716795 0.00619799 -0.000400814 0.0096662 -0.0112283 -0.0145705 0.0136834
internal_weight=1731.48 1703.57 1289.24 1145.31 1084.8 60.5048 1036.19 728.853 153.524 130.483 307.341 23.0406 414.324 96.5373 81.7262 63.6575 317.786 274.263 31.27
internal_count=7416 7300 5504 4903 4641 262 4439 3116 646 551 1323 95 1796 412 351 269 1384 1199 134
is_linear=0
shrinkage=0.05


Tree=8
num_leaves=20
num_cat=0
split_feature=2 2 5 4 0 2 1 2 1 1 1 3 4 3 0 3 3 2 1
split_gain=9.19957 9.46467 9.23916 10.5403 21.1757 11.2278 10.6082 9.37195 12.5931 11.5288 12.9147 11.1792 9.18207 12.6901 11.7048 18.7561 8.97114 8.84277 8.80735
threshold=0.68940269567659551 0.22637947162367431 -0.024157616057205396 0.45295956863469761 16.208468983065995 -0.15405225028715083 2.6040940211809942 -0.0087014173605754822 62.73309582707828 76.381992342885212 127.71208951543919 79.184773036663529 0.57074019514816332 33.719009391384965 24.995451325015285 21.372236027626304 38.102588127522559 -0.045716038886546621 24.155016845334945
decision_type=2 2 2 2 2 2 2 2 2 2 2 2 2 2 2 2 2 2 2
left_child=1 2 -1 6 16 -6 -4 12 -9 -10 -11 -12 13 -7 -14 -16 17 -5 -15
right_child=-2 -3 3 4 5 7 -8 8 9 10 11 -13 14 18 15 -17 -18 -19 -20
leaf_value=0.010518707109237541 -0.059768585737014407 0.010094976637244554 0.019676070732372316 0.033175262009009325 0.023443874754750436 -0.034547760646235597 -0.011025192888248894 0.0057021186421317809 -0.020687459206891336 0.075835258852549506 0.0066538723313348969 -0.069729683213889157 -0.03644281465517675 0.013449786159749774 0.077523893917819275 -0.012064167136842482 0.013485661747007723 0.10568388977726098 0.079407553485940516
leaf_weight=151.82050833106041 6.4173581302165976 212.26027950644493 30.233787938952446 20.614605441689495 41.107895493507385 11.011374667286871 405.6209534406662 361.6200065612793 107.20463885366917 6.087062954902648 47.197280630469322 5.3312492668628684 49.765906885266304 21.984280914068226 6.0570070296525946 164.79333630204201 69.481589555740356 5.282282516360282 6.5748535543680182
leaf_count=641 29 899 130 85 170 47 1765 1545 462 26 203 23 215 94 26 715 291 22 28
internal_value=-1.43237e-05 0.000208097 -0.00118005 -0.00248605 0.000536968 -0.00203073 -0.00889555 -0.0033603 0.000470425 -0.0109388 0.00689087 -0.00109848 -0.0111258 0.0110526 -0.0151038 -0.00888808 0.0228474 0.0479651 0.0286345
internal_weight=1730.47 1724.05 1511.79 1359.97 924.113 828.735 435.855 787.627 527.44 165.82 58.6156 52.5285 260.187 39.5705 220.616 170.85 95.3785 25.8969 28.5591
internal_count=7416 7387 6488 5847 3952 3554 1895 3384 2259 714 252 226 1125 169 956 741 398 107 122
is_linear=0
shrinkage=0.05


Tree=9
num_leaves=20
num_cat=0
split_feature=2 3 4 0 1 4 0 0 0 4 2 3 5 7 1 1 4 4 4
split_gain=8.48248 9.00771 10.1465 21.8164 16.5085 13.117 11.8027 13.4 10.0256 10.0123 11.7605 11.3102 9.49785 9.49568 8.39299 14.8438 14.2052 8.5124 8.19207
threshold=0.68940269567659551 71.136830635393551 2.7402810307764534 68.054985846195891 140.086876735239 1.632411957157875 70.39710606878613 82.40819589168045 131.18340451805247 0.086853042678290707 0.10174097523132637 50.25096784731091 0.014216043319563722 0.047800430612204299 71.211131338017154 64.389363084900836 1.9474280855121984 2.0934678341490573 0.012771437172516499
decision_type=2 2 2 2 2 2 2 2 2 2 2 2 2 2 2 2 2 2 2
left_child=1 2 3 9 8 6 -5 12 -4 10 18 14 -8 -13 15 16 -11 -18 -1
right_child=-2 -3 4 5 -6 -7 7 -9 -10 11 -12 13 -14 -15 -16 -17 17 -19 -20
leaf_value=0.026824523081559744 -0.057987133592850328 0.0085625426639456825 0.057073158659480497 -0.046011555462278891 -0.012927130922133488 -0.034731074521351372 0.015195491887448884 -0.05322014993752347 0.013555054640136658 0.0051586753928604904 -0.063728783658417776 -0.0069945549791037677 0.093465356536347799 0.015759419299779472 0.069821437421607443 -0.038437594321559493 0.098824929141987289 0.026969740367460478 -0.01274019816162968
leaf_weight=14.584466263651846 6.2871089279651633 271.1003702133894 23.118776574730873 11.017654478549955 32.505193963646889 78.803419917821884 23.527005419135097 6.1785047054290763 30.955060049891472 570.55060769617558 10.410478860139845 423.8849078565836 4.6404090970754615 51.412518531084061 5.0673747956752768 18.878668770194054 5.8602783679962185 13.893067896366118 127.11033989489079
leaf_count=61 29 1140 98 48 140 341 102 27 132 2436 48 1826 20 219 22 82 25 59 561
internal_value=-1.55395e-05 0.000195934 -0.00136575 -0.00241795 0.015233 -0.022401 -0.000981811 0.0134631 0.0321608 -0.000419611 -0.0124364 0.00125798 0.02809 -0.00453328 0.00573916 0.00520611 0.00660189 0.0482872 -0.00866785
internal_weight=1729.79 1723.5 1452.4 1365.82 86.579 124.167 45.3636 34.3459 54.0738 1241.65 152.105 1089.55 28.1674 475.297 614.25 609.183 590.304 19.7533 141.695
internal_count=7416 7387 6247 5877 370 538 197 149 230 5339 670 4669 122 2045 2624 2602 2520 84 622
is_linear=0
shrinkage=0.05


Tree=10
num_leaves=20
num_cat=0
split_feature=6 0 0 4 2 1 5 2 2 3 6 4 4 0 7 3 3 2 2
split_gain=8.00898 7.81784 27.2849 9.0915 9.06903 8.78983 8.74636 8.31471 7.94151 8.72628 10.817 8.63166 7.90482 7.85587 7.86743 9.85935 9.37561 8.57803 12.0161
threshold=-0.073202566814627543 6.8806199385440481 15.317072556612127 0.45295956863469761 -0.086908989725996769 21.799035868794927 0.058333485531240743 -0.15405225028715083 -0.0087014173605754822 71.136830635393551 -0.00072961037803398454 1.4689563980054705 0.58237025808505971 2.7438891010230804 -0.038030729510830079 79.184773036663529 93.39404006183274 0.052408875624258049 0.16245089583342862
decision_type=2 2 2 2 2 2 2 2 2 2 2 2 2 2 2 2 2 2 2
left_child=-1 13 6 4 -4 -6 -3 -5 12 -10 -11 -12 -9 -2 17 -16 -17 -15 -19
right_child=1 2 3 7 5 -7 -8 8 9 10 11 -13 -14 14 15 16 -18 18 -20
leaf_value=0.026452501710439492 0.0060377738841543909 0.01934959158456306 0.0213904231174257 0.020027254443925519 -0.037347839903148876 0.025690819989739128 0.08089400978029497 0.0090479319966446058 -0.0010262495592155512 0.036888222544156149 0.015124210385954219 -0.013037358399223245 -0.011627011725646279 -0.0027193961296218278 -0.016860637013151686 0.02977521300103482 -0.031666473469632125 0.10130071719855382 -0.0080363993047793039
leaf_weight=28.113161101937294 96.445437118411064 138.79513882100582 10.806208446621893 49.09536075592041 42.788707077503204 6.3504628092050543 6.0233704894781104 56.760632559657097 575.1367000490427 34.82280920445919 77.323087245225906 41.983065247535706 249.24293647706509 33.491533502936363 240.65736551582813 22.721349850296978 8.5434892624616605 5.3427855521440488 4.7441552877426147
leaf_count=116 412 576 46 202 188 28 25 241 2470 143 323 180 1082 143 1065 94 40 22 20
internal_value=-1.69119e-05 -0.000454364 0.00146176 -0.00112599 -0.0200811 -0.0292011 0.0219094 -7.81276e-05 -0.00103158 0.00180513 0.0123705 0.00521434 -0.00779201 -0.00645061 -0.0102682 -0.013429 0.0129855 0.00945479 0.0498766
internal_weight=1729.19 1701.07 1289.13 1144.31 59.9454 49.1392 144.819 1084.36 1035.27 729.266 154.129 119.306 306.004 411.946 315.501 271.922 31.2648 43.5785 10.0869
internal_count=7416 7300 5504 4903 262 216 601 4641 4439 3116 646 503 1323 1796 1384 1199 134 185 42
is_linear=0
shrinkage=0.05


Tree=11
num_leaves=20
num_cat=0
split_feature=2 2 5 2 3 4 1 2 4 1 1 3 2 7 3 0 2 2 4
split_gain=7.86848 7.70542 8.08302 7.74874 9.38964 7.33199 15.9099 18.2791 13.4773 15.4176 11.2201 10.8267 10.5058 9.43173 8.72168 8.30473 8.45471 11.1363 8.23406
threshold=0.68940269567659551 0.22637947162367431 -0.039291236532353217 -0.048743753265504709 25.539624551979355 0.45295956863469761 16.407713122782159 -0.11593179750402539 0.932159527948204 15.729091993223323 16.55781667047631 37.237269967139675 -0.15405225028715083 0.010222349304225721 72.341851170043086 2.7438891010230804 -0.01420676324699185 -0.06243772962805387 0.079176831618999979
decision_type=2 2 2 2 2 2 2 2 2 2 2 2 2 2 2 2 2 2 2
left_child=1 2 3 4 -1 15 7 -7 9 11 -8 -9 -12 -11 -13 16 17 -4 -18
right_child=-2 -3 5 -5 -6 6 10 8 -10 13 12 14 -14 -15 -16 -17 18 -19 -20
leaf_value=0.043523096596503275 -0.05646248461335851 0.0090854200855519304 0.0099449517875154388 0.040325701343709781 -0.012188112020715755 0.084707713273429061 -0.058087176908432396 0.050470376287369778 -0.054867072091142083 0.067112654541986103 0.018985321362789728 -0.020889725313328809 -0.0025603405710905337 0.019027761655068347 0.043713381645277313 -0.010474451817415001 0.014066974257870041 -0.03486278712787657 0.094024972925814215
leaf_weight=10.435381874442099 6.1522228866815558 213.04313419759274 61.619222685694695 22.2304378002882 27.478701144456863 9.5531377345323545 8.7115616053342801 8.4541029483079893 6.9474962949752799 18.049398556351662 60.809868946671486 36.047808274626732 813.08727394044399 23.443845048546791 6.1098574101924887 363.72771522402763 9.3166958987712842 17.893530815839767 4.9202141910791388
leaf_count=43 29 899 260 93 115 39 37 35 29 76 249 152 3499 98 25 1598 38 82 20
internal_value=-1.75703e-05 0.000184106 -0.00107273 0.0168881 0.00314571 -0.0018184 0.000598138 0.0186565 0.0122861 0.0173515 -0.00162395 -0.00117096 -0.00106109 0.0399445 -0.0115269 -0.00705431 0.00621509 -0.000138571 0.0417001
internal_weight=1728.03 1721.88 1508.84 60.1445 37.9141 1448.69 991.214 108.606 99.0525 92.105 882.609 50.6118 873.897 41.4932 42.1577 457.477 93.7497 79.5128 14.2369
internal_count=7416 7387 6488 251 158 6237 4239 454 415 386 3785 212 3748 174 177 1998 400 342 58
is_linear=0
shrinkage=0.05


Tree=12
num_leaves=20
num_cat=0
split_feature=2 2 5 5 0 4 2 4 0 0 4 0 3 3 3 2 6 1 4
split_gain=7.26701 6.94343 7.3966 8.97987 7.12895 12.977 6.12396 13.234 9.45715 6.48856 7.63534 6.62514 8.21343 10.7204 6.25133 14.9825 7.78848 6.2409 6.09864
threshold=0.68940269567659551 0.22637947162367431 -0.024157616057205396 0.0018192361491849998 158.79210510349142 4.1316890051792017 0.10492046517661967 1.0130566818710467 56.850715394362076 33.380371007342212 0.1104871949300977 19.064637815513802 51.314840624677025 63.675723655097549 74.306488228097166 -0.050171050776473096 0.0077905969197995537 44.551489121476934 0.012771437172516499
decision_type=2 2 2 2 2 2 2 2 2 2 2 2 2 2 2 2 2 2 2
left_child=1 2 -1 6 5 -3 14 9 17 10 -8 12 -12 -14 18 -16 -17 -9 -4
right_child=-2 4 3 -5 -6 -7 7 8 -10 -11 11 -13 13 -15 15 16 -18 -19 -20
leaf_value=0.0094257238814723972 -0.054866077877819122 0.0081543895905739176 0.033981904590644901 0.0020972759102257468 -0.035574129211919693 0.077981833984546611 -0.052905361030682566 0.014091837845559039 -0.011175746611757104 -0.079206004942704203 -0.030322726568478932 -0.033274076761461768 0.055258201637668675 -0.014483791331389009 -0.045410164840405172 0.05395187868147875 -0.0026285897724420116 0.076805622675577639 -0.0057885539768654237
leaf_weight=152.31027343869209 6.018097758293151 197.83008140325546 9.8192634582519513 641.5876192599535 8.7534705400466901 6.8852394819259635 17.505995780229568 13.163801848888399 33.974540621042252 5.5692074149847022 14.974675610661505 30.090544581413269 10.205557048320772 11.976432397961615 7.5307267904281607 17.586284756660465 9.297810882329939 5.6781242340803137 526.37985464930534
leaf_count=641 29 833 41 2753 37 29 79 56 147 24 66 129 45 51 33 73 39 24 2287
internal_value=-1.81468e-05 0.000173635 -0.00102137 -0.00219539 0.00861348 0.0105029 -0.00605403 -0.0153011 0.00458045 -0.026927 -0.0234916 -0.0158346 -0.00171157 0.0176033 -0.0037344 0.016923 0.0343836 0.032991 -0.00506025
internal_weight=1727.14 1721.12 1507.65 1355.34 213.469 204.715 713.753 143.139 52.8165 90.3224 84.7532 67.2472 37.1567 22.182 570.614 34.4148 26.8841 18.8419 536.199
internal_count=7416 7387 6488 5847 899 862 3094 621 227 394 370 291 162 96 2473 145 112 80 2328
is_linear=0
shrinkage=0.05


Tree=13
num_leaves=20
num_cat=0
split_feature=2 1 4 0 3 1 0 4 7 4 1 2 0 0 1 3 2 1 0
split_gain=6.716 6.62216 9.97079 15.885 14.6878 13.1397 17.1868 13.935 13.4197 11.9463 15.6824 12.8064 11.3735 13.0606 9.81872 9.39934 10.9301 8.19427 27.3092
threshold=0.68940269567659551 150.53693953395833 2.8194564334313728 68.054985846195891 35.20100024817166 136.88440033530208 155.25787393318839 4.1316890051792017 -0.00038076477754511723 1.632411957157875 76.381992342885212 0.1066950400025375 70.39710606878613 82.40819589168045 138.87524871395451 36.231408707501537 0.12360302315628903 5.8038256027234167 11.76618487016521
decision_type=2 2 2 2 2 2 2 2 2 2 2 2 2 2 2 2 2 2 2
left_child=1 2 3 17 -4 6 7 8 -6 12 15 14 -5 -14 -12 -11 -17 -1 -19
right_child=-2 -3 4 9 5 -7 -8 -9 -10 10 11 -13 13 -15 -16 16 -18 18 -20
leaf_value=-0.0047709367386153216 -0.053349655701712108 -0.049329928520684227 0.067251143791214607 -0.035504929745743825 0.081667608917857307 -0.016910427040068232 -0.019787055953637517 0.11130287692037283 0.0044677890267964104 -0.0041467030964346145 -0.046575153186845332 0.058364943830526199 0.028601353859414192 -0.051058108298649929 0.027326387948146225 -0.069869474324369421 -0.025867910147065895 0.062570401052845559 0.0023399908682965706
leaf_weight=427.71566779911518 5.883150950074195 6.7319433540105811 12.329756855964659 14.18245519697666 8.2703382819890958 30.734196960926056 14.652495086193083 6.4410723447799674 17.627397909760479 15.732748657464979 11.052367985248571 8.2317642718553525 34.098301872611046 6.0599763095378867 7.5750470012426367 28.200504511594772 28.252471759915352 19.172356352210045 1023.6893672943115
leaf_count=1868 29 29 52 62 35 133 62 27 75 69 48 35 146 27 33 124 122 79 4361
internal_value=-1.87298e-05 0.000163606 0.000357995 -0.00054004 0.0165522 0.00850977 0.0251356 0.0454897 0.0291212 -0.0158519 -0.0261876 0.00642906 0.0029867 0.0165806 -0.0165223 -0.0383237 -0.0478484 0.00105703 0.00344729
internal_weight=1726.63 1720.75 1714.02 1623.96 90.0553 77.7255 46.9913 32.3388 25.8977 153.386 99.0449 26.8592 54.3407 40.1583 18.6274 72.1857 56.453 1470.58 1042.86
internal_count=7416 7387 7358 6974 384 332 199 137 110 666 431 116 235 173 81 315 246 6308 4440
is_linear=0
shrinkage=0.05


Tree=14
num_leaves=20
num_cat=0
split_feature=6 2 2 3 7 3 2 3 6 1 0 3 4 0 5 0 2 7 2
split_gain=6.44298 6.15998 6.11637 6.83941 8.98371 9.77308 7.82786 9.53142 7.0312 8.38172 14.4681 10.8785 10.9158 10.3015 14.2618 8.46683 8.07135 7.97528 6.97518
threshold=-0.073202566814627543 -0.11308269405499882 0.68940269567659551 71.136830635393551 0.047800430612204299 34.964280715219132 -0.21056272783158378 45.540687916367489 0.012966513554734884 63.795998755873299 91.480366089508678 54.479034303021287 0.086853042678290707 50.675020296366746 -0.015003915164069513 131.18340451805247 -0.10637608488955459 0.02148624313833836 -0.10637608488955459
decision_type=2 2 2 2 2 2 2 2 2 2 2 2 2 2 2 2 2 2 2
left_child=1 -1 3 4 5 -2 -6 -8 9 11 16 12 -7 -13 -15 -12 -11 -18 -9
right_child=2 -3 -4 -5 6 8 7 18 -10 10 15 13 -14 14 -16 -17 17 -19 -20
leaf_value=0.0025714725219559828 0.0048701959411613857 0.049451039907449285 -0.051903810424731391 0.0070299361898115463 0.073237426890392601 -0.020962010771016948 -0.018434799843148272 -0.035646747559507856 0.0023299397966499501 0.024885659744515943 0.038858822994495695 -0.017500281594509223 0.003695313970621577 0.08642196712121232 -0.0017604961719689559 -0.0090428316477803514 -0.040662560602468784 0.025789500926221377 0.022382810880216791
leaf_weight=15.59795990586281 319.05635458230972 12.723131865262983 5.7481364607810965 271.61216266453266 5.0512247234582892 52.090913414955139 23.42609640955925 5.5933250039815894 237.30348458886147 5.7718347311019889 11.595069766044615 209.10769087076187 324.49222216010094 5.3953646570444098 30.532328993082047 45.128076463937759 71.158776640892029 4.8210144937038413 69.808950632810593
leaf_count=64 1369 52 29 1138 21 235 99 24 1023 25 49 908 1398 23 132 195 315 21 296
internal_value=-1.99622e-05 0.0236319 -0.000414525 -0.000239598 -0.00162976 -0.00274679 0.0125262 0.00942322 -0.00518338 -0.00752907 -0.0186535 -0.00505092 0.000284586 -0.0132508 0.0114821 0.000748992 -0.0321159 -0.0364461 0.0180782
internal_weight=1726.01 28.3211 1697.69 1691.94 1420.33 1316.45 103.88 98.8284 997.397 760.093 138.475 621.619 376.583 245.035 35.9277 56.7231 81.7516 75.9798 75.4023
internal_count=7416 116 7300 7271 6133 5693 440 419 4324 3301 605 2696 1633 1063 155 244 361 336 320
is_linear=0
shrinkage=0.05


Tree=15
num_leaves=20
num_cat=0
split_feature=1 4 6 0 4 1 2 0 0 1 3 2 5 3 1 0 5 4 1
split_gain=6.01649 8.23014 13.3459 13.1526 11.0792 14.0492 11.3231 10.333 11.6611 8.90805 8.4573 10.0228 8.13613 8.12207 12.7963 10.1869 7.7205 7.35743 7.35209
threshold=150.53693953395833 2.8194564334313728 -0.022426978202769673 68.054985846195891 1.632411957157875 76.381992342885212 0.1066950400025375 70.39710606878613 82.40819589168045 138.87524871395451 36.231408707501537 0.12360302315628903 -0.013178420356959151 35.490499260260009 136.88440033530208 155.25787393318839 0.014216043319563722 4.1316890051792017 5.8038256027234167
decision_type=2 2 2 2 2 2 2 2 2 2 2 2 2 2 2 2 2 2 2
left_child=1 3 -3 18 7 10 9 -5 16 -7 -6 -12 -13 -4 15 17 -9 -15 -1
right_child=-2 2 13 4 5 6 -8 8 -10 -11 11 12 -14 14 -16 -17 -18 -19 -20
leaf_value=-0.0047339507442464065 -0.047522559720868954 0.058202197235107257 0.054411791293644644 -0.033554364065822094 -0.003986988822233254 -0.044723000407407829 0.054458298029220968 0.016389507425665275 -0.048507883029080281 0.025726698696921287 -0.067103187646800441 0.029800007743098794 -0.037902004156878048 0.021314295084246773 -0.026096901741327356 -0.019954695342773481 0.077988727619867096 0.083003704297491709 0.003042220664214822
leaf_weight=428.50456959009171 6.6402651518583289 14.794195547699927 7.9048440009355536 13.964860230684279 15.716761842370031 10.888647124171262 8.3440123945474607 28.020929172635078 5.905448466539382 7.6322430670261374 27.307801499962807 5.5300827026367214 22.464577153325081 24.188099756836895 26.888798728585243 12.54535637795925 6.2148833721876136 6.0402943491935721 1045.8205867111683
leaf_count=1877 29 62 33 62 69 48 35 120 27 33 124 24 98 102 117 54 26 26 4450
internal_value=-2.05812e-05 0.000162947 0.0146818 -0.000661609 -0.014666 -0.0247025 0.00609644 0.00349124 0.0163791 -0.0156915 -0.036353 -0.0455513 -0.0245281 0.00638132 0.000931146 0.0179217 0.0275717 0.0336412 0.000782119
internal_weight=1725.32 1718.68 92.3616 1626.32 151.99 97.8841 26.8649 54.1061 40.1413 18.5209 71.0192 55.3025 27.9947 77.5674 69.6625 42.7738 34.2358 30.2284 1474.33
internal_count=7416 7387 394 6993 666 431 116 235 173 81 315 246 122 332 299 182 146 128 6327
is_linear=0
shrinkage=0.05


Tree=16
num_leaves=20
num_cat=0
split_feature=2 3 7 5 3 5 6 3 4 0 7 1 4 4 4 2 2 6 2
split_gain=5.87658 5.74498 7.33095 9.04462 8.71659 7.87924 11.5367 10.6278 7.55648 18.7346 7.39039 8.96585 9.45819 11.2944 11.4337 7.67458 7.3894 7.20435 6.9518
threshold=0.68940269567659551 71.136830635393551 0.047800430612204299 0.051016999371689693 51.314840624677025 0.0068726510135715966 -0.025856787702742464 50.800671900142852 2.7402810307764534 136.78151171168471 0.072343097400192749 30.022784045957604 0.12495576555772303 0.45295956863469761 0.55417476944696964 0.22207179009305092 0.11046131360312127 0.02985100060420998 0.23998043231997515
decision_type=2 2 2 2 2 2 2 2 2 2 2 2 2 2 2 2 2 2 2
left_child=1 2 3 4 5 6 16 17 -6 -10 11 12 -4 -14 -15 -12 -1 18 -7
right_child=-2 -3 10 -5 8 7 -8 -9 9 -11 15 -13 13 14 -16 -17 -18 -19 -20
leaf_value=0.0045702165496197267 -0.050933744381076944 0.0068060494684212547 0.051488894397268871 0.048232484648243271 -0.0091758620235693998 0.013938009002884263 -0.0061032528737477356 0.076205284340218338 0.057908552251035694 -0.020435089619383919 -0.01632010240832521 0.054495792340817667 -0.053962616674716316 0.073172141635394955 -0.0030140273686065982 0.036732291976018801 0.03294979408921838 -0.014906541504730954 -0.037597064452885645
leaf_weight=144.4356140345335 5.6492888182401648 272.46821600198746 11.255293533205984 8.8652539849281293 473.82635855674744 152.06907451152802 461.71712385118008 5.7949428409337989 14.41989040374756 16.208210200071335 32.055658906698227 16.096121177077293 7.877969652414321 6.294792219996455 22.62460432946682 8.6580640375614148 27.267205059528351 30.237387090921402 6.8380810916423789
leaf_count=611 29 1140 48 38 2064 653 2010 25 60 70 136 68 34 26 95 36 115 129 29
internal_value=-2.13947e-05 0.000145922 -0.00110857 -0.00210368 -0.00243849 0.000716951 -0.00198829 0.00950715 -0.00762001 0.0164496 0.0116235 0.0221982 0.0113796 -0.000888749 0.0135692 -0.00503813 0.00907703 0.00746368 0.0117204
internal_weight=1724.66 1719.01 1446.54 1341.68 1332.81 828.359 633.42 194.939 504.454 30.6281 104.863 64.1488 48.0527 36.7974 28.9194 40.7137 171.703 189.145 158.907
internal_count=7416 7387 6247 5804 5766 3572 2736 836 2194 130 443 271 203 155 121 172 726 811 682
is_linear=0
shrinkage=0.05


Tree=17
num_leaves=20
num_cat=0
split_feature=6 3 1 4 1 3 1 2 4 4 4 1 2 1 0 5 2 1 3
split_gain=5.61208 5.88878 5.43663 5.98456 11.0474 10.4689 10.3991 11.2838 10.8514 10.2425 9.25963 14.8826 9.4336 8.98525 14.0772 8.66375 8.73108 8.43861 7.9457
threshold=-0.073202566814627543 50.007853720198717 150.53693953395833 2.8194564334313728 64.389363084900836 35.20100024817166 65.587064892927103 -0.084987562870201441 1.1617628610546185 2.0934678341490573 1.6102302399723054 76.381992342885212 0.1066950400025375 136.88440033530208 158.79210510349142 0.014216043319563722 0.15220828261017874 138.87524871395451 51.495551333581744
decision_type=2 2 2 2 2 2 2 2 2 2 2 2 2 2 2 2 2 2 2
left_child=1 -1 3 4 -2 -5 8 9 -6 -8 15 -12 17 14 -7 16 18 -13 -9
right_child=2 -3 -4 5 6 13 7 10 -10 -11 11 12 -14 -15 -16 -17 -18 -19 -20
leaf_value=0.010437564896129736 0.00045856500335874039 0.066761972420499499 -0.04586148388593167 0.056000123758598287 0.022658026436913094 0.028906577234107556 0.076588602392270985 -0.011854317591716393 -0.058744888784852317 -0.0065083037529835202 -0.038889780532236247 -0.042060965061106827 0.050964124202778453 -0.015637667328420084 -0.053081040265009899 0.060476263182557069 -0.067907785675396515 0.027539562628104416 0.042066436412495176
leaf_weight=22.583407908678058 1438.0737859159708 5.8407774567604056 6.548356130719184 11.884460836648939 5.11090259253979 43.062740340828896 7.1125651001930219 20.517201825976375 20.575724899768829 7.7478195279836655 51.133581012487411 10.485638305544859 8.434612885117529 30.46671824157238 5.9601699113845816 6.2268653661012641 4.578220307826995 7.4485790729522696 10.243141204118727
leaf_count=92 6177 24 29 49 23 181 31 90 92 34 231 47 35 133 26 26 20 32 44
internal_value=-2.17759e-05 0.0220115 -0.000391127 -0.000214843 -0.000926595 0.0122302 -0.0134064 -0.00781721 -0.042548 0.033264 -0.0129444 -0.0231556 0.00735555 0.00568623 0.0189386 0.00609535 -0.00348689 -0.0131539 0.0061012
internal_weight=1724.04 28.4242 1695.61 1689.06 1597.69 91.3741 159.615 133.928 25.6866 14.8604 119.068 77.5024 26.3688 79.4896 49.0229 41.5654 35.3386 17.9342 30.7603
internal_count=7416 116 7300 7271 6882 389 705 590 115 65 525 345 114 340 207 180 154 79 134
is_linear=0
shrinkage=0.05


Tree=18
num_leaves=20
num_cat=0
split_feature=2 4 2 1 2 4 6 6 2 7 3 0 2 3 6 2 6 3 6
split_gain=5.47988 5.18238 10.8687 9.64242 10.7685 7.34507 9.07642 6.36756 7.95704 7.4277 7.16308 9.15064 6.0369 5.73615 8.5993 14.8192 9.12137 8.24532 10.4367
threshold=0.68940269567659551 0.086853042678290707 0.10311236642088521 5.687762195050472 -0.044365962638282651 0.089942930703568055 -0.0089147596804713385 0.0097211917423761802 -0.017660182500070693 0.0054362831015900568 82.519798960399768 2.7685591592606049 -0.04290165899284764 39.211290982722232 0.013543122614070981 0.0036367056597260135 -0.073202566814627543 74.306488228097166 0.0082071201426673363
decision_type=2 2 2 2 2 2 2 2 2 2 2 2 2 2 2 2 2 2 2
left_child=1 2 3 7 -5 6 -3 8 -1 -9 11 -11 -13 -7 16 -16 -15 -18 -19
right_child=-2 5 -4 4 -6 13 -8 9 -10 10 -12 12 -14 14 15 -17 17 18 -20
leaf_value=-0.014824582985067973 -0.049726236509301476 0.094820339294569622 -0.051227797281541823 0.019536316217625305 -0.068572320591798311 0.0058228668033686141 0.0079524709350475044 -0.035279961408789959 0.017651922968562491 0.063883748774338153 -0.027717320675102099 0.034219154019491382 -0.026475066080743889 0.049205538663337718 -0.011013010831234347 0.010890411498990154 -0.0067697630646222674 0.019476780746791638 -0.024315730615367827
leaf_weight=78.807246074080467 5.5275875478982917 4.6056761294603339 13.429000377655028 5.0408242642879513 11.112948238849638 407.57114723324776 8.6631142646074277 6.0681464076042166 24.794408708810806 13.939788445830347 5.56933969259262 9.9229995757341403 6.9779347628355017 7.8814107626676551 106.25304700434208 282.62719687819481 643.4449852257967 63.844839930534363 17.289513722062111
leaf_count=350 29 20 63 22 52 1738 38 27 109 59 24 44 31 32 454 1197 2790 264 73
internal_value=-2.23802e-05 0.000137554 -0.00799957 -0.00442132 -0.0410778 0.00106442 0.0381048 -0.000367781 -0.00705216 0.015935 0.0244705 0.0338948 0.00916017 0.000742958 -0.00110343 0.00490578 -0.00429385 -0.00487577 0.0101447
internal_weight=1723.37 1717.84 175.663 162.234 16.1538 1542.18 13.2688 146.08 103.602 42.4782 36.4101 30.8407 16.9009 1528.91 1121.34 388.88 732.461 724.579 81.1344
internal_count=7416 7387 781 718 74 6606 58 644 459 185 158 134 75 6548 4810 1651 3159 3127 337
is_linear=0
shrinkage=0.05


Tree=19
num_leaves=20
num_cat=0
split_feature=3 3 2 4 0 1 4 1 0 4 4 0 7 7 6 2 1 4 0
split_gain=5.22762 5.8331 6.53299 11.8072 12.1541 11.4253 15.8371 10.3731 8.27358 8.04912 11.4163 9.10973 8.19729 7.73005 6.49443 6.38925 6.19342 8.05958 12.4125
threshold=93.39404006183274 71.136830635393551 -0.19952971694779156 0.14076571152980563 2.6252375674321256 49.92062754723085 1.9474280855121984 2.982313492977775 3.1126880510671415 0.086853042678290707 0.012771437172516499 2.3812016839525163 -0.077741949210296576 -0.077741949210296576 -0.0065763923717042641 -0.22276357793815363 150.53693953395833 2.7402810307764534 68.054985846195891
decision_type=2 2 2 2 2 2 2 2 2 2 2 2 2 2 2 2 2 2 2
left_child=1 2 3 4 7 13 -7 -1 -6 10 -4 -12 -11 -5 -9 -15 17 18 -14
right_child=-2 -3 9 5 8 6 -8 14 -10 12 11 -13 16 15 -16 -17 -18 -19 -20
leaf_value=-0.020362064130178964 -0.033449798401172834 0.007011529110137759 0.02777885335671831 -0.0053179145861591403 -0.05613997912461767 -0.07041270989172925 0.042123813688262429 0.08643835291925818 -0.0045309445692682838 0.027403686294395053 0.029742807408256813 -0.025072017991032432 -0.00039597308232523337 0.074036075340561822 0.02135409692889164 0.022200605820445557 -0.051122980914512166 0.014541955302732064 -0.017494306767880427
leaf_weight=9.1487781107425707 11.617474079132078 265.80034157633781 13.906421840190886 6.0994268059730521 12.364789217710493 5.8734373301267606 6.684039831161499 6.2008981108665511 20.878492712974548 25.228137999773026 8.2593959420919401 92.098873049020767 999.79496228694916 18.103261604905128 10.037010267376896 8.8514288514852542 6.2289391905069342 76.712526232004166 118.75064025819302
leaf_count=39 56 1108 58 25 53 24 27 26 93 104 36 424 4303 75 42 37 28 325 533
internal_value=-2.28367e-05 0.000204125 -0.00104787 0.0110094 -0.00383285 0.0300879 -0.0105123 0.0222179 -0.0237268 -0.00198515 -0.0146777 -0.0205608 -0.000802876 0.0455122 0.0462083 0.0570143 -0.00139514 -0.00113599 -0.00221122
internal_weight=1722.64 1711.02 1445.22 104.242 58.63 45.6116 12.5575 25.3867 33.2433 1340.98 114.265 100.358 1226.72 33.0541 16.2379 26.9547 1201.49 1195.26 1118.55
internal_count=7416 7360 6252 441 253 188 51 107 146 5811 518 460 5293 137 68 112 5189 5161 4836
is_linear=0
shrinkage=0.05


Tree=20
num_leaves=20
num_cat=0
split_feature=2 1 4 6 1 1 4 4 2 1 2 7 5 5 3 1 1 0 0
split_gain=5.01351 4.65902 5.96563 10.9541 10.577 8.57814 9.58691 8.3794 8.40811 13.1018 9.10475 7.92682 10.4144 7.2275 7.5988 6.95474 6.62304 6.14032 21.5681
threshold=0.68940269567659551 150.53693953395833 2.8194564334313728 -0.022426978202769673 64.389363084900836 65.587064892927103 1.1617628610546185 1.6102302399723054 -0.078377016221724632 76.381992342885212 0.1066950400025375 -0.016994366995172591 0.014216043319563722 0.00079703202836456388 71.712502052770716 138.87524871395451 74.836588893659197 6.8806199385440481 15.317072556612127
decision_type=2 2 2 2 2 2 2 2 2 2 2 2 2 2 2 2 2 2 2
left_child=1 2 4 -4 17 6 -6 11 -9 16 15 -7 -13 -5 -15 -11 -10 -1 -19
right_child=-2 -3 3 13 5 7 -8 8 9 10 -12 12 -14 14 -16 -17 -18 18 -20
leaf_value=-0.0041932271823983212 -0.048267730761850071 -0.042615646210585306 0.051724858724285422 -0.014287852059163232 0.021827981247196111 0.066149695576920048 -0.054634840707682875 0.018474592449798842 -0.026144029324442031 -0.041089861664552169 0.047774431015659119 -0.0093422359952837035 0.05985746952031612 0.027551356286944956 -0.022788049547555003 0.022514462930144447 -0.066026429243406501 0.020825895833508981 7.6053478981912386e-05
leaf_weight=418.51260660588741 5.3681971430778495 6.3516444712877265 15.042734473943709 29.581431746482849 5.1333952546119717 5.5247813910245887 20.35144031047821 14.446758225560187 33.254662647843361 10.527931720018392 8.5031803101301175 32.665105611085892 6.52281630039215 36.965889856219292 9.4037625491619092 7.2626305669546118 15.152878269553183 145.59490016102791 895.51770456135273
leaf_count=1841 29 29 62 126 23 24 93 63 152 48 35 143 27 156 40 31 71 599 3824
internal_value=-2.31268e-05 0.00012777 0.00028654 0.0127437 -0.00041361 -0.0126452 -0.039233 -0.00758332 -0.0164428 -0.0231956 0.00521636 0.0100807 0.00217603 0.00502313 0.0173425 -0.0151247 -0.0386283 0.000921698 0.00297783
internal_weight=1721.68 1716.32 1709.96 90.9938 1618.97 159.346 25.4848 133.861 89.148 74.7013 26.2937 44.7127 39.1879 75.9511 46.3697 17.7906 48.4075 1459.63 1041.11
internal_count=7416 7387 7358 384 6974 710 116 594 400 337 114 194 170 322 196 79 223 6264 4423
is_linear=0
shrinkage=0.05


Tree=21
num_leaves=20
num_cat=0
split_feature=3 3 2 4 3 1 4 5 4 4 7 7 7 0 4 2 1 3 6
split_gain=4.67303 5.21558 5.91622 10.3245 11.3549 10.1561 14.3453 7.30909 7.08119 10.3592 8.40052 7.36971 6.84078 6.67809 6.05477 5.64674 5.52633 8.90583 5.39862
threshold=93.39404006183274 71.136830635393551 -0.19952971694779156 0.14076571152980563 50.429085421151861 49.92062754723085 1.9474280855121984 -0.011204312190117525 0.086853042678290707 0.012771437172516499 0.048746014181713877 -0.077741949210296576 -0.077741949210296576 2.3812016839525163 0.089942930703568055 -0.22276357793815363 103.97826615550514 79.184773036663529 -0.054333092576509749
decision_type=2 2 2 2 2 2 2 2 2 2 2 2 2 2 2 2 2 2 2
left_child=1 2 3 4 7 12 -7 18 9 -4 13 -10 -5 -11 -9 -14 -3 -18 -1
right_child=-2 16 8 5 -6 6 -8 14 11 10 -12 -13 15 -15 -16 -17 17 -19 -20
leaf_value=-0.024603325935929239 -0.031923850749061324 0.0083733332989820112 0.02647726124412253 -0.0051845501180814843 0.054788495722749492 -0.067677535316536183 0.039678597517474511 -0.012040346712396429 0.025913908500104194 0.022818953905821174 0.041782892200280336 -0.0013468082492715868 0.069298470476298751 -0.02682320402049751 -0.059543347867145185 0.020722269813217543 0.0086704647832136356 -0.070377908360103811 0.030457780887204119
leaf_weight=6.7185988575220135 11.404151454567907 251.20322434604168 13.969250380992888 6.095682054758071 7.321020007133483 5.8072624057531339 6.7037237882614136 21.46305771172047 25.315186530351639 7.3480879366397849 5.293627366423606 1200.1903232038021 18.302858948707581 86.82112081348896 9.7576870471239072 8.8877160996198672 8.8838378787040693 5.9491828233003607 13.194481328129767
leaf_count=28 56 1044 58 25 31 24 27 95 104 32 23 5189 75 405 42 37 38 26 57
internal_value=-2.36352e-05 0.000189207 -0.000996645 0.0104761 -0.00345131 0.0282529 -0.0101532 -0.0117897 -0.00188994 -0.0138417 -0.0195044 -0.000783685 0.0426882 -0.0229496 -0.0268869 0.0534205 0.0066222 -0.023034 0.0118804
internal_weight=1720.63 1709.23 1443.19 104.252 58.4548 45.7972 12.511 51.1338 1338.94 113.432 99.4628 1225.51 33.2863 94.1692 31.2207 27.1906 266.036 14.833 19.9131
internal_count=7416 7360 6252 441 253 188 51 222 5811 518 460 5293 137 437 137 112 1108 64 85
is_linear=0
shrinkage=0.05


Tree=22
num_leaves=20
num_cat=0
split_feature=2 1 4 2 0 2 0 4 0 2 0 6 7 0 0 7 2 6 1
split_gain=4.59591 4.38023 7.71736 11.3414 7.09979 12.6406 11.0416 11.5461 9.26744 7.20582 12.3558 12.065 7.66224 7.31176 7.87567 12.1311 7.16412 7.75376 9.04331
threshold=0.68940269567659551 2.6040940211809942 0.058918202287518942 -0.071009544259885232 4.1589297743405291 -0.19491683739983426 36.114471119163689 1.9474280855121984 3.7086686150779831 0.22637947162367431 15.425518743448308 0.013281290683802573 0.078361175049638479 35.823242411569375 158.79210510349142 -0.028654215051221007 0.2815661969317243 -0.032970644242155893 5.7523481770539311
decision_type=2 2 2 2 2 2 2 2 2 2 2 2 2 2 2 2 2 2 2
left_child=1 2 -1 -4 8 6 -6 -8 -3 12 11 16 -7 -12 15 -15 -11 -18 -19
right_child=-2 4 3 -5 5 9 7 -9 -10 10 13 -13 -14 14 -16 -17 17 18 -20
leaf_value=0.070574441995744738 -0.046893823550147935 -0.0036646528482931922 0.069738308397015461 -0.0083344461852332668 0.04504395789181323 -0.00064466018688822042 -0.047767420278217516 0.039808318670101879 -0.030545393690279095 0.059005156623520974 -0.012103327566298944 0.053825161366669254 -0.025779099465815643 0.085937563469943912 -0.034200374008092227 0.010350354246839499 -0.05844696715326067 -0.040357629069616791 0.036686921125411241
leaf_weight=5.7523805052041999 5.2143411487340918 156.85598231852055 5.8078441768884685 23.366112768650055 29.394246712327003 1212.1011103242636 8.1852956712245923 6.9671711772680274 40.302437797188759 5.2455570101738003 59.118439108133316 26.129248067736626 31.099963068962097 5.7615272104740134 8.6310757994651777 67.458831593394279 5.3459096550941494 5.7597898244857815 11.244145572185515
leaf_count=24 29 687 24 102 121 5241 34 28 180 22 248 107 132 24 37 284 22 24 46
internal_value=-2.36632e-05 0.000118882 0.0176445 0.00720799 -0.000245553 0.000939966 0.0271713 -0.00749971 -0.00915952 0.000127305 0.00907151 0.029475 -0.00127342 0.00129559 0.0109732 0.0162981 0.00641862 -0.00592356 0.0105894
internal_weight=1719.74 1714.53 34.9263 29.174 1679.6 1482.44 44.5467 15.1525 197.158 1437.9 194.695 53.7247 1243.2 140.97 81.8514 73.2204 27.5954 22.3498 17.0039
internal_count=7416 7387 150 126 7237 6370 183 62 867 6187 814 221 5373 593 345 308 114 92 70
is_linear=0
shrinkage=0.05


Tree=23
num_leaves=20
num_cat=0
split_feature=2 1 4 3 0 4 1 1 0 4 7 0 0 5 3 2 1 0 0
split_gain=4.25624 4.26206 5.4446 9.71333 9.62825 9.05409 11.1892 8.88305 11.9234 10.5481 11.0228 8.87949 9.9968 8.28854 8.58274 7.92331 6.80352 6.2667 10.5425
threshold=0.68940269567659551 150.53693953395833 2.8194564334313728 35.20100024817166 68.054985846195891 1.632411957157875 76.381992342885212 136.88440033530208 155.25787393318839 4.1316890051792017 -0.00038076477754511723 70.39710606878613 82.40819589168045 -0.0047208357428122341 32.272241038682154 0.1066950400025375 138.87524871395451 151.00838068339598 161.90993452251863
decision_type=2 2 2 2 2 2 2 2 2 2 2 2 2 2 2 2 2 2 2
left_child=1 2 4 -4 -1 11 13 8 9 10 -5 -6 -13 14 -7 16 -8 -9 -19
right_child=-2 -3 3 7 5 6 15 17 -10 -11 -12 12 -14 -15 -16 -17 -18 18 -20
leaf_value=0.00082127741450837221 -0.045689021776490785 -0.041094466262164314 0.052585581060181776 0.068024594876348751 -0.030989200251997168 0.049907554282246434 -0.039540748511548311 -0.039776788688354082 -0.018790629512072991 0.091573004541586775 -0.00085028954720575266 0.025917791367463219 -0.045574289485281597 -0.046786345992075561 -0.024030154898827594 0.045357431114567123 0.022422428396079844 0.067854955778362647 -0.02047833099557371
leaf_weight=1467.9313842505217 5.0875000655651084 6.2523384839296332 12.774801552295683 8.5755580812692624 13.619696274399756 4.7414161264896419 10.362016841769224 14.224285438656809 14.529047325253485 6.6985796988010398 18.007585078477863 34.36110894382 5.7010142654180518 40.882456824183464 22.793139711022377 8.5488664060831052 7.7383773177862158 4.8009716570377376 11.394749358296393
leaf_count=6308 29 29 52 35 62 21 48 62 62 27 75 146 27 189 105 35 33 21 50
internal_value=-2.36007e-05 0.000111949 0.000262817 0.0121623 -0.000407023 -0.0125286 -0.0217983 0.00556129 0.0190007 0.0354984 0.0213683 0.00388737 0.0157442 -0.0325041 -0.0112982 0.00568668 -0.0130499 -0.0155612 0.00570671
internal_weight=1719.02 1713.94 1707.69 91.0056 1616.68 148.748 95.0663 78.2308 47.8108 33.2817 26.5831 53.6818 40.0621 68.417 27.5346 26.6493 18.1004 30.42 16.1957
internal_count=7416 7387 7358 384 6974 666 431 332 199 137 110 235 173 315 126 116 81 133 71
is_linear=0
shrinkage=0.05


Tree=24
num_leaves=20
num_cat=0
split_feature=7 2 1 0 0 5 4 2 1 1 1 1 0 0 4 1 1 4 1
split_gain=4.11853 7.19751 5.10447 4.2979 17.6181 7.7147 7.70263 9.31336 8.31433 7.94281 8.47637 12.7893 16.969 8.06742 8.00498 9.1029 10.167 7.61076 7.27175
threshold=-0.082046426608885656 -0.11308269405499882 150.53693953395833 6.8806199385440481 15.317072556612127 0.058333485531240743 0.45295956863469761 -0.086908989725996769 21.799035868794927 12.32767841371699 16.307185170311929 15.940099132619814 16.297070759116767 15.910685347574894 0.61540610465815904 15.211795639152461 15.622956892142492 0.62136301227694934 16.948937875705173
decision_type=2 2 2 2 2 2 2 2 2 2 2 2 2 2 2 2 2 2 2
left_child=1 -1 3 -2 5 18 7 -6 -9 -8 11 12 14 -12 15 -11 -17 -13 -5
right_child=2 -3 -4 4 6 -7 9 8 -10 10 13 17 -14 -15 -16 16 -18 -19 -20
leaf_value=-0.0024274994157729253 -0.0047213591308173869 0.043288348962300688 -0.046688253748821365 0.018550570270541258 0.022842765407771515 0.07284008732196845 -0.056916129223978033 -0.036157041688416471 0.025200093074428793 0.085005157464874984 -0.048022819605517887 0.0087391748611557584 -0.025771758158034293 -0.00032813906269161587 -0.014700175182273191 -0.038355366683564068 0.05807513840311445 0.081380100616326473 -0.024067209572284809
leaf_weight=20.384912505745888 402.14981907606125 14.904899582266806 5.929397538304328 127.88230141997337 11.079798772931097 6.0618782490491858 6.0794879943132392 41.615842342376709 6.3658087253570548 9.1331377476453834 8.9463390707969648 5.4758862555027035 23.503819391131401 989.10950917005539 6.8067345470190039 4.6939140260219556 6.5443372130393982 10.558582365512846 10.859080255031584
leaf_count=84 1782 61 28 527 47 25 26 186 28 38 38 23 100 4259 29 20 27 44 44
internal_value=-2.38713e-05 0.0168809 -0.000378381 -0.000214629 0.00120716 0.0176273 -0.000897148 -0.0184756 -0.0280167 7.23665e-05 0.000397751 0.0176525 0.00533909 -0.000755663 0.032244 0.0479295 0.0177987 0.0565727 0.0152149
internal_weight=1718.09 35.2898 1682.8 1676.87 1274.72 144.803 1129.91 59.0614 47.9817 1070.85 1064.77 66.7164 50.6819 998.056 27.1781 20.3714 11.2383 16.0345 138.741
internal_count=7416 145 7271 7243 5461 596 4865 261 214 4604 4578 281 214 4297 114 85 47 67 571
is_linear=0
shrinkage=0.05


Tree=25
num_leaves=20
num_cat=0
split_feature=1 4 1 3 4 4 2 1 2 2 7 7 2 0 0 5 0 0 3
split_gain=4.0859 6.86995 10.6858 7.85268 6.74661 11.6092 9.05684 7.20297 10.0427 7.0698 10.545 8.00276 6.85127 8.67924 6.0233 5.66174 5.52949 10.0292 9.22383
threshold=2.6040940211809942 0.058918202287518942 2.5559055912663529 40.539557041286528 0.086853042678290707 0.089942930703568055 0.10311236642088521 5.687762195050472 -0.044365962638282651 -0.024605352407924618 0.0092302421560077636 -0.010139810118967361 -0.18765926554515225 4.9020048011187898 5.3772133202540369 0.013698910685641998 4.1589297743405291 15.317072556612127 25.539624551979355
decision_type=2 2 2 2 2 2 2 2 2 2 2 2 2 2 2 2 2 2 2
left_child=1 -1 3 -3 6 -6 7 9 -9 10 12 -11 -2 -14 -15 -4 18 -18 -7
right_child=4 2 15 -5 5 16 -8 8 -10 11 -12 -13 13 14 -16 -17 17 -19 -20
leaf_value=0.066526260742863844 -0.0022305085852873659 0.035164937249180454 0.06563283105036799 -0.043256498244378792 0.050592034709979396 0.031163500385698956 -0.049253099431546599 0.019787066068156531 -0.066110528615355657 0.061319676107846777 0.017454876309017469 0.0031671773318074914 -0.051718823418599472 0.029541083186906476 -0.043708136274833942 -0.00086208024241641386 0.010215314993815179 -0.00084869473715638844 -0.014838097516146146
leaf_weight=5.8126015067100516 29.347187891602516 4.4562284499406841 8.2079959660768491 11.253686785697935 11.535207375884054 12.140268102288244 13.670515179634092 5.0091652125120154 10.6105710119009 7.9723005741834667 25.994077116250992 22.939399495720863 24.436743035912514 7.1002016216516477 4.6409796625375748 5.2479614764451972 249.14460423588753 1151.3954101800919 106.4032140225172
leaf_count=24 130 20 34 50 50 51 68 22 52 36 114 103 113 32 21 22 1048 4959 467
internal_value=-2.38953e-05 0.0168901 0.00699783 -0.0210117 -0.000375563 0.000621323 -0.0104325 -0.00658829 -0.0385636 -0.00250888 -0.00949174 0.018165 -0.0201816 -0.0347433 0.000587596 0.0396991 0.000241869 0.0011195 -0.010127
internal_weight=1717.32 34.9785 29.1659 15.7099 1682.34 1530.62 151.721 138.051 15.6197 122.431 91.5192 30.9117 65.5251 36.1779 11.7412 13.456 1519.08 1400.54 118.543
internal_count=7416 150 126 70 7266 6575 691 623 74 549 410 139 296 166 53 56 6525 6007 518
is_linear=0
shrinkage=0.05


Tree=26
num_leaves=20
num_cat=0
split_feature=2 2 2 2 4 1 1 3 5 0 4 1 2 1 4 2 3 2 2
split_gain=3.96456 3.82266 4.03217 14.1246 10.0422 8.21349 10.8446 9.97523 8.13734 7.95949 7.20534 16.4871 9.51623 9.89959 11.5973 15.2157 10.9259 8.85722 8.71165
threshold=0.68940269567659551 -0.39234700670164308 -0.01420676324699185 -0.064238457359879056 0.023243319612019898 2.6040940211809942 5.1135948881820408 12.34531780669341 0.051016999371689693 2.6912631677825267 0.61540610465815904 24.155016845334945 -0.145881003930451 61.416536403112325 2.0934678341490573 -0.090699862378515114 61.901389450411962 -0.14282633341615383 -0.19085710626378136
decision_type=2 2 2 2 2 2 2 2 2 2 2 2 2 2 2 2 2 2 2
left_child=1 -1 3 5 -5 -3 9 -8 10 -7 11 17 -12 16 15 -15 -14 18 -9
right_child=-2 2 -4 4 -6 6 7 8 -10 -11 12 -13 13 14 -16 -17 -18 -19 -20
leaf_value=0.036734486488703998 -0.044655795906044765 0.054036718368927143 0.0019073588650543355 0.060467907385160641 -0.015987236273089591 0.0032179807035231552 0.058301927305835194 0.030654066614481515 0.056510706288786544 -0.022945659178692974 0.012579131884866002 0.096354378880928196 -0.026302799596660126 0.068292765413353523 -0.016572436347452743 -0.0019679336491330744 0.046297515211911298 0.017263733571850952 -0.032153489789442484
leaf_weight=7.0931910574436179 4.9613081514835349 7.3604406118392935 1035.4981359392405 4.3924802541732779 193.34326852858067 49.502045080065727 8.6586254537105543 7.5315123796463039 7.2046576738357535 70.423436373472214 70.057897537946701 5.6411739289760581 76.206839203834534 12.824362248182295 31.634490340948105 19.305522412061691 5.5604200214147559 78.734760999679565 20.681861907243729
leaf_count=30 29 30 4466 18 852 210 36 31 30 316 287 24 329 55 139 85 24 337 88
internal_value=-2.43358e-05 0.00010503 -4.73956e-05 -0.00307273 -0.0142889 0.00163276 0.000801416 0.0053146 0.00394662 -0.012146 0.00279266 0.0130446 -0.00256132 -0.00984982 0.00491746 0.026076 -0.0213658 0.0086503 -0.0153871
internal_weight=1716.62 1711.66 1704.56 669.064 197.736 471.328 463.968 344.042 335.383 119.925 328.179 112.589 215.59 145.532 63.7644 32.1299 81.7673 106.948 28.2134
internal_count=7416 7387 7357 2891 870 2021 1991 1465 1429 526 1399 480 919 632 279 140 353 456 119
is_linear=0
shrinkage=0.05


Tree=27
num_leaves=20
num_cat=0
split_feature=3 3 3 0 4 6 6 7 2 3 6 5 7 2 2 1 1 7 2
split_gain=3.87275 4.30024 5.55751 7.94075 7.20392 8.40788 8.15823 5.95312 5.94537 11.4953 7.76324 6.35463 6.94894 5.97463 5.7473 5.95489 7.63414 6.40298 5.52
threshold=93.39404006183274 71.136830635393551 72.065761357601261 28.770743868285361 1.3568163984363957 -0.019536611616920826 -0.012225136091731424 0.026662176466985325 0.19972861773387893 74.805109164414858 0.022908801658969916 0.033459881335476845 0.075120329676311673 0.18534145327597559 0.049285797782363257 49.14493505808904 136.88440033530208 0.0080509744232540887 0.21678570071603323
decision_type=2 2 2 2 2 2 2 2 2 2 2 2 2 2 2 2 2 2 2
left_child=1 -1 3 -3 5 -4 -7 14 13 -10 -11 12 -12 -8 -6 -16 17 -17 -9
right_child=-2 2 4 -5 7 6 8 18 9 10 11 -13 -14 -15 15 16 -18 -19 -20
leaf_value=-0.00091345397039156837 -0.029558542622217611 -0.0002748760730200135 -0.040233295260950819 0.061225449072086727 -0.049581737259938724 0.054321136690910092 0.0055651597337112594 -0.058573866289192457 -0.034777250380245116 0.063695351592660099 -0.033234672935582736 0.049158980516337623 0.041028250249143555 -0.041506781278908389 -0.029611364349062141 0.073823684551114738 -0.02112970512781169 0.010417752029052912 -0.011855297148301506
leaf_weight=1438.7884426116943 11.028552085161207 10.422938704490663 8.3181006163358671 10.572685927152632 4.4707768708467475 10.329132840037344 113.24240590631962 9.6240109056234378 6.9476259201765052 14.59640997648239 8.3008668571710604 9.0708398371934873 5.0764543414115897 7.1677174866199485 6.844451695680621 8.0483828783035296 6.7085422277450553 7.8799622207880011 18.431697398424149
leaf_count=6252 56 43 34 44 19 42 470 42 29 60 34 37 21 30 28 34 29 33 79
internal_value=-2.46655e-05 0.000166388 0.00600607 0.0306946 0.00389084 0.00888037 0.0112184 -0.0108384 0.00851035 0.0242411 0.0353098 0.0168528 -0.00505322 0.00276308 0.00324459 0.0112556 0.023612 0.0424559 -0.0278813
internal_weight=1715.87 1704.84 266.053 20.9956 245.057 183.05 174.731 62.0078 164.402 43.9922 37.0446 22.4482 13.3773 120.41 33.9521 29.4813 22.6369 15.9283 28.0557
internal_count=7416 7360 1108 87 1021 757 723 264 681 181 152 92 55 500 143 124 96 67 121
is_linear=0
shrinkage=0.05


Tree=28
num_leaves=20
num_cat=0
split_feature=2 7 2 1 4 1 1 4 2 4 6 5 4 1 0 0 5 5 3
split_gain=3.66898 3.56454 6.50431 4.65428 4.12838 7.84354 8.87774 9.46566 8.04119 8.6557 6.95816 6.84411 6.56336 12.0676 7.06846 7.8256 7.33232 6.78975 6.52328
threshold=0.68940269567659551 -0.082046426608885656 -0.11308269405499882 150.53693953395833 2.8194564334313728 64.389363084900836 65.587064892927103 1.1617628610546185 -0.084987562870201441 2.0934678341490573 -0.022426978202769673 0.00079703202836456388 1.6102302399723054 76.381992342885212 67.543673591138173 82.40819589168045 0.014216043319563722 -0.0090131704067225576 71.712502052770716
decision_type=2 2 2 2 2 2 2 2 2 2 2 2 2 2 2 2 2 2 2
left_child=1 2 -1 4 5 -3 7 -7 9 -8 -6 -12 14 17 -10 16 -16 -14 -13
right_child=-2 3 -4 -5 10 6 8 -9 12 -11 11 18 13 -15 15 -17 -18 -19 -20
leaf_value=-0.0025763651411333174 -0.043546613464677961 0.00049723774653903337 0.040842470068503771 -0.044944907568842896 0.042911743381453232 0.021595795528101355 0.066987017604576649 -0.054661504194987054 -0.053908125416430232 -0.0082603081780031791 -0.01460654384169606 0.025719577276818662 -0.0011888827781706562 0.0081004262488023997 0.011008857423098853 -0.043174030358517017 0.074827011311464006 -0.044772701998036422 -0.021164654768442228
leaf_weight=20.361855700612068 4.828759253025054 1424.1786077022552 14.964749962091444 5.8001177310943595 13.88261032104492 5.1375450193882015 7.3612203001975995 19.572417706251144 4.4965256899595252 7.9482094198465347 29.107414171099663 37.051169410347939 11.800635993480681 25.827460825443268 26.205960556864742 5.3964403420686713 5.4341347962617865 36.811182275414467 9.2766766250133497
leaf_count=84 29 6132 61 28 57 23 31 92 20 35 125 156 55 113 112 26 22 175 40
internal_value=-2.42354e-05 9.86205e-05 0.0158163 -0.000232817 -7.7479e-05 -0.000668612 -0.0113126 -0.0388066 -0.0061377 0.0279208 0.0103806 0.00439375 -0.0106337 -0.0195186 0.00529054 0.0124777 0.0219695 -0.0341926 0.0163315
internal_weight=1715.44 1710.61 35.3266 1675.29 1669.49 1580.17 155.992 24.71 131.282 15.3094 89.3179 75.4353 115.972 74.4393 41.5331 37.0365 31.6401 48.6118 46.3278
internal_count=7416 7387 145 7242 7214 6836 704 115 589 66 378 321 523 343 180 160 134 230 196
is_linear=0
shrinkage=0.05


Tree=29
num_leaves=20
num_cat=0
split_feature=3 3 3 6 7 4 4 0 1 3 1 5 2 5 1 1 4 0 0
split_gain=3.48843 3.92303 5.02653 10.153 8.15089 6.03045 5.97634 8.7209 8.4192 6.17087 9.40857 7.139 7.50198 6.54346 6.1188 6.03566 5.83873 6.03936 11.7894
threshold=93.39404006183274 71.136830635393551 39.211290982722232 0.012966513554734884 -0.082046426608885656 0.012771437172516499 0.12188276737053468 14.642122988895993 2.6460256905273103 34.964280715219132 4.3098868049419981 -0.013367768299587744 -0.045716038886546621 -0.028635221075600788 3.7223993578510703 3.0794933948936696 0.082684022123352977 68.054985846195891 91.480366089508678
decision_type=2 2 2 2 2 2 2 2 2 2 2 2 2 2 2 2 2 2 2
left_child=1 2 6 4 -4 -6 8 -8 -1 10 13 -12 -13 -10 15 -15 -7 -18 -19
right_child=-2 -3 3 -5 5 16 7 -9 9 -11 11 12 -14 14 -16 -17 17 18 -20
leaf_value=0.043887885352145828 -0.028290427450065981 0.0057339682741468856 0.040439390041562107 0.004815269441571784 0.046060690102667542 -0.023139444068141755 0.023329868087363197 0.0027553204312285827 0.026555168753250744 -0.040818243603258822 -0.032975764421415539 0.048613869853430115 -0.015411258495236384 -0.044775016117848281 -0.060192779123676148 0.015368644902912204 -0.0036813373429999395 -0.032815910572288991 0.00057364111326922186
leaf_weight=7.013081192970275 10.846358165144919 265.96509869396687 9.2053979039192182 295.59036934375763 5.3257347494363776 53.850458830595016 61.466374158859253 317.77168147265911 5.4690556973218909 16.157216191291809 5.913177594542506 14.966912612318996 6.5896468758583042 8.0218611061573082 12.093148842453955 8.6906368285417539 503.67184682190418 55.168394714593887 50.762180998921394
leaf_count=30 56 1108 38 1270 22 255 258 1361 23 74 25 66 30 36 57 37 2191 259 220
internal_value=-2.44035e-05 0.000155549 -0.000876403 -0.00291773 -0.00628919 -0.00693238 0.00340533 0.00609001 -0.00858474 -0.0133086 -0.00610988 0.0156919 0.029042 -0.0235831 -0.0331024 -0.0134998 -0.00735778 -0.00596367 -0.0168156
internal_weight=1714.54 1703.69 1437.73 973.574 677.984 668.779 464.153 379.238 84.9147 77.9017 61.7444 27.4697 21.5566 34.2747 28.8056 16.7125 663.453 609.602 105.931
internal_count=7416 7360 6252 4255 2985 2947 1997 1619 378 348 274 121 96 153 130 73 2925 2670 479
is_linear=0
shrinkage=0.05


Tree=30
num_leaves=20
num_cat=0
split_feature=2 1 0 5 1 6 5 4 3 1 3 2 4 2 4 1 1 2 7
split_gain=3.48389 3.85645 16.2021 8.09404 7.69751 10.3131 6.9747 6.77203 8.93954 6.4392 13.38 10.4867 6.05254 6.79976 5.87271 9.56315 8.02546 5.57319 5.54682
threshold=-0.39234700670164308 5.8038256027234167 15.317072556612127 0.058333485531240743 12.965340504689539 -0.020363641027471509 -0.021045922266921809 0.45295956863469761 50.25096784731091 5.5099430744745446 36.450700947495328 -0.045716038886546621 0.20539314304906123 0.0091517199896932536 0.052700441941773667 5.0493259705621067 5.3797773086722493 -0.04290165899284764 -0.036348912547319749
decision_type=2 2 2 2 2 2 2 2 2 2 2 2 2 2 2 2 2 2 2
left_child=-1 6 3 4 5 -3 12 8 17 14 11 -11 13 -2 15 -8 -16 -4 -15
right_child=1 2 7 -5 -6 -7 9 -9 -10 10 -12 -13 -14 18 16 -17 -18 -19 -20
leaf_value=0.034843375052318479 0.0072279610157631284 -0.014075866167938218 0.032947726580151493 0.075362504201471614 0.0073691594051627915 0.048430274715296387 0.05431485397805616 0.00010539887721723865 -0.035668196722548944 0.056407856904877408 -0.039507262484947403 -0.036966710307516353 -0.024796046446409981 0.091676659928568618 -0.0078266089845735083 -0.010650498558538404 0.036869308291377106 -0.013542502421034795 0.025043297608258366
leaf_weight=7.1340818405151358 33.425494268536568 8.5715561062097532 10.102537274360659 5.7269133478403083 98.652823567390442 28.677492037415504 10.786121949553491 1090.1447690874338 31.189766898751259 7.7698823064565659 35.792800843715668 4.9052228927612287 9.3175202310085279 4.9083846360445014 277.65018439292908 11.930338427424429 10.420169398188589 17.812878906726837 8.5873373001813871
leaf_count=30 142 35 43 23 404 118 48 4696 140 34 167 22 39 20 1238 54 46 80 37
internal_value=-2.46327e-05 -0.000170411 0.00117814 0.0171349 0.0146811 0.0340467 -0.00436015 -0.000788304 -0.0172719 -0.00692326 -0.023874 0.0202722 0.0120131 0.0193226 -0.00427976 0.020196 -0.00620985 0.00328223 0.0492778
internal_weight=1713.51 1706.37 1290.88 141.629 135.902 37.249 415.493 1149.25 59.1052 359.255 48.4679 12.6751 56.2387 46.9212 310.787 22.7165 288.07 27.9154 13.4957
internal_count=7416 7386 5539 580 557 153 1847 4959 263 1609 223 56 238 199 1386 102 1284 123 57
is_linear=0
shrinkage=0.05


Tree=31
num_leaves=20
num_cat=0
split_feature=2 1 4 1 3 1 5 4 4 2 0 4 4 3 0 0 1 0 2
split_gain=3.45236 3.37233 6.01044 9.20872 6.63566 5.25391 4.87478 3.75154 10.2325 8.28173 7.24709 5.04562 14.4416 6.8134 6.85432 6.62034 8.80506 7.81733 6.24928
threshold=0.68940269567659551 2.6040940211809942 0.058918202287518942 2.5559055912663529 40.539557041286528 2.6249313481604193 0.013698910685641998 0.086853042678290707 0.089942930703568055 0.10311236642088521 5.5841928028773564 0.023243319612019898 1.0000000180025095e-35 41.72424900477894 2.7685591592606049 3.033998883180832 4.0631279689548974 4.1589297743405291 -0.060079674515955979
decision_type=2 2 2 2 2 2 2 2 2 2 2 2 2 2 2 2 2 2 2
left_child=1 2 -1 4 -4 -3 -5 9 -9 10 11 12 -7 -13 -15 -16 -17 -18 -19
right_child=-2 5 3 6 -6 7 -8 8 -10 -11 -12 13 -14 14 15 16 17 18 -20
leaf_value=0.061626582114571962 -0.042720563036901055 -0.044974549477722586 0.03080284714611525 0.060138911959981937 -0.041035585502587603 -0.015813953731068597 -0.0014314225922020961 0.047309192780381343 0.00031832242407871031 -0.046589136418570105 -0.030464499766838904 -0.019071306937394599 0.083451272549417296 0.037427946338021371 -0.042644825866793301 0.059086073477506718 -0.060669279710110685 0.039110071343912256 -0.015295443852453995
leaf_weight=5.8672216683626166 4.7215239107608786 6.5343090593814841 4.5377197414636639 8.3009056001901609 11.023212909698485 8.2530784457921964 5.2467488795518866 11.674563571810721 1510.2112201452255 12.535216584801672 21.715163856744766 39.233936965465546 6.5895645320415488 14.694155812263487 8.1702230572700483 6.6434052139520636 5.1371521651744869 9.2198521047830528 12.346035122871404
leaf_count=24 29 30 20 34 50 36 22 50 6492 63 104 179 28 63 38 30 25 42 57
internal_value=-2.45557e-05 9.3476e-05 0.0154594 0.00615378 -0.0200868 -0.000227773 0.0362939 -5.23134e-05 0.000678795 -0.00775039 -0.00406219 0.00113632 0.028256 -0.00308107 0.00807977 -0.00230754 0.00757551 -0.00523972 0.00796401
internal_weight=1712.66 1707.93 34.9758 29.1086 15.5609 1672.96 13.5477 1666.42 1521.89 144.538 132.003 110.287 14.8426 95.4448 56.2108 41.5167 33.3464 26.703 21.5659
internal_count=7416 7387 150 126 70 7237 56 7207 6542 665 602 498 64 434 255 192 154 124 99
is_linear=0
shrinkage=0.05


Tree=32
num_leaves=20
num_cat=0
split_feature=2 6 0 1 4 0 6 1 4 0 2 2 4 4 3 6 1 1 1
split_gain=3.32483 7.59168 6.90594 10.5676 10.6365 9.88086 8.08297 7.38102 6.01728 5.9735 5.92804 9.81296 8.84214 9.37033 8.75685 8.40783 6.37587 7.29474 7.65495
threshold=-0.19952971694779156 0.060911475455012083 4.0803066732372848 49.92062754723085 1.9474280855121984 2.6252375674321256 -0.029865251021495228 2.982313492977775 0.10200492429187169 2.8788886423455291 -0.016167077677630034 -0.060079674515955979 0.023243319612019898 0.10512606872209547 27.191973458476038 0.068132817607519006 2.6040940211809942 5.3797773086722493 5.4657752521829712
decision_type=2 2 2 2 2 2 2 2 2 2 2 2 2 2 2 2 2 2 2
left_child=1 2 5 -4 -5 6 -1 -8 -9 -7 11 14 -13 -14 -2 16 -16 -18 -19
right_child=10 -3 3 4 -6 9 7 8 -10 -11 -12 12 13 -15 15 -17 17 18 -20
leaf_value=0.072682075144319278 0.017524790715654194 0.066628184197347048 0.039809077017341807 -0.064511861875712881 0.029114778805236764 -0.065167646224318435 -0.040114436543754961 0.049840542312023367 -0.012262735397793755 -0.012539459482002148 0.0016366144710940195 0.05495989203623633 -0.044407065458056255 -0.01153187747162444 0.041622698340444179 -0.052819559237335334 -0.019356183844860739 0.049121853510609284 -0.0012571208512075255
leaf_weight=5.3221330195665386 58.184066772460938 5.3436673432588568 26.443261533975601 5.9202335774898511 6.2210927456617355 6.7064006328582755 6.6360270828008678 8.9224823117256147 6.929711014032363 27.505569010972977 1044.5405753925443 4.4306083768606177 25.636074051260948 140.27932819724083 8.0862070024013502 8.4225116372108442 58.048975259065628 7.7740618139505377 250.66511750221252
leaf_count=22 247 22 108 25 25 29 29 37 29 124 4524 18 124 612 34 36 262 34 1075
internal_value=-2.4681e-05 0.00855421 0.00546965 0.0220783 -0.0165385 -0.00486273 0.0172722 0.00415878 0.0226924 -0.0228559 -0.000590621 -0.00473368 -0.01475 -0.0166115 -0.000371917 -0.00349898 -0.00221914 -0.00333929 0.00025832
internal_weight=1712.02 105.951 100.607 38.5846 12.1413 62.0223 27.8104 22.4882 15.8522 34.212 1606.07 561.527 170.346 165.915 391.181 332.997 324.574 316.488 258.439
internal_count=7416 450 428 158 50 270 117 95 66 153 6966 2442 754 736 1688 1441 1405 1371 1109
is_linear=0
shrinkage=0.05


Tree=33
num_leaves=20
num_cat=0
split_feature=1 4 3 1 0 4 6 1 1 4 4 4 0 7 5 0 6 7 1
split_gain=3.2259 4.36102 8.43536 7.62778 12.1637 7.97368 9.77062 7.45329 7.13335 8.3161 6.13526 6.87104 8.15248 6.79551 8.27524 6.7155 6.07069 8.17513 5.83311
threshold=150.53693953395833 2.8194564334313728 35.20100024817166 136.88440033530208 155.25787393318839 4.1316890051792017 -0.0092089791837486317 64.389363084900836 65.587064892927103 1.1617628610546185 1.6102302399723054 1.8079853028546033 67.717375751410586 -0.016994366995172591 0.014216043319563722 83.756965828384509 0.0053103063308004303 0.03388252104742951 135.2733543398588
decision_type=2 2 2 2 2 2 2 2 2 2 2 2 2 2 2 2 2 2 2
left_child=1 7 -3 4 5 6 -4 -1 9 -9 13 -12 -13 -10 -15 -14 -8 -18 -17
right_child=-2 2 3 -5 -6 -7 16 8 10 -11 11 12 15 14 -16 18 17 -19 -20
leaf_value=0.00060984571177470897 -0.036790872480041627 0.048297026385783308 0.079945362068748541 -0.015160276899205398 -0.020604064472812517 0.077710305720115919 -0.044448741993768387 0.020732151067531547 0.060080224914369651 -0.050713354099794418 -0.041445073531954195 0.036624337492547412 -0.02816910676603376 -0.0090189963392247156 0.052352443326132862 0.050896056086783596 0.048666834440850015 -0.023319059755767681 -0.0069259906917907305
leaf_weight=1456.6093827411532 5.9454006105661383 12.821809619665144 5.4335716217756262 30.288866296410561 15.16873052716255 7.7697175145149222 4.8322704285383287 5.1599018126726177 5.6394263952970496 19.334991008043289 18.087643280625343 9.3361556679010373 33.989286154508591 32.459033340215683 6.6115302294492713 5.5955488234758404 9.6827451437711733 6.6546222269535056 19.779991894960403
leaf_count=6283 29 52 22 133 66 33 20 23 24 93 87 40 162 143 27 23 40 28 88
internal_value=-2.4658e-05 0.000103528 0.0106524 0.00460615 0.016691 0.0331492 0.0201348 -0.000502557 -0.0108898 -0.0356632 -0.00627509 -0.0140268 -0.00680808 0.00877209 0.00136629 -0.0136386 0.0047833 0.0193452 0.00582432
internal_weight=1711.2 1705.26 92.6523 79.8305 49.5417 34.3729 26.6032 1612.6 155.994 24.4949 131.499 86.7886 68.701 44.71 39.0706 59.3648 21.1696 16.3374 25.3755
internal_count=7416 7387 394 342 209 143 110 6993 710 116 594 400 313 194 170 273 88 68 111
is_linear=0
shrinkage=0.05


Tree=34
num_leaves=20
num_cat=0
split_feature=2 0 4 1 7 0 4 1 2 6 0 0 3 3 2 4 1 3 2
split_gain=3.30197 3.06315 3.7957 7.54161 9.24152 6.63762 6.86112 9.61959 8.41777 7.66463 7.55274 8.39289 10.006 6.57253 9.41521 7.0694 6.46369 6.2305 7.68448
threshold=0.68940269567659551 168.01904628819827 2.8194564334313728 103.97826615550514 0.028694726888604642 68.054985846195891 1.632411957157875 76.381992342885212 0.1066950400025375 -0.0042099549361973012 70.39710606878613 80.737971390494266 41.258628044723579 32.272241038682154 0.12360302315628903 2.0934678341490573 138.87524871395451 48.924238323195731 0.13230784408311394
decision_type=2 2 2 2 2 2 2 2 2 2 2 2 2 2 2 2 2 2 2
left_child=1 2 5 4 -4 -1 10 9 16 13 -7 17 -13 -8 -15 -16 -9 -12 -19
right_child=-2 -3 3 -5 -6 6 7 8 -10 -11 11 12 -14 14 15 -17 -18 18 -20
leaf_value=0.00067357730848132953 -0.042108824796471919 -0.033881797493975789 0.06905439024513027 0.0030964691528847722 -0.0049818458837474992 -0.028910526723152103 0.036434475081802219 -0.038293532019778941 0.049197408211123943 -0.046045022557997826 0.0015586723025427273 0.027705101773333653 -0.06726937249250968 -0.049013801822743619 -0.030615008145233796 0.045505001271072931 0.022271885492755602 0.089798067805013204 0.02072136610630226
leaf_weight=1463.2556458860636 4.6482719182968131 6.6096904724836341 10.584880232810976 72.91266918182373 7.004026234149932 13.296298816800116 5.7898457348346701 10.220390990376478 8.1044542789459211 32.928183987736702 12.156283512711527 5.2657400369644147 5.8588234782218933 14.858014270663263 5.6918515115976316 6.5720197707414627 7.7424460500478736 6.7500183433294323 9.97728283703327
leaf_count=6308 29 29 43 314 29 62 26 48 33 158 52 24 27 75 26 30 33 28 42
internal_value=-2.45293e-05 9.01645e-05 0.000222329 0.0101856 0.0395726 -0.00033826 -0.0105343 -0.0188113 0.00689685 -0.0289896 0.00373692 0.014587 -0.0223138 -0.0119257 -0.0222493 0.0101765 -0.0121883 0.0287994 0.0485961
internal_weight=1710.23 1705.58 1698.97 90.5016 17.5889 1608.47 145.212 91.9072 26.0673 65.8399 53.3044 40.0081 11.1246 32.9117 27.1219 12.2639 17.9628 28.8836 16.7273
internal_count=7416 7387 7358 386 72 6972 664 429 114 315 235 173 51 157 131 56 81 122 70
is_linear=0
shrinkage=0.05


Tree=35
num_leaves=20
num_cat=0
split_feature=1 4 1 3 4 4 2 1 2 2 7 7 2 0 2 6 0 3 4
split_gain=3.07874 5.38509 8.02815 5.96276 4.83001 9.29417 7.73624 6.00877 8.80268 6.21632 8.56932 7.39416 6.27199 7.2645 4.90436 4.58183 4.55839 7.97224 10.9662
threshold=2.6040940211809942 0.058918202287518942 2.5559055912663529 40.539557041286528 0.086853042678290707 0.089942930703568055 0.10311236642088521 5.687762195050472 -0.044365962638282651 -0.024605352407924618 0.0092302421560077636 -0.010139810118967361 -0.18765926554515225 4.9020048011187898 -0.11120330730047263 -0.0089147596804713385 4.1589297743405291 25.539624551979355 0.12854793007119658
decision_type=2 2 2 2 2 2 2 2 2 2 2 2 2 2 2 2 2 2 2
left_child=1 -1 3 -3 6 15 7 9 -9 10 12 -11 -2 -14 -15 -6 17 18 -7
right_child=4 2 -4 -5 5 16 -8 8 -10 11 -12 -13 13 14 -16 -17 -18 -19 -20
leaf_value=0.058242553478173489 -0.00096661025786425069 0.029031131532999129 0.033819155240780989 -0.039142453754762385 0.082440756275018096 -0.0095022112824845566 -0.045911950109310838 0.018775697457971949 -0.06282211677151589 0.05899012157070941 0.015787850255445639 0.0031410817582785732 -0.04850487323152191 -0.042237361873987925 0.024678301876931517 0.018949579833633927 0.00095949473213677034 -0.013714414990252756 0.087473883618383583
leaf_weight=5.8951479345560065 28.931795865297318 4.5592526942491558 13.587855726480482 10.81740766763687 4.7865348160266876 7.3392354846000654 12.915143355727194 4.9730622917413703 9.8551338315010053 8.0074391812086123 26.100169271230698 22.804979398846626 23.390225768089294 4.3653838783502579 7.3460872024297696 6.9928445070981962 1396.3699169233441 105.42920196056366 4.8361381143331528
leaf_count=24 130 20 56 50 20 31 68 22 52 36 114 103 113 20 33 30 6007 467 20
internal_value=-2.46336e-05 0.0146823 0.00581643 -0.0189287 -0.000330811 0.000507502 -0.00893304 -0.00541553 -0.0354559 -0.00173252 -0.00836018 0.017655 -0.018203 -0.0324096 -0.000264129 0.0447491 0.000163283 -0.00929048 0.0290173
internal_weight=1709.3 34.8597 28.9645 15.3767 1674.44 1525.75 148.689 135.774 14.8282 120.946 90.1337 30.8124 64.0335 35.1017 11.7115 11.7794 1513.97 117.605 12.1754
internal_count=7416 150 126 70 7266 6575 691 623 74 549 410 139 296 166 53 50 6525 518 51
is_linear=0
shrinkage=0.05


Tree=36
num_leaves=20
num_cat=0
split_feature=2 5 2 2 3 7 5 5 1 3 1 1 2 1 1 1 3 7 3
split_gain=3.02603 3.02788 5.18872 7.71776 7.27766 5.47967 4.26198 5.26719 5.26226 10.0578 8.6045 8.00778 9.42587 6.84635 6.79381 9.36938 11.4341 6.70131 8.06596
threshold=0.68940269567659551 -0.039291236532353217 0.27064514408851631 -0.048743753265504709 25.539624551979355 -0.016994366995172591 0.0018192361491849998 0.0019915231342365618 22.019917091104396 20.589321896311244 5.8038256027234167 12.965340504689539 -0.13392359063436307 5.5099430744745446 36.132323499655676 42.609971800859874 56.290629508827344 -0.03503194187841762 41.471960027031173
decision_type=2 2 2 2 2 2 2 2 2 2 2 2 2 2 2 2 2 2 2
left_child=1 2 3 4 -1 -6 -3 -8 10 -10 13 -12 -13 -9 17 16 -16 -11 -19
right_child=-2 6 -4 -5 5 -7 7 8 9 14 11 12 -14 -15 15 -17 -18 18 -20
leaf_value=0.035693515652952965 -0.040903120118158477 -0.0026817352019090578 -0.038332221049864029 0.036609213369309376 -0.025555430032181026 0.027358839050439922 0.047307788027482742 0.0004874506828385606 0.068651979391785509 -0.071062445354491313 0.040172487877089498 0.043660995329079542 0.0057167814476827006 -0.038671030356854548 0.086689805775334486 -0.0012389972639260673 0.0081192564660518846 0.014178680446268632 -0.017164037928534975
leaf_weight=10.543362900614737 4.515205852687358 889.45045806467533 5.0307405441999427 24.06837996840477 20.961680054664612 6.3824407756328609 6.4843352735042563 145.24045939743519 4.9541853964328757 4.7129818052053443 23.93648362159729 18.147071361541748 166.85934937000275 12.091400176286696 6.8506208956241634 224.25765235722065 14.287902131676672 26.305203676223755 93.446346789598465
leaf_count=43 29 3894 21 100 88 27 28 640 21 20 97 74 705 55 29 975 60 112 398
internal_value=-2.47863e-05 8.35312e-05 0.0105028 0.0144681 0.000402801 -0.0132046 -0.000342822 0.00243998 0.00204739 -0.00211761 0.00630952 0.0129595 0.00943869 -0.00252199 -0.00306555 0.00176055 0.0335826 -0.0125808 -0.0102791
internal_weight=1708.53 1704.01 66.9866 61.9559 37.8875 27.3441 1637.02 747.574 741.09 374.815 366.275 208.943 185.006 157.332 369.861 245.396 21.1385 124.465 119.752
internal_count=7416 7387 279 258 158 115 7108 3214 3186 1615 1571 876 779 695 1594 1064 89 530 510
is_linear=0
shrinkage=0.05


Tree=37
num_leaves=20
num_cat=0
split_feature=1 4 6 1 1 4 5 2 4 4 4 2 3 6 3 4 1 4 0
split_gain=2.96845 3.72 7.74432 6.42467 6.4061 7.7589 6.13117 5.79476 8.68403 5.36882 11.4413 12.5188 11.0766 10.392 5.26378 5.20987 8.88011 6.34921 6.33554
threshold=150.53693953395833 2.8194564334313728 -0.022426978202769673 64.389363084900836 65.587064892927103 1.1617628610546185 0.00079703202836456388 -0.084987562870201441 2.0934678341490573 2.5653824401852483 1.9895292385158785 0.072551296709542731 36.812266656047164 -0.005993060486325418 71.712502052770716 1.6102302399723054 76.381992342885212 2.5095180265343866 67.543673591138173
decision_type=2 2 2 2 2 2 2 2 2 2 2 2 2 2 2 2 2 2 2
left_child=1 3 -3 9 5 -5 -4 8 -6 10 -1 12 -12 -13 -8 18 17 -17 -9
right_child=-2 2 6 4 7 -7 14 15 -10 -11 11 13 -14 -15 -16 16 -18 -19 -20
leaf_value=2.2335928418127756e-05 -0.035564219258905551 0.042585477644483088 -0.014445155585348875 0.02033225421104505 0.061744616184262281 -0.048841486064275991 0.023375980886741646 -0.0521683004108408 -0.012417175803805004 -0.043854923391007286 0.0091019599468761796 0.051574987355977334 0.081969158818697999 -0.028770570544251563 -0.016639098509202813 -0.037496057856456745 0.0055303184955951016 0.019934319721663901 0.011217576619322704
leaf_weight=1408.3786306753755 5.8553042560815802 15.115149110555647 29.5538180321455 5.1683218628168133 7.468319594860076 18.797599017620087 37.188504546880722 4.4129134863615027 8.372518837451933 6.7704883068799964 8.6954258829355258 5.9098366200923946 13.031064957380293 12.615668773651121 10.549938082695006 41.336506500840187 26.239353060722351 5.4466825723648062 36.957724988460541
leaf_count=6084 29 62 128 23 31 93 156 20 37 28 37 25 55 54 48 205 115 26 160
internal_value=-2.44619e-05 9.78031e-05 0.00985368 -0.000462283 -0.0101671 -0.033924 0.0034527 -0.00579527 0.0225471 0.000565939 0.00077355 0.0270578 0.0528061 -0.00313947 0.0145329 -0.00972004 -0.0177516 -0.0308098 0.00445635
internal_weight=1707.86 1702.01 92.4074 1609.6 154.2 23.9659 77.2923 130.234 15.8408 1455.4 1448.63 40.252 21.7265 18.5255 47.7384 114.393 73.0225 46.7832 41.3706
internal_count=7416 7387 394 6993 710 116 332 594 68 6283 6255 171 92 79 204 526 346 231 180
is_linear=0
shrinkage=0.05


Tree=38
num_leaves=20
num_cat=0
split_feature=0 2 4 0 3 3 6 6 5 1 4 2 7 0 2 4 0 1 4
split_gain=2.89569 6.44491 5.12123 8.01392 2.8641 4.00323 4.83357 7.26306 7.06375 6.93685 6.11904 6.88326 6.59803 4.34571 4.11197 6.89069 9.3452 7.92869 10.4637
threshold=161.90993452251863 0.15947791562833449 4.4268952546355829 155.25787393318839 93.39404006183274 71.136830635393551 -0.0045701715720243277 -0.019171753018263512 -0.016982119044794072 16.199827382045619 1.4689563980054705 0.20332069097079034 0.027600040748402947 81.778441976855632 -0.19952971694779156 0.14076571152980563 2.6252375674321256 49.92062754723085 1.9474280855121984
decision_type=2 2 2 2 2 2 2 2 2 2 2 2 2 2 2 2 2 2 2
left_child=2 -2 4 -4 5 14 7 9 -8 -7 11 -10 13 -12 15 16 -1 -17 -19
right_child=1 -3 3 -5 -6 6 8 -9 10 -11 12 -13 -14 -15 -16 17 -18 18 -20
leaf_value=0.019805401413397868 0.017430077285569116 -0.041762940657895181 0.067030072001205657 -0.0046607899718087769 -0.026117289089289238 -0.044425321517426231 -0.04415413404543124 0.033971539901936014 0.0024492677562698256 0.021272459782176647 -0.012350539305131684 0.025663426639360672 -0.031240318139819798 0.037151672069642531 -0.0017278822016682982 0.035703669089319358 -0.020681099687079565 -0.061675619595805559 0.030972563313007347
leaf_weight=25.468807101249695 7.4337477087974575 12.056801214814184 7.2807758450508109 8.3903480470180494 10.487441435456274 7.0494094043970135 7.8018560558557501 31.891922861337662 119.96437247097492 9.3432289808988553 10.076328769326212 43.514991462230682 22.370437353849411 7.9169931709766379 1297.8242883235216 33.51753842830658 32.365970134735107 5.5993668735027295 6.6871186047792435
leaf_count=107 34 53 32 37 56 29 33 130 499 38 43 178 97 34 5682 137 146 24 27
internal_value=-2.45976e-05 -0.0191866 0.000196715 0.0286467 -6.99559e-05 9.44664e-05 0.00579351 0.0200685 0.00253683 -0.00697989 0.00432387 0.00862842 -0.0131102 0.00943025 -0.000962537 0.00862156 -0.00285198 0.0231087 -0.0112503
internal_weight=1707.04 19.4905 1687.55 15.6711 1671.88 1661.39 259.93 48.2846 211.645 16.3926 203.843 163.479 40.3638 17.9933 1401.46 103.639 57.8348 45.804 12.2865
internal_count=7416 87 7329 69 7260 7204 1081 197 884 67 851 677 174 77 6123 441 253 188 51
is_linear=0
shrinkage=0.05


Tree=39
num_leaves=20
num_cat=0
split_feature=1 3 3 4 7 5 1 0 4 2 3 1 5 6 0 0 4 4 5
split_gain=2.83389 4.6343 8.50752 3.64466 7.97359 7.43154 6.21751 7.13199 7.72169 9.71657 13.2479 9.58629 8.11933 7.24071 6.59696 7.72985 5.6338 8.83726 7.92215
threshold=146.12499830532974 46.228916805590423 29.668820812122579 2.8194564334313728 -0.013280899509070796 0.001132708055806231 138.87524871395451 68.054985846195891 1.632411957157875 0.1066950400025375 36.231408707501537 76.381992342885212 -0.0026012044995781243 -0.0039816158864783282 70.39710606878613 82.40819589168045 2.5653824401852483 1.7848123058776546 -0.033643674574353848
decision_type=2 2 2 2 2 2 2 2 2 2 2 2 2 2 2 2 2 2 2
left_child=3 2 -2 6 -5 -6 7 16 14 10 12 13 -10 -11 -9 -16 17 -1 -19
right_child=1 -3 -4 4 5 -7 -8 8 9 11 -12 -13 -14 -15 15 -17 -18 18 -20
leaf_value=-0.00017334996197798002 -0.050694807960672099 -0.046803368230867115 0.039972071259529722 0.034043158559886981 -0.025367255482023551 0.01297157776875415 0.052784452949774567 -0.02745490305281947 0.032640393086133097 0.011612683000010053 -0.055188747978589664 0.046146176604374041 -0.040872483838915431 -0.039213982505040101 0.022124190999587009 -0.042056277985581703 -0.044346477998245745 0.077916346634612471 0.013199427284124899
leaf_weight=1384.7220572605729 4.3908981084823626 8.45857225358486 6.2987962812185287 24.963568225502968 19.002067640423775 37.751276180148125 5.4906170666217795 13.080824896693228 8.8977179974317533 13.135853290557861 30.812143474817276 8.1266988068819028 6.4999348372220984 15.018401622772217 34.662830010056496 5.4257821887731543 6.9688765704631797 5.0860057920217505 67.322272226214409
leaf_count=5987 21 38 28 104 83 161 23 62 41 60 160 33 31 71 146 27 29 21 290
internal_value=-2.40958e-05 -0.0191511 0.00272975 0.000193009 0.0104936 0.000135028 -0.000331352 -0.000513653 -0.0114811 -0.0210581 -0.0362635 -0.0016916 0.00160781 -0.0154999 0.00337724 0.0134377 0.00050257 0.000717065 0.0177452
internal_weight=1706.12 19.1483 10.6897 1686.97 81.7169 56.7533 1605.25 1599.76 135.66 82.4908 46.2098 36.281 15.3977 28.1543 53.1694 40.0886 1464.1 1457.13 72.4083
internal_count=7416 87 49 7329 348 244 6981 6958 631 396 232 164 72 131 235 173 6327 6298 311
is_linear=0
shrinkage=0.05


Tree=40
num_leaves=20
num_cat=0
split_feature=2 2 4 3 1 1 3 1 3 7 2 0 1 6 7 4 7 4 1
split_gain=2.8507 11.6297 7.47964 6.32858 6.7177 6.24957 10.5955 12.4811 9.95004 7.97847 7.60755 7.54466 11.5994 8.71358 7.47262 10.6907 7.0327 5.87711 12.8432
threshold=-0.016167077677630034 -0.064238457359879056 0.023243319612019898 78.630506637134616 2.6460256905273103 5.1135948881820408 63.928068686477367 16.719084943683203 28.374903542445868 -0.077741949210296576 -0.19085710626378136 2.6252375674321256 2.982313492977775 -0.0065763923717042641 -0.0080383288780823108 1.1617628610546185 -0.077741949210296576 0.60918917952995 61.416536403112325
decision_type=2 2 2 2 2 2 2 2 2 2 2 2 2 2 2 2 2 2 2
left_child=1 3 -3 4 -1 11 8 -8 14 -10 -11 12 -6 -14 16 -16 -7 -12 -19
right_child=-2 2 -4 -5 5 6 7 -9 9 10 17 -13 13 -15 15 -17 -18 18 -20
leaf_value=0.037704867108268057 0.0016092770487954986 0.050928002624553208 -0.014660954837094368 -0.046625887699886771 -0.025476557337932044 0.049141785028846273 0.11020473965468365 0.017469403330154589 -0.053240278284433798 0.025991097192610935 0.0072631382606047987 -0.018231951101977419 0.070069713985767848 0.008702610457166254 0.07119033667568625 -0.017545079631431763 0.0016027842800928822 -0.022575144108249699 0.0084929104900706379
leaf_weight=12.999679177999495 1040.6124090030789 4.4520553499460211 183.67162945866585 6.7141955941915503 16.010278835892677 9.4028003215789777 4.8331256210804012 14.554832279682158 7.4343979358673087 24.113057509064674 78.892467156052589 74.937607005238533 8.5219209790229815 18.007786810398102 12.711029067635538 4.6309554874896994 45.067997187376022 81.248053386807442 56.325786009430885
leaf_count=54 4524 18 823 31 70 38 20 62 31 99 336 342 35 75 53 20 190 350 245
internal_value=-2.44437e-05 -0.00258275 -0.0131088 0.00157377 0.00226278 0.00125392 0.00469603 0.0405869 0.00252031 -0.00222526 -0.000648788 -0.00868508 0.0081325 0.0284151 0.0189097 0.0474947 0.00980901 -0.00361631 -0.00985519
internal_weight=1705.14 664.53 188.124 476.406 469.692 456.692 339.215 19.388 319.827 248.014 240.579 117.478 42.54 26.5297 71.8128 17.342 54.4708 216.466 137.574
internal_count=7416 2892 841 2051 2020 1966 1444 82 1362 1061 1030 522 180 110 301 73 228 931 595
is_linear=0
shrinkage=0.05


Tree=41
num_leaves=20
num_cat=0
split_feature=1 1 2 4 0 4 7 1 3 2 4 5 2 1 5 5 1 2 1
split_gain=2.81784 7.04536 5.54863 5.45171 6.89384 7.30449 8.06377 6.78369 6.33757 6.35622 8.07498 8.8152 7.04761 6.18988 6.93183 7.90767 5.18906 6.21315 5.17793
threshold=140.086876735239 138.87524871395451 0.17661502186122521 2.8194564334313728 155.25787393318839 4.1316890051792017 -0.011981362994887999 64.389363084900836 24.065702596456031 0.11286422430695749 1.6102302399723054 0.010999316185739906 -0.033762302342041348 65.587064892927103 -0.0086163778200074575 0.011499786227932242 76.381992342885212 0.13657144932434034 36.132323499655676
decision_type=2 2 2 2 2 2 2 2 2 2 2 2 2 2 2 2 2 2 2
left_child=1 3 -2 7 5 6 -5 18 -9 10 11 -10 13 -12 -15 -16 17 -11 -1
right_child=2 -3 -4 4 -6 -7 -8 8 9 16 12 -13 -14 14 15 -17 -18 -19 -20
leaf_value=-0.00092666147181203254 -0.0064025261010759648 0.050535749163795655 -0.064806552193119857 0.060759025742112421 -0.011366782921991189 0.069755239864548749 0.0030994567363244949 0.046640481097408537 -0.01165666961611154 0.044420680249459332 -0.061281579541657444 0.051011260969881095 -0.043521663049441689 0.039976116688600079 -0.050371381120194562 0.025689663345469828 0.041640068141963832 -0.016959070463698118 0.0065962663428226556
leaf_weight=1169.4739136323333 34.381006732583046 6.9466234594583502 4.6122301220893851 7.8106756359338751 17.741003438830376 7.7145739346742621 27.109981402754784 4.6426953375339499 34.364318147301674 5.1533038318157223 4.8121487051248577 6.7067022919654837 38.186852365732193 7.5792283564806047 8.3612563461065239 5.7789329290390006 7.8968629986047736 20.619363531470299 284.34204596281052
leaf_count=5067 153 29 21 32 77 33 113 20 155 23 23 28 198 34 39 26 32 97 1216
internal_value=-2.4324e-05 0.00028679 -0.0133107 7.62961e-05 0.0148249 0.0257235 0.0159961 -0.000480968 -0.0108287 -0.0127419 -0.018764 -0.00142329 -0.0297685 -0.00997367 0.00139409 -0.0192861 0.00617929 -0.00468605 0.000544697
internal_weight=1704.23 1665.24 38.9932 1658.29 60.3762 42.6352 34.9207 1597.92 144.102 139.459 105.789 41.071 64.7184 26.5316 21.7194 14.1402 33.6695 25.7727 1453.82
internal_count=7416 7242 174 7213 255 178 145 6958 675 655 503 183 320 122 99 65 152 120 6283
is_linear=0
shrinkage=0.05


Tree=42
num_leaves=20
num_cat=0
split_feature=1 6 1 4 1 4 1 2 1 6 3 5 2 4 7 4 4 0 0
split_gain=2.72978 5.11171 8.27216 7.19608 4.45137 3.10595 9.56941 13.66 11.8615 10.0479 8.82015 7.27854 9.46712 6.23881 7.09201 5.68377 7.09482 5.57571 5.40188
threshold=2.6040940211809942 0.030446593724275165 2.5559055912663529 0.064773677114001157 2.6249313481604193 0.45295956863469761 16.407713122782159 -0.11120330730047263 16.55781667047631 -0.011221765737160437 45.540687916367489 -0.024157616057205396 -0.10185851364150149 0.54349185952252133 -0.0089205191479472794 0.8188026686195764 0.53604071840476686 2.6252375674321256 14.034877659762332
decision_type=2 2 2 2 2 2 2 2 2 2 2 2 2 2 2 2 2 2 2
left_child=1 2 3 -1 -2 11 7 -7 -8 10 15 12 17 -12 -15 16 -9 -6 -10
right_child=4 -3 -4 -5 5 6 8 9 18 -11 13 -13 -14 14 -16 -17 -18 -19 -20
leaf_value=0.047380217224610305 -0.042207658024610809 -0.034379059375687873 0.056006946675905604 -0.019124835777031488 0.039903574633461905 0.061550647905614535 -0.054884462823272397 -0.0002393383109834097 0.044759297639386034 0.016963451068489951 0.0031621230249137796 -0.0057377711487313354 0.034399948255289602 -0.063771425485146221 0.0068611823994483116 -0.024476165303485373 0.079555078674672777 -0.018312495399541769 -0.00032008692439152716
leaf_weight=5.8972498178482118 6.3164157569408408 4.7441434860229483 10.989320054650305 13.109373092651365 5.0664682686328915 13.08332349359989 9.9489890635013563 5.7986994832754153 6.6897618025541297 101.64096795767546 10.272787421941759 426.41423694044352 27.380392596125603 13.690543055534365 4.7998031228780738 5.3786912262439719 5.3613000512123108 21.854141667485237 1004.7783529758453
leaf_count=24 30 20 45 61 21 53 43 24 27 422 43 1915 115 58 20 22 22 93 4358
internal_value=-2.42321e-05 0.0138479 0.0214755 0.00150991 -0.00031307 -0.000153865 0.00122483 0.0125936 -0.000556318 0.00823459 -0.0113498 -0.00354226 0.0136986 -0.0280793 -0.0454363 0.0177451 0.0380942 -0.00735621 -2.19358e-05
internal_weight=1703.21 34.7401 29.9959 19.0066 1668.47 1662.16 1181.44 160.026 1021.42 146.943 45.3018 480.715 54.301 28.7631 18.4903 16.5387 11.16 26.9206 1011.47
internal_count=7416 150 130 85 7266 7236 5092 664 4428 611 189 2144 229 121 78 68 46 114 4385
is_linear=0
shrinkage=0.05


Tree=43
num_leaves=20
num_cat=0
split_feature=2 2 2 3 4 4 5 3 1 6 3 3 0 1 1 1 2 4 6
split_gain=2.62521 3.0716 9.72289 8.00548 6.95623 8.48117 6.26434 6.06313 5.92254 5.66588 8.42258 5.558 5.14433 6.33348 19.9138 11.8781 9.69616 7.01472 6.48961
threshold=-0.39234700670164308 -0.016167077677630034 -0.060079674515955979 12.34531780669341 0.023243319612019898 0.10512606872209547 -0.054760591685532149 78.630506637134616 2.518041261273865 -0.054333092576509749 46.451038584041747 32.272241038682154 2.7685591592606049 4.4792730795417208 4.8325331150283493 4.1531544505103648 0.33458525825125035 0.077882968250249776 0.0085122185879416019
decision_type=2 2 2 2 2 2 2 2 2 2 2 2 2 2 2 2 2 2 2
left_child=-1 2 3 -2 -4 8 -5 -8 -6 10 11 -3 -11 15 -15 16 18 -17 -14
right_child=1 9 4 6 5 -7 7 -9 -10 12 -12 -13 13 14 -16 17 -18 -19 -20
leaf_value=0.030141242323464171 0.040682066372991973 0.023806983239139615 0.048387908190478564 -0.034564569071619575 0.0066818077711592178 -0.010088213159400145 0.0013759299201352899 -0.046071005161330905 -0.054246225963279153 0.025920210172112403 -0.0038029954323549131 0.093666752680887616 0.010244049792787834 0.10137224450474663 0.0013415443234162895 -0.0053806866854195154 -0.075853500399254925 -0.067731526762204633 -0.017803895852362424
leaf_weight=7.1822257190942755 12.230758652091025 6.0792807787656802 4.4612423181533805 12.965212523937224 5.0023275762796429 138.6998635083437 455.44530785083771 6.834220051765441 19.680552691221237 20.265783920884132 11.711774289608 5.3550423234701157 58.206313788890839 5.003780558705329 877.08302124589682 6.9548414051532772 4.3823148831725112 12.837079048156737 31.939940065145493
leaf_count=30 51 25 18 54 24 612 1971 32 100 85 49 22 263 21 3800 36 22 59 142
internal_value=-2.38214e-05 -0.000151629 -0.00283266 0.000741036 -0.0132119 -0.0148939 -0.000286874 0.000674487 -0.0418983 0.00153802 0.0259992 0.0565244 0.000981127 0.000473895 0.00190898 -0.0105991 -0.00322443 -0.0458216 0.000306313
