tree
version=v4
num_class=1
num_tree_per_iteration=1
label_index=0
max_feature_idx=7
objective=binary sigmoid:1
feature_names=EMA_Fast EMA_Slow Trend_Dist RSI ATR Ret_1 Ret_2 Ret_3
feature_infos=[9.6547890377265517:915.61699789630461] [11.295218569395802:818.57974017218589] [-0.42427836076351988:0.6156779168110379] [2.3515669491983431:98.891180369197201] [0.16607251109392784:32.940336606958873] [-0.1440402098405682:0.27687182948335542] [-0.25622905717962718:0.33532559803435236] [-0.27881121107543516:0.38395095996602246]
tree_sizes=2218 2248 2247 2258 2239 2242 2245 2256 2255 2247 2253 2254 2256 2265 2252 2255 2261 2242 2265 2252 2245 2270 2250 2270 2253 2281 2248 2237 2245 2249 2249 2245 2272 2247 2238 2261 2249 2241 2246 2240 2250 2247 2246 2237 2276 2247 2230 2245 2257 2267 2252 2239 2235 2235 2223 2239 2254 2254 2231 2275 2253 2249 2258 2292 2230 2243 2253 2254 2241 2276 2247 2243 2256 2241 2243 2228 2251 2250 2235 2241 2257 2265 2242 2231 2250 2262 2254 2242 2253 2254 2241 2258 2224 2242 2262 2250 2254 2258 2280 2252

Tree=0
num_leaves=20
num_cat=0
split_feature=0 4 7 1 7 7 3 2 1 1 1 6 3 0 3 0 1 0 5
split_gain=25.0154 19.4285 21.7924 11.6553 10.3466 10.004 9.90388 16.6693 9.82341 9.15634 9.80293 8.80816 22.0751 10.3716 12.0054 9.13739 12.4766 12.1815 11.6104
threshold=183.8609471420562 0.42294748967124224 0.023215015958833355 12.746619015182711 0.078789624225805391 -0.12261507640999157 42.694693889556142 -0.2397800009623314 192.52065219890787 15.471279108086035 16.443068410754204 -0.018937551353644829 62.635940136249893 189.56178961603015 45.565659536277614 261.67456205016487 267.81319700087363 550.98866795767844 0.016083723201691495
decision_type=2 2 2 2 2 2 2 2 2 2 2 2 2 2 2 2 2 2 2
left_child=1 2 3 -1 -4 -3 7 -7 -9 -5 -11 12 -2 14 -13 18 -17 -18 -15
right_child=11 5 4 9 -6 6 -8 8 -10 10 -12 13 -14 15 -16 16 17 -19 -20
leaf_value=-0.39353460986743533 -0.42410834745846304 -0.34767779863203468 -0.38745432458735096 -0.45558991215021094 -0.46463044124014952 -0.38622689080666617 -0.41024680759735033 -0.42815879869362139 -0.37143026956791875 -0.38630138180603746 -0.44110418431317866 -0.4120856616814319 -0.36074165764677091 -0.42782085082606425 -0.47630656431559149 -0.45322685822129433 -0.4192047430247749 -0.44044275857384313 -0.40090997181357674
leaf_weight=11.72126856446266 134.43577414751053 5.7410295009613028 32.054081380367279 80.852832138538361 5.0234008133411399 29.183566629886627 581.75765609741211 229.40197047591209 7.8939155638217917 11.003639876842497 31.57566225528717 10.286011189222334 15.309412002563475 184.66978228092194 24.877794504165649 72.241287887096405 134.91419327259064 135.15340283513069 51.190846383571625
leaf_count=49 562 24 134 338 21 122 2432 959 33 46 132 43 64 772 104 302 564 565 214
internal_value=-0.421646 -0.416548 -0.431867 -0.441183 -0.39791 -0.413458 -0.413903 -0.421886 -0.426272 -0.445707 -0.426942 -0.428502 -0.41763 -0.431156 -0.457521 -0.429553 -0.43477 -0.429833 -0.42198
internal_weight=1789.29 1026.21 172.231 135.153 37.0775 853.978 848.237 266.479 237.296 123.432 42.5793 763.079 149.745 613.333 35.1638 578.17 342.309 270.068 235.861
internal_count=7480 4290 720 565 155 3570 3546 1114 992 516 178 3190 626 2564 147 2417 1431 1129 986
is_linear=0
shrinkage=1


Tree=1
num_leaves=20
num_cat=0
split_feature=0 4 7 0 1 7 7 1 3 4 0 2 1 0 1 3 1 1 2
split_gain=22.5872 17.5334 19.7379 10.5536 13.596 9.49298 8.86835 8.97441 8.62542 13.3163 15.0224 10.4062 8.96385 9.0252 16.3804 17.7221 14.0546 11.937 15.348
threshold=183.8609471420562 0.42294748967124224 0.019492462167232331 12.307096795021666 15.471279108086035 0.0085480596456715147 -0.12261507640999157 11.691423392159155 79.965158025898134 0.5482710379454736 20.482805572752657 -0.11630428265010039 12.078136807077948 14.419298827153758 14.112051568702256 71.003097246798205 18.118339153330222 13.16693968801099 0.19456584162276699
decision_type=2 2 2 2 2 2 2 2 2 2 2 2 2 2 2 2 2 2 2
left_child=1 2 3 -1 -5 -6 -3 -8 11 -10 -11 -9 -13 14 15 -14 17 -15 -19
right_child=-2 6 -4 4 5 -7 7 8 9 10 -12 12 13 16 -16 -17 -18 18 -20
leaf_value=0.0073454511710463856 -0.006524895939144789 0.069262519355506244 0.019493529793123576 -0.042089266202966269 0.0072928632938275466 -0.055496699727445392 0.056074074437203317 0.016307743802289148 0.083652721419975484 -0.064216703140713899 0.025037814386909427 -0.054123846456073293 0.049475023304891633 0.043182119213983232 -0.03911468185987773 -0.028297004866862221 0.0058832512768129423 -0.0095616042953422641 -0.060003899022175733
leaf_weight=28.394611373543739 761.93037359416485 5.8222714662551871 43.221154183149338 60.559340223670006 32.251131117343903 7.4009761214256278 9.3439171910285932 171.40622043609619 8.3919247984886152 5.2749241590499869 44.357316792011261 6.9426820278167716 37.36415608227253 9.1068046838045102 9.1041479110717756 9.111232638359068 402.66958433389664 119.23418237268925 17.263388156890869
leaf_count=119 3190 24 180 255 135 31 39 715 35 22 185 29 156 38 38 38 1681 498 72
internal_value=-1.83001e-06 0.00483659 -0.00973839 -0.0195625 -0.0271868 -0.00442667 0.00776434 0.00734288 0.00680096 0.0254011 0.0155518 0.00542119 0.00236612 0.0030156 0.0222144 0.0342283 0.00106939 -0.0122434 -0.0159412
internal_weight=1789.15 1027.22 171.827 128.606 100.211 39.6521 855.393 849.57 840.227 58.0242 49.6322 782.202 610.796 603.853 55.5795 46.4754 548.274 145.604 136.498
internal_count=7480 4290 720 540 421 166 3570 3546 3507 242 207 3265 2550 2521 232 194 2289 608 570
is_linear=0
shrinkage=0.05


Tree=2
num_leaves=20
num_cat=0
split_feature=0 4 7 1 7 5 2 1 3 7 7 4 3 0 3 0 1 1 4
split_gain=20.3839 15.8229 17.9822 10.0445 9.2777 8.4676 8.13987 23.0921 10.0947 10.2803 10.421 9.38382 8.85007 7.82254 9.67171 8.75251 7.69243 8.75205 7.63246
threshold=183.8609471420562 0.42294748967124224 0.023215015958833355 12.746619015182711 0.078789624225805391 -0.030596493072371996 -0.29223392346152705 243.35523032292636 42.694693889556142 -0.052058547002019 0.071400333011710018 4.6945435229885488 19.750156506127997 189.56178961603015 47.326270607954037 185.35083979574736 15.471279108086035 16.443068410754204 3.1186280233319703
decision_type=2 2 2 2 2 2 2 2 2 2 2 2 2 2 2 2 2 2 2
left_child=1 2 3 -1 -4 -2 7 -3 9 -8 11 12 -11 14 15 -7 -5 -18 -14
right_child=5 6 4 16 -6 13 8 -9 -10 10 -12 -13 18 -15 -16 -17 17 -19 -20
leaf_value=0.026216765708845586 0.018299059725055418 0.084923793091835231 0.031165072646808064 -0.03124691511716628 -0.042023108936496759 0.053698315924977494 0.018691982216916644 -0.044794181135733566 0.010371286570651467 0.035757898738310527 0.058624347493642773 0.011188816658263216 -0.010781571132739729 -0.006020359815383413 -0.046239184830178859 -0.022781475541782545 0.033297287742905378 -0.018384030733182555 -0.037704275857339403
leaf_weight=11.801219806075094 33.687551662325859 10.626153707504271 32.391171663999557 79.713311523199081 4.9982858151197425 5.4982888400554684 50.889032706618309 5.0667670220136634 580.01935634016991 8.3976036757230741 5.9938937276601783 47.54423151910305 113.85169084370136 682.78785870969296 27.196474149823189 11.704285576939581 11.081688106060026 31.41356548666954 34.242499485611916
leaf_count=49 141 44 134 338 21 23 212 21 2416 35 25 198 476 2862 115 49 46 132 143
internal_value=-3.54803e-06 0.00458816 -0.00927947 -0.0178339 0.0213812 -0.00620748 0.00736286 0.0430418 0.00669705 -0.00147072 -0.00635603 -0.00826493 -0.0141752 -0.00734277 -0.0276793 0.001663 -0.0220878 -0.00490685 -0.0170067
internal_weight=1788.9 1028.03 171.399 134.01 37.3895 760.874 856.631 15.6929 840.938 260.919 210.03 204.036 156.492 727.187 44.399 17.2026 122.209 42.4953 148.094
internal_count=7480 4290 720 565 155 3190 3570 65 3505 1089 877 852 654 3049 187 72 516 178 619
is_linear=0
shrinkage=0.05


Tree=3
num_leaves=20
num_cat=0
split_feature=0 4 7 0 1 7 1 1 7 3 2 1 6 7 1 4 0 3 2
split_gain=18.4019 14.2835 16.263 9.31456 10.7502 8.36491 7.88607 7.81205 7.79148 7.70714 13.7843 8.50278 8.33203 8.48619 13.5897 9.74105 15.3955 9.46128 8.97721
threshold=183.8609471420562 0.42294748967124224 0.023215015958833355 12.307096795021666 15.471279108086035 0.078789624225805391 16.443068410754204 11.691423392159155 -0.12261507640999157 42.694693889556142 -0.2397800009623314 192.52065219890787 -0.038873985592732745 -0.020324430518630362 36.922014356397447 5.1157585568607464 176.93609911825561 65.250548176130124 0.19060660293533788
decision_type=2 2 2 2 2 2 2 2 2 2 2 2 2 2 2 2 2 2 2
left_child=1 2 3 -1 -5 -4 -6 -3 -9 10 -10 -12 -11 14 -14 16 -15 18 -16
right_child=-2 7 5 4 6 -7 -8 8 9 12 11 -13 13 15 17 -17 -18 -19 -20
leaf_value=0.0078637773340416144 -0.0059061840916954603 0.052172857746363155 0.029442067424259213 -0.037372369063369347 0.031435841613667852 -0.040317903621110748 -0.017538531789653772 0.063724403572962454 0.031180415800885698 -0.011976842570020584 -0.0068118657955335421 0.045598719985672338 0.00451035553882039 0.010360636990133301 0.049534442809593106 -0.0069369506318926674 0.077792760381007797 0.094135207608298799 -0.014430490489686844
leaf_weight=29.328086197376251 759.81488400697708 9.4584835767745954 32.567686855792999 61.635730758309364 11.149175465106962 4.9504299759864798 31.284907728433609 5.9028252810239783 29.591322273015976 42.551714047789574 227.29541109502316 8.0113706290721876 35.788274124264717 368.22950308024883 22.866678163409237 83.795427471399307 8.6636489778757078 8.4262052178382856 7.2163116931915274
leaf_count=123 3190 39 134 264 46 21 132 24 122 177 951 33 149 1531 95 348 36 35 30
internal_value=-4.9043e-06 0.00435382 -0.00884518 -0.0170246 -0.0240385 0.0202374 -0.00467095 0.00698372 0.00647989 0.00607879 -0.000982747 -0.00502747 0.00931769 0.0110114 0.0266923 0.00848247 0.0119107 0.047307 0.0341905
internal_weight=1788.53 1028.71 170.916 133.398 104.07 37.5181 42.4341 857.797 848.339 842.436 264.898 235.307 577.538 534.986 74.2975 460.689 376.893 38.5092 30.083
internal_count=7480 4290 720 565 442 155 178 3570 3531 3507 1106 984 2401 2224 309 1915 1567 160 125
is_linear=0
shrinkage=0.05


Tree=4
num_leaves=20
num_cat=0
split_feature=0 1 4 7 7 6 3 0 3 4 0 4 3 4 1 3 5 5 3
split_gain=16.6097 13.3717 15.4453 11.677 12.243 7.70422 19.7844 8.81896 10.3725 8.6195 17.0051 16.0677 10.1569 8.48169 13.7616 10.4786 9.29929 8.34267 10.2869
threshold=183.8609471420562 11.543690315325252 0.42294748967124224 0.023215015958833355 0.06781332858549706 -0.018937551353644829 62.635940136249893 189.56178961603015 45.565659536277614 5.0480375295595419 193.39505335157909 4.0254096116411135 35.38444350975719 5.8672814772165784 207.64298317185595 45.565659536277614 -0.000663445135543561 -0.0081870455286082149 54.657980811060206
decision_type=2 2 2 2 2 2 2 2 2 2 2 2 2 2 2 2 2 2 2
left_child=1 -1 3 -3 -5 6 13 8 -7 10 -9 -12 -13 -2 -15 16 -16 -14 -19
right_child=5 2 -4 4 -6 7 -8 9 -10 -11 11 12 17 14 15 -17 -18 18 -20
leaf_value=0.071596234574062112 -0.022114081007245601 -0.017139449844030024 0.0063746354026134296 0.028096184073009775 -0.049313753094730031 0.0094102245780671463 0.058143272985591 0.080150821076293066 -0.050505859329401243 -0.0093045901089389045 -0.042948994576459093 -0.030568739790605037 -0.026247950452525471 0.067500568662692356 0.020935795580755687 -0.022990661886121533 -0.03758383387669522 0.060047024253821801 0.011540385362017944
leaf_weight=7.29274758696556 36.668869078159332 131.55667349696159 854.1442479789257 30.03507399559021 6.154451608657836 10.288904428482054 15.444383203983305 7.3889017552137366 24.243637561798096 483.2685890942812 16.653976455330849 11.66115067899227 8.0850104689598066 8.3439006358385068 49.853182613849633 31.222240269184113 7.8588703572750154 16.894822806119919 30.95885169506073
leaf_count=30 154 560 3551 123 26 43 64 31 104 2032 70 49 34 35 209 131 33 71 130
internal_value=-6.04923e-06 0.00413197 0.00365051 -0.0102204 0.0149317 -0.00561831 0.0045574 -0.00811265 -0.032654 -0.00663856 0.00742049 0.00104218 0.0118799 -0.00162117 0.0061036 0.000343283 0.012967 0.0207289 0.0286657
internal_weight=1788.02 1029.18 1021.89 167.746 36.1895 758.835 149.391 609.444 34.5325 574.911 91.6427 84.2538 67.5998 133.947 97.2782 88.9343 57.7121 55.9387 47.8537
internal_count=7480 4290 4260 709 149 3190 626 2564 147 2417 385 354 284 562 408 373 242 235 201
is_linear=0
shrinkage=0.05


Tree=5
num_leaves=20
num_cat=0
split_feature=0 0 0 0 2 1 1 3 2 0 0 1 2 1 0 1 0 2 1
split_gain=15.0068 12.0084 21.8442 16.5304 13.8136 10.8492 9.27712 7.50928 8.22125 7.48314 14.6843 12.9119 10.4986 9.828 8.00158 8.28939 7.32995 23.6398 9.24196
threshold=183.8609471420562 21.733563191441647 15.342185983037238 16.376092371740231 0.21000701773372854 11.543690315325252 17.464376020246341 62.826290405036424 0.099889468884057378 13.645556133676154 13.283417747329926 13.848853573088091 0.19890336375390255 14.626275588608205 14.324244827990166 14.038811562359408 31.686414833431126 0.33805482889017796 27.025760535717989
decision_type=2 2 2 2 2 2 2 2 2 2 2 2 2 2 2 2 2 2 2
left_child=1 2 5 -4 6 -1 -5 8 -8 10 -7 12 -11 -12 -13 -16 17 -3 -18
right_child=-2 16 3 4 -6 9 7 -9 -10 11 13 14 -14 -15 15 -17 18 -19 -20
leaf_value=0.067294999306753131 -0.0053482988571144441 0.05706229567743562 -0.032464681815178156 0.01295678524936294 -0.053587695245087899 0.0048959918264260723 -0.015357723598472699 0.037179722169217409 -0.082640734014312614 0.057564509399086139 -0.069397859552673968 0.028503332431032882 -0.011921974336081401 -0.00081250874836116371 -0.040640507032850867 0.004722628894913105 -0.056814051025111646 -0.052575606491865268 0.0081141392127918027
leaf_weight=7.3688268065452567 757.7167751789093 22.662633597850803 78.124757468700409 72.78687609732151 12.151647448539732 114.70789168775082 26.178297385573391 5.3186381459236136 5.4927191436290732 24.730675980448726 12.288076281547548 24.942931622266769 6.967329889535903 9.0850237011909467 12.937089368700979 45.451318815350533 5.5372535437345496 6.2786983102560034 536.79188783466816
leaf_count=30 3190 94 330 304 51 480 110 22 23 103 52 104 29 38 54 190 23 26 2227
internal_value=-7.43401e-06 0.00392231 -0.00210428 -0.0145092 -0.00300432 0.00749665 0.00259498 -0.0177946 -0.0270266 0.00574187 -0.00219383 0.0151299 0.0422911 -0.0402444 0.00479815 -0.00532846 0.00875957 0.0332768 0.00745121
internal_weight=1787.52 1029.8 458.532 200.053 121.928 258.479 109.777 36.9897 31.671 251.11 136.081 115.029 31.698 21.3731 83.3313 58.3884 571.27 28.9413 542.329
internal_count=7480 4290 1920 840 510 1080 459 155 133 1050 570 480 132 90 348 244 2370 120 2250
is_linear=0
shrinkage=0.05


Tree=6
num_leaves=20
num_cat=0
split_feature=0 4 7 7 1 1 6 5 1 0 0 2 0 3 0 1 1 2 1
split_gain=13.5427 11.0808 12.9853 8.66083 7.33144 10.2047 7.21218 7.04218 6.98784 6.90095 18.7756 12.5307 10.2628 9.71435 9.42526 8.92264 7.40084 12.4542 9.89781
threshold=183.8609471420562 0.42294748967124224 0.019492462167232331 0.0085480596456715147 12.746619015182711 15.471279108086035 0.007715662448936845 -0.030596493072371996 16.545797911545574 14.419298827153758 19.158008919909701 -0.029403337551219145 13.645556133676154 70.253517016695866 12.613072512760569 15.586321829177619 13.16693968801099 0.19456584162276699 15.003704889088917
decision_type=2 2 2 2 2 2 2 2 2 2 2 2 2 2 2 2 2 2 2
left_child=1 2 3 4 -1 6 -6 -2 -7 12 11 -11 14 -14 -3 -16 -13 18 -18
right_child=7 9 -4 -5 5 8 -8 -9 -10 10 -12 16 13 -15 15 -17 17 -19 -20
leaf_value=0.031290627285626101 0.01721429259438147 0.026926653620885446 0.01553667502025402 -0.048517653764369534 -0.031526989173942178 0.043845512111169091 0.022330337406166707 -0.0061302273191598273 -0.0069839451377456847 -0.047367927468535784 0.0082280256707226093 0.036872334355060536 0.049189859499025046 -0.025297791244798831 -0.017547372578755032 0.047981232290840815 -0.0146282916784691 -0.048958689220230597 0.017661806999402656
leaf_weight=9.4454247057437879 33.816594615578651 33.549625843763351 43.693983688950539 17.703049167990685 59.912500500679016 9.6878077536821348 6.9356809854507437 722.99441234767437 22.386050134897232 21.054463326931 597.96774813532829 9.4388280063867551 32.126929834485054 5.0675007551908484 37.185549631714821 6.0384016931056967 63.267483428120613 16.83538530766964 37.978477239608765
leaf_count=39 141 138 180 76 260 40 30 3049 95 88 2478 39 132 21 155 25 265 71 158
internal_value=-8.65808e-06 0.00372184 -0.00795254 -0.0160935 -0.0107967 -0.0148153 -0.0259391 -0.00508712 0.00836893 0.006025 0.00427552 -0.0116321 0.0174849 0.0390414 0.00704149 -0.008393 -0.0057319 -0.00913747 -0.00251592
internal_weight=1787.09 1030.27 169.764 126.071 108.367 98.922 66.8482 756.811 32.0739 860.51 746.542 148.575 113.968 37.1944 76.7736 43.224 127.52 118.081 101.246
internal_count=7480 4290 720 540 464 425 290 3190 135 3570 3099 621 471 153 318 180 533 494 423
is_linear=0
shrinkage=0.05


Tree=7
num_leaves=20
num_cat=0
split_feature=0 1 1 4 6 5 3 2 1 2 7 6 1 4 4 3 0 0 0
split_gain=12.5703 11.6059 11.5948 11.1029 12.2227 11.9098 9.08841 11.4628 13.0059 13.4195 10.2172 8.24265 10.5462 8.91093 6.88997 10.5763 8.64101 14.5296 12.0634
threshold=550.98866795767844 517.75627411191851 11.691423392159155 7.3982104524154719 -0.00077782739638954091 0.025874513021136195 76.845115911108664 -0.22467508612496465 243.35523032292636 -0.31458475895733645 0.06781332858549706 -0.0031050346021328497 754.50372042326524 13.669952695552508 0.4062739871423206 69.205891704052931 14.419298827153758 13.645556133676154 13.283417747329926
decision_type=2 2 2 2 2 2 2 2 2 2 2 2 2 2 2 2 2 2 2
left_child=1 2 -1 -2 11 -6 7 8 9 -4 -8 12 13 -5 15 -9 17 18 -16
right_child=3 -3 6 4 5 -7 10 14 -10 -11 -12 -13 -14 -15 16 -17 -18 -19 -20
leaf_value=0.04509189543454524 -0.081017008449768224 0.074043451443361524 0.10454161507231118 -0.0045046420727292216 -0.028662963131028809 0.047928029144179644 0.018101731694710379 -0.016724831530290137 -0.030843935363808424 0.021595512185045608 -0.019031586996830708 0.05378608298554273 -0.028892740634905822 0.048531609950622813 0.0099366824775466503 0.037225985110768904 -0.0015797796815650526 0.039906831407080033 -0.047011840264099311
leaf_weight=14.788596779108046 5.9066507816314688 5.4594833850860587 5.4176893532276145 20.141062706708908 77.458308339118958 5.4315277189016333 123.66318698227406 118.07400132715702 10.528512001037596 48.788856953382492 21.78811240196228 7.7930615097284308 21.048061594367027 13.052256956696509 50.67966964840889 9.8410989344120008 1180.5121020525694 34.64314641058445 11.388945102691649
leaf_count=60 25 23 22 85 328 23 515 505 44 201 91 33 89 55 211 41 4939 142 48
internal_value=-9.61043e-06 0.00126408 0.00102033 -0.0138212 -0.0110825 -0.0236442 0.000616846 -0.000562938 0.0200085 0.0298856 0.0125393 0.00570233 -0.00120604 0.0163502 -0.00151067 -0.0125741 -0.000402653 0.0139659 -0.000512779
internal_weight=1786.4 1635.57 1630.11 150.831 144.924 82.8898 1615.33 1469.87 64.7351 54.2065 145.451 62.0344 54.2414 33.1933 1405.14 127.915 1277.22 96.7118 62.0686
internal_count=7480 6842 6819 638 613 351 6759 6153 267 223 606 262 229 140 5886 546 5340 401 259
is_linear=0
shrinkage=0.05


Tree=8
num_leaves=20
num_cat=0
split_feature=0 0 0 0 2 1 1 2 3 0 4 4 5 6 3 2 0 1 2
split_gain=11.5848 9.77245 18.0113 14.2053 12.2882 8.61378 8.09039 18.8226 12.096 7.53951 6.87044 19.3924 12.5709 8.78826 12.5088 8.067 13.2373 12.3333 12.1623
threshold=183.8609471420562 21.733563191441647 15.342185983037238 16.376092371740231 0.21000701773372854 11.543690315325252 16.327900867691454 0.11622765150898044 46.994845432110658 18.271351336118141 4.0806505831800486 4.4828403996624901 0.010086076688926917 -0.018937551353644829 64.336301375400737 0.01048016923211669 237.37041061060265 762.30404264398783 -0.027389021597910408
decision_type=2 2 2 2 2 2 2 2 2 2 2 2 2 2 2 2 2 2 2
left_child=1 2 5 -4 6 -1 7 -5 -9 -8 12 -12 -2 14 -13 16 18 -18 -15
right_child=10 -3 3 4 -6 -7 9 8 -10 -11 11 13 -14 15 -16 -17 17 -19 -20
leaf_value=0.059617143804528198 -0.043820328247640442 0.0077868073612682156 -0.030136360102133039 0.065880915703127027 -0.050863386191191441 0.0051097050939283364 -0.026726811703949721 -0.073758130744346215 0.014124241630332109 0.0058849231359128741 0.036620665381026436 0.001394678797771747 0.037493369339876084 -0.0031715546879527443 0.056468880652339487 -0.011472857728585723 0.022831280136900858 -0.045683940696465142 -0.060625346679494353
leaf_weight=7.4634137302637091 24.457593083381656 573.15002489089966 77.032987833023071 14.539853498339651 11.940907031297682 251.19916285574436 28.932536140084267 5.2741295397281673 15.198603570461271 45.743712648749352 28.590364500880241 128.73399671912193 5.8996993005275717 38.889240652322769 11.207633852958677 430.23981481790543 68.040858149528503 7.269969329237937 12.070192426443098
leaf_count=30 104 2370 330 60 51 1050 122 22 63 192 120 541 25 164 46 1821 287 31 51
internal_value=-1.05351e-05 0.00343739 -0.00201359 -0.013336 -0.00269567 0.00668246 0.00254795 0.0223793 -0.00851577 -0.00675015 -0.00471401 -0.00373829 -0.0280177 -0.00539508 0.00580546 -0.0082116 0.00290045 0.0162173 -0.01678
internal_weight=1785.87 1030.48 457.325 198.663 121.63 258.663 109.689 35.0126 20.4727 74.6762 755.399 725.042 30.3573 696.452 139.942 556.51 126.27 75.3108 50.9594
internal_count=7480 4290 1920 840 510 1080 459 145 85 314 3190 3061 129 2941 587 2354 533 318 215
is_linear=0
shrinkage=0.05


Tree=9
num_leaves=20
num_cat=0
split_feature=0 4 6 5 1 1 3 2 1 2 7 6 1 4 2 3 0 4 4
split_gain=10.6465 10.3452 10.9332 10.7188 10.2971 9.62008 8.22911 10.0213 11.6443 11.9122 9.18279 7.42789 9.44041 7.91911 6.36275 9.77196 16.9616 10.4458 10.0182
threshold=550.98866795767844 7.3982104524154719 -0.00077782739638954091 0.025874513021136195 517.75627411191851 11.691423392159155 76.845115911108664 -0.22467508612496465 243.35523032292636 -0.31458475895733645 0.06781332858549706 -0.0031050346021328497 754.50372042326524 13.669952695552508 0.32040245078947777 57.878771153307078 177.77440562352942 9.5228757956302701 5.2768107215621365
decision_type=2 2 2 2 2 2 2 2 2 2 2 2 2 2 2 2 2 2 2
left_child=4 -2 11 -4 5 -1 7 8 9 -7 -8 12 13 -3 -9 16 18 -17 -16
right_child=1 2 3 -5 -6 6 10 14 -10 -11 -12 -13 -14 -15 15 17 -18 -19 -20
leaf_value=0.040945637745354035 -0.078386858993026942 -0.0041010784769624194 -0.02692187600490667 0.045450834881211793 0.069180575642792147 0.097866904297658278 0.017138107037617905 -0.00080694622449645984 -0.029664637290661412 0.020100446061956205 -0.01812303407646396 0.051106770715232779 -0.027257830716779292 0.045773222431835861 0.0051908572346871587 -0.051174625597026117 -0.057969774976311332 0.021384919595915 0.094320272994624185
leaf_weight=14.879636913537977 5.7743085920810691 20.099375307559967 76.69504950940609 5.4817651063203803 5.5445863604545584 5.4744843095540991 124.04775592684746 1353.9407502710819 10.46742708981037 49.003362432122231 21.692658647894859 7.8694147765636435 20.854354187846184 13.176993712782858 7.7521908134222048 24.512538835406307 6.3893180936574927 6.2184584885835639 5.3137954026460648
leaf_count=60 25 85 328 23 23 22 515 5677 44 201 91 33 89 55 32 102 27 26 22
internal_value=-1.16789e-05 -0.0127628 -0.0101345 -0.0220941 0.0011576 0.000926167 0.000557409 -0.000566818 0.0186349 0.0279152 0.0118897 0.00571709 -0.000881572 0.0156485 -0.00145496 -0.0189372 0.00879204 -0.0364921 0.0414388
internal_weight=1785.19 149.951 144.177 82.1768 1635.24 1629.69 1614.81 1469.07 64.9453 54.4778 145.74 62.0001 54.1307 33.2764 1404.13 50.1863 19.4553 30.731 13.066
internal_count=7480 638 613 351 6842 6819 6759 6153 267 223 606 262 229 140 5886 209 81 128 54
is_linear=0
shrinkage=0.05


Tree=10
num_leaves=20
num_cat=0
split_feature=0 1 0 4 6 5 4 6 4 3 1 1 4 3 4 0 7 7 7
split_gain=10.0831 11.6319 10.8785 9.62875 9.93563 9.68947 8.91833 12.6663 11.442 10.1012 9.59413 8.25379 8.43997 8.75842 11.0141 13.9364 8.59357 10.5796 8.39248
threshold=261.67456205016487 267.81319700087363 550.98866795767844 7.3982104524154719 -0.00077782739638954091 0.025874513021136195 4.5582043968951789 -0.010168065636526001 9.4313749521621677 34.314702141841998 241.47274437386559 11.543690315325252 0.42294748967124224 76.845115911108664 0.5482710379454736 20.482805572752657 0.023215015958833355 0.06781332858549706 -0.0084341597261238781
decision_type=2 2 2 2 2 2 2 2 2 2 2 2 2 2 2 2 2 2 2
left_child=11 6 -3 -4 -5 -6 -2 8 9 -8 -9 -1 16 -14 -15 -16 -13 -18 -17
right_child=1 2 3 4 5 -7 7 10 -10 -11 -12 12 13 14 15 18 17 -19 -20
leaf_value=0.054388125207444307 0.044196195711491998 0.0063476779980772644 -0.076246904699005719 0.0054228201906260697 -0.025760526845789878 0.042767074202638984 0.034642778248957763 -0.012953003513835807 0.052881633525833451 -0.035748144303177708 -0.05699275467366343 -0.014840351623761454 0.0018823493607723612 0.065547932964782243 -0.045849085433715686 0.07020993865414292 0.024752080587042799 -0.047518832966578071 0.013265560418399333
leaf_weight=7.4894848167896262 4.7545161098241797 168.76100181043148 5.642874836921691 62.033328637480736 76.158933401107788 5.5330885499715796 6.8800093084573772 19.276498347520828 7.3798760771751395 19.661789447069168 34.500273779034615 129.59699514508247 1093.9185004383326 10.487017065286635 9.5169303417205793 7.0424315929412833 30.280968874692917 6.0807376801967612 79.652828395366669
leaf_count=30 20 710 25 262 328 23 29 82 31 83 147 560 4560 43 40 29 123 26 329
internal_value=-1.23511e-05 -0.0068877 -0.00235086 -0.0121787 -0.00966332 -0.0211191 -0.0224989 -0.0261148 -0.00218945 -0.0175018 -0.0412065 0.00204206 0.00175518 0.00321608 0.01689 0.0115863 -0.00881362 0.0126663 0.0178913
internal_weight=1784.65 410.582 318.129 149.368 143.725 81.692 92.453 87.6984 33.9217 26.5418 53.7768 1374.07 1366.58 1200.62 106.699 96.2122 165.959 36.3617 86.6953
internal_count=7480 1740 1348 638 613 351 392 372 143 112 229 5740 5710 5001 441 398 709 149 358
is_linear=0
shrinkage=0.05


Tree=11
num_leaves=20
num_cat=0
split_feature=0 0 0 0 0 2 1 6 0 2 1 3 3 2 7 1 2 0 0
split_gain=9.4484 9.67207 8.22749 15.9397 12.7845 11.2739 7.84751 6.91234 6.8133 20.8097 8.13441 6.50246 10.9764 10.4933 6.42483 6.3855 6.36306 5.95896 12.0974
threshold=185.35083979574736 189.56178961603015 21.733563191441647 15.342185983037238 16.376092371740231 0.21000701773372854 17.464376020246341 -0.0086082922520998566 31.686414833431126 0.33805482889017796 27.025760535717989 58.824910727297734 46.994845432110658 0.11868458346395136 -0.10496972565376116 11.543690315325252 0.043087884533468949 13.645556133676154 13.283417747329926
decision_type=2 2 2 2 2 2 2 2 2 2 2 2 2 2 2 2 2 2 2
left_child=2 -2 3 15 -5 6 11 -8 9 -4 -10 12 13 -6 -12 -1 -9 18 -17
right_child=1 -3 8 4 5 -7 7 16 10 -11 14 -13 -14 -15 -16 17 -18 -19 -20
leaf_value=0.051679607061664981 -0.030500829851296048 -0.0030876980313471677 0.052486401260009634 -0.028711223491770771 0.019560369312264139 -0.049076637124597831 -0.043151348296231108 -0.035392935483007898 -0.054886489610456869 -0.050649520698200126 0.059310731424225743 -0.0075733735192016361 0.053679248044071738 -0.055556217655955545 0.0057819728464555062 0.0040946302592407792 0.020886337249400536 0.013170013302377334 -0.037231789354546727
leaf_weight=7.4879004955291739 33.713651716709137 705.83855500817299 22.958776578307155 76.321536988019943 21.936598807573322 11.779331564903258 14.603841900825499 7.7266236096620586 5.4803810864686957 6.214810147881507 5.6636441498994818 27.019911587238312 18.076093390583992 5.8995449244976035 547.5689580142498 114.80843710899353 14.350018441677092 115.53168077766895 20.937690183520317
leaf_count=30 145 2987 94 330 92 51 62 33 23 26 23 112 75 25 2262 480 60 480 90
internal_value=-1.31909e-05 -0.00433737 0.00304891 -0.00198741 -0.0126764 -0.00259493 0.00240015 -0.0164645 0.00695949 0.0305155 0.0057295 0.0118879 0.0233411 0.00364029 0.00632997 0.00617963 0.0011891 0.00482376 -0.00227962
internal_weight=1783.92 739.552 1044.37 456.479 197.714 121.392 109.613 36.6805 587.887 29.1736 558.713 72.9321 45.9122 27.8361 553.233 258.766 22.0766 251.278 135.746
internal_count=7480 3132 4348 1920 840 510 459 155 2428 120 2308 304 192 117 2285 1080 93 1050 570
is_linear=0
shrinkage=0.05


Tree=12
num_leaves=20
num_cat=0
split_feature=0 1 0 4 6 6 4 4 5 1 1 1 3 5 2 2 2 1 1
split_gain=8.70195 10.6597 9.42111 8.99754 9.04252 8.88433 12.4084 11.3797 8.77108 8.61409 8.0937 7.09658 7.12493 8.90472 7.57228 9.02081 7.49798 12.2295 11.6393
threshold=261.67456205016487 266.12280102894198 550.98866795767844 7.3982104524154719 -0.00077782739638954091 -0.010168065636526001 4.8508023136278977 9.4313749521621677 0.025874513021136195 241.47274437386559 517.75627411191851 11.691423392159155 76.845115911108664 0.041975580487722548 0.37900223291554996 0.24803235351249925 -0.22467508612496465 271.44721643307588 243.35523032292636
decision_type=2 2 2 2 2 2 2 2 2 2 2 2 2 2 2 2 2 2 2
left_child=11 5 10 -4 -5 7 -7 -2 -6 -8 -3 -1 16 14 15 -14 18 -18 -13
right_child=1 2 3 4 8 6 9 -9 -10 -11 -12 12 13 -15 -16 -17 17 -19 -20
leaf_value=0.036209931295414839 -0.017167425951131351 0.0036981858139355272 -0.074245273782608437 0.0053032377449882401 -0.024516422227536461 0.029842626221897695 -0.015172306291099114 0.054353337913423089 0.040478168523273073 -0.058895188735689011 0.064727152680852051 0.02609427144296371 0.012524406465685201 -0.030692051248592967 -0.020803604937533547 0.046623278779607973 -0.00083939948836338955 0.077471038188622457 -0.032171537337694824
leaf_weight=14.901700124144552 24.294011458754543 168.3950869590044 5.4973557144403449 62.066035747528076 75.560393154621124 6.6753005087375632 17.785082578659058 7.212931662797927 5.5737582743167868 30.728069052100182 5.6138050854206076 54.669636264443398 67.904575303196907 10.466647818684576 11.433820664882658 27.150857791304588 1172.0093778222799 5.0068127363920203 10.16482789814472
leaf_count=60 103 709 25 262 328 28 76 30 23 133 23 223 280 44 47 112 4910 21 43
internal_value=-1.3834e-05 -0.00641209 -0.00223031 -0.011472 -0.00906217 -0.0219779 -0.0340718 -0.00079407 -0.0200514 -0.0428662 0.00566708 0.00189302 0.00151667 0.0133146 0.0176399 0.0222641 0.00040556 -0.000506281 0.0169593
internal_weight=1783.11 409.402 322.706 148.698 143.2 86.6954 55.1885 31.5069 81.1342 48.5132 174.009 1373.71 1358.81 116.956 106.489 95.0554 1241.85 1177.02 64.8345
internal_count=7480 1740 1370 638 613 370 237 133 351 209 732 5740 5680 483 439 392 5197 4931 266
is_linear=0
shrinkage=0.05


Tree=13
num_leaves=20
num_cat=0
split_feature=0 2 4 4 6 7 1 1 3 3 1 1 0 0 0 2 0 0 3
split_gain=8.03667 11.8174 8.28284 9.94791 11.3327 10.3834 11.0467 21.6765 9.66755 12.0895 8.53079 13.6878 8.20336 13.0989 11.6213 10.4289 7.86117 14.1498 15.1126
threshold=172.08629438221274 -0.29223392346152705 3.4767669757081143 5.0480375295595419 0.022015617966163473 -0.021602767006120013 191.08795484074514 204.48525523412232 62.635940136249893 49.151833267933419 271.44721643307588 283.00835294115308 21.733563191441647 15.342185983037238 16.376092371740231 0.21000701773372854 328.28992263905025 440.98612769656933 45.565659536277614
decision_type=2 2 2 2 2 2 2 2 2 2 2 2 2 2 2 2 2 2 2
left_child=1 -1 -2 4 -4 8 -7 -8 9 -5 -9 -12 13 -3 -15 -16 -13 18 -18
right_child=2 12 3 5 -6 6 7 10 -10 -11 11 16 -14 14 15 -17 17 -19 -20
leaf_value=0.048608860999006749 -0.047263341853691715 0.0050369641787961451 0.0029752740109445703 0.010489133977884754 0.04217925629474055 -0.029109372313471285 0.042160104795604635 -0.016928272743132605 0.046626998155306798 -0.023062509791604166 0.036152333036770838 -0.042562009044536699 0.0069523333728864116 -0.027470118188297296 0.0022773231808806585 -0.047516515122646416 0.092306734903263216 -0.0091705107730658403 0.0088226633615407762
leaf_weight=14.064312145113943 10.728501379489897 257.02120222151279 118.45709067583084 105.98410266637802 21.830912739038467 59.998771145939827 21.974287658929825 184.29117903113365 13.263415157794951 35.957524105906487 20.705602630972862 14.0175624191761 485.53297500312328 75.708765655755997 109.57577972114086 11.631643652915953 6.8914349079132071 189.32190452516079 25.404034838080406
leaf_count=57 46 1072 498 445 91 254 92 784 55 152 87 59 2002 330 459 51 29 810 107
internal_value=-1.44799e-05 0.00311573 -0.00361568 -0.00304328 0.009076 -0.00555164 -0.00892415 -0.00630617 0.00580422 0.00198963 -0.00872319 -0.00282429 0.00243468 -0.00239742 -0.012101 -0.00250113 -0.00624923 -0.0039524 0.0266371
internal_weight=1782.36 953.535 828.826 818.098 140.288 677.81 522.605 462.606 155.205 141.942 440.632 256.341 939.47 453.937 196.916 121.207 235.635 221.617 32.2955
internal_count=7480 3971 3509 3463 589 2874 2222 1968 652 597 1876 1092 3914 1912 840 510 1005 946 136
is_linear=0
shrinkage=0.05


Tree=14
num_leaves=20
num_cat=0
split_feature=0 1 4 2 1 3 2 4 4 0 1 0 6 4 7 4 0 4 0
split_gain=7.41178 9.4115 8.49557 10.0011 10.6438 8.38718 7.85584 7.26381 7.09061 11.1066 10.1306 8.54525 7.11785 7.79877 6.70543 12.571 20.8677 10.1134 8.51581
threshold=261.67456205016487 266.12280102894198 11.937955666909774 0.25511161876560745 234.87766074953612 45.565659536277614 0.097445487808945505 6.2892054690323613 9.8256876630041763 557.98195258113071 269.49276743198533 321.68492967116191 -0.034977428261988346 10.525991661927273 0.0227160437660523 6.4820504421960763 240.18679067149608 0.41091504501698489 193.39505335157909
decision_type=2 2 2 2 2 2 2 2 2 2 2 2 2 2 2 2 2 2 2
left_child=14 2 3 4 -2 8 -6 -8 9 10 -3 -10 -13 -14 17 16 -16 -1 -17
right_child=1 5 -4 -5 6 -7 7 -9 11 -11 -12 12 13 -15 15 18 -18 -19 -20
leaf_value=-0.014126456035723968 0.023166881020996549 -0.020920433920269849 0.031974247142319383 -0.0702920677051527 -0.012537327514189241 -0.0077602613261598744 0.0027662382190563675 -0.066450990212269453 -0.057440668492411279 -0.033150372870870276 0.051673054914987616 0.052844028071555062 0.049215845262667729 -0.0076046048463563019 0.0087912568991980102 -0.0365234556654426 0.084834315493957216 0.0014285735500456124 0.0037924131516063283
leaf_weight=118.78596478700638 12.61855264008045 5.8753890395164481 7.0431564003229132 10.694919914007185 33.643163487315178 213.62719415128231 4.8773899376392391 17.006206750869751 5.9671801179647437 6.5060339272022238 26.403758928179741 6.9627469331026068 6.8711249679327002 49.858096107840538 324.44867487251759 25.014425188302994 9.2798873484134656 868.55345459282398 27.495907709002495
leaf_count=517 54 25 30 46 145 911 21 74 25 28 111 29 29 212 1342 104 39 3622 116
internal_value=-1.5413e-05 -0.00593314 -0.0206398 -0.0253401 -0.0182852 -0.00201146 -0.0277052 -0.0510239 0.00931324 0.0264475 0.0384597 -0.000226849 0.00513341 -0.00072243 0.00174216 0.00732766 0.0109058 -0.000442839 -0.0154129
internal_weight=1781.53 407.955 85.8834 78.8402 68.1453 322.072 55.5268 21.8836 108.444 38.7852 32.2791 69.6591 63.692 56.7292 1373.58 386.239 333.729 987.339 52.5103
internal_count=7480 1740 370 340 294 1370 240 95 459 164 136 295 270 241 5740 1601 1381 4139 220
is_linear=0
shrinkage=0.05


Tree=15
num_leaves=20
num_cat=0
split_feature=0 2 3 1 2 4 1 2 6 4 6 2 6 7 3 4 4 4 4
split_gain=7.05882 10.6107 7.89118 8.70818 8.60011 8.95824 8.54292 10.9725 8.60473 12.6359 13.2032 10.2812 8.57545 13.3431 8.55276 7.79698 7.65984 7.64383 8.61859
threshold=172.08629438221274 -0.29223392346152705 42.694693889556142 11.691423392159155 -0.2397800009623314 0.57944552956778372 18.406446186538037 0.20469338683158297 0.005975362533378604 4.3989221352903503 0.017373346992475395 -0.16079509131251546 0.079232243174855235 0.03796219569624127 50.211862859694321 3.8495349992658299 0.7066083439190155 3.4767669757081143 5.0480375295595419
decision_type=2 2 2 2 2 2 2 2 2 2 2 2 2 2 2 2 2 2 2
left_child=1 -1 4 -4 5 -3 7 -5 -8 10 -10 -11 13 14 -13 16 -12 -2 -19
right_child=17 2 3 6 -6 -7 8 -9 9 11 15 12 -14 -15 -16 -17 -18 18 -20
leaf_value=0.045956800426089822 -0.045576911961453276 -0.030337518665984154 0.050654728704978794 0.0013218703120658698 -0.006830328536458455 0.045903227821846422 0.018400203266087201 -0.032511667351541609 -0.012475855516487482 0.025378447220026325 0.076078069745436447 -0.065946434149200026 0.027404177380607408 -0.066536549698738345 0.0078661314024404752 0.066524799174845148 0.013099641639124303 0.0084142378225028711 -0.0051901320538790168
leaf_weight=14.107487887144087 10.602430075407026 5.1452996432781246 10.444666564464567 256.52714997529984 274.72577285766602 15.339238673448561 159.79829916357994 26.432742118835449 40.648153021931648 11.675487130880354 5.1477447897195807 5.0996090620756176 6.2695897668600074 18.668926298618317 17.031353250145912 8.7940007746219617 77.753899455070496 140.63000194728374 676.17963965237141
leaf_count=57 46 21 42 1078 1155 62 657 114 167 48 21 21 26 77 70 36 319 589 2874
internal_value=-1.61058e-05 0.00291598 0.00226969 0.00537151 -0.00449999 0.0267531 0.00462532 -0.00183869 0.00983798 0.00267781 0.011244 -0.0166206 -0.0270384 -0.0354044 -0.0091424 0.0217589 0.0170103 -0.0033954 -0.00284787
internal_weight=1781.02 953.609 939.502 644.292 295.21 20.4845 633.847 282.96 350.887 191.089 132.344 58.745 47.0695 40.7999 22.131 91.6956 82.9016 827.412 816.81
internal_count=7480 3971 3914 2676 1238 83 2634 1192 1442 785 543 242 194 168 91 376 340 3509 3463
is_linear=0
shrinkage=0.05


Tree=16
num_leaves=20
num_cat=0
split_feature=5 5 3 7 7 2 2 4 0 3 7 6 0 2 1 0 1 0 4
split_gain=6.67373 8.51364 13.031 9.2003 8.70056 8.40142 8.00972 8.49975 7.96418 7.54948 7.1497 7.05227 6.88037 6.8706 6.69294 7.38308 7.3255 6.49282 6.40188
threshold=0.020713375768558698 0.00058906327694019389 67.810086555579815 -0.054705217132724242 -0.021136996597551801 0.048266211099230329 0.0070625212633002648 4.5295575715446494 81.252297560178476 45.830929973544919 0.011896137966785682 0.020155271470853723 13.645556133676154 -0.015161478508703358 249.92630477526782 178.77322906089191 175.7944142598493 14.324244827990166 3.5728166473987648
decision_type=2 2 2 2 2 2 2 2 2 2 2 2 2 2 2 2 2 2 2
left_child=1 2 3 5 -4 -1 11 8 -8 -7 -5 12 -3 14 15 16 18 -14 -13
right_child=-2 6 4 10 -6 9 7 -9 -10 -11 -12 13 17 -15 -16 -17 -18 -19 -20
leaf_value=0.0051450210610753926 0.0072326369049174506 -0.029956917338751738 0.05184769612535714 -0.0052682779176533006 0.011540083975752716 0.063380102745146313 -0.0077810120710842152 -0.016416529067906749 0.016343770822790364 0.0071062679995690719 0.0080495549370512703 0.0078748709291808754 0.053930979451078401 0.064754132640095288 -0.038236881162353901 0.071080593603886869 -0.031470647654002468 -0.001147184046221595 0.067823517862026325
leaf_weight=73.808984458446503 269.45590388774872 20.423246011137962 15.049248293042181 554.04280564188957 121.27527169883251 13.784380421042444 142.4563674479723 224.02810868620872 45.021824523806572 10.499769940972326 123.18296793103218 16.474296927452095 5.6183973401784888 6.9979051649570456 5.8782787024974814 5.7821358293294898 8.0508498847484571 112.31901642680168 6.1032015532255164
leaf_count=306 1122 86 62 2342 508 57 596 957 187 44 516 68 23 29 25 24 33 470 25
internal_value=-1.62703e-05 -0.00130914 0.00173372 -0.000772927 0.0159898 0.0135383 -0.005939 -0.00984284 -0.00198758 0.0390489 -0.00284585 0.00262204 -0.0031632 0.0188627 0.0112687 0.0192611 0.00947841 0.00147667 0.0240803
internal_weight=1780.25 1510.8 911.643 775.319 136.325 98.0931 599.154 411.506 187.478 24.2842 677.226 187.647 138.361 49.2867 42.2888 36.4105 30.6283 117.937 22.5775
internal_count=7480 6358 3835 3265 570 407 2523 1740 783 101 2858 783 579 204 175 150 126 493 93
is_linear=0
shrinkage=0.05


Tree=17
num_leaves=20
num_cat=0
split_feature=1 2 7 3 6 1 1 3 1 2 2 4 2 2 0 5 3 4 4
split_gain=6.26983 5.99503 8.0126 6.96364 8.45061 6.95033 11.0368 12.2436 5.66385 6.47039 8.1939 8.58759 8.57221 8.3485 7.15107 7.10427 6.89485 6.14966 8.02728
threshold=11.691423392159155 -0.12136487375184669 -0.10496972565376116 76.845115911108664 0.091730766137468681 12.078136807077948 13.16693968801099 71.533041459376662 13.32482778119004 0.048266211099230329 0.24803235351249925 0.5482710379454736 0.37900223291554996 0.11462988300594744 257.10234134459228 0.0083803786649360185 81.787715008787004 8.8939663932970312 7.2603601895967795
decision_type=2 2 2 2 2 2 2 2 2 2 2 2 2 2 2 2 2 2 2
left_child=-1 -2 -3 5 8 -4 7 -7 -5 16 11 -11 14 17 -12 -15 -10 18 -13
right_child=1 2 3 4 -6 6 -8 -9 9 10 12 13 -14 15 -16 -17 -18 -19 -20
leaf_value=0.032296508999350701 0.0071608037812691573 0.053478769925219764 -0.053569482383803046 -0.041990525810630619 -0.053137811155282239 0.045005471144344722 -0.0032154912349067616 -0.038211648398862444 0.068892527162103145 0.040537948996811346 0.048659721170688924 0.0072079292144144897 -0.0099535285176321521 -0.0047784711484410566 -0.0038706068826137585 -0.049722474436468073 0.012576290351972117 -0.030545069137725363 0.079129014769539471
leaf_weight=14.886603862047194 234.21291835606098 6.6155602335929862 6.7119037359952918 4.9754382222890845 5.4063125401735297 22.37717600166798 1332.0399785190821 5.5079555213451377 9.6570494621992129 9.9968211352825147 27.65055251121521 17.666648685932167 13.819890737533568 18.93074843287468 8.4612874537706357 16.41813613474369 12.431295946240423 7.0260058045387259 4.9714305698871604
leaf_count=60 970 27 28 21 23 92 5626 23 40 41 113 73 57 79 36 69 51 30 21
internal_value=-1.64098e-05 -0.000288967 -0.00142889 -0.00166723 0.00829134 -0.00281427 -0.00256377 0.0285682 0.0104762 0.0122516 0.0078414 -0.0026056 0.0235354 -0.00923963 0.0363515 -0.0256532 0.0371978 0.0103194 0.0230021
internal_weight=1779.76 1764.88 1530.66 1524.05 157.412 1366.64 1359.93 27.8851 152.005 147.03 124.942 75.0098 49.9317 65.013 36.1118 35.3489 22.0883 29.6641 22.6381
internal_count=7480 7420 6450 6423 654 5769 5741 115 631 610 519 313 206 272 149 148 91 124 94
is_linear=0
shrinkage=0.05


Tree=18
num_leaves=20
num_cat=0
split_feature=0 4 1 6 5 6 1 4 4 2 1 1 0 0 4 2 1 3 2
split_gain=6.02118 8.6478 8.17915 7.93795 7.95998 6.80537 8.44289 7.03707 6.36665 6.42506 11.2208 5.81792 13.3182 11.6768 10.5381 10.3759 8.32985 7.73693 12.9268
threshold=550.98866795767844 7.3982104524154719 517.75627411191851 -0.00077782739638954091 0.025874513021136195 -0.0031050346021328497 754.50372042326524 13.669952695552508 15.229992632153415 -0.27250513627293121 243.35523032292636 271.44721643307588 261.67456205016487 261.67456205016487 11.937955666909774 0.25511161876560745 234.87766074953612 37.322274541708573 0.067019199854294345
decision_type=2 2 2 2 2 2 2 2 2 2 2 2 2 2 2 2 2 2 2
left_child=2 -2 8 5 -5 6 7 -3 9 10 -1 13 -13 17 15 16 -15 18 -11
right_child=1 3 -4 4 -6 -7 -8 -9 -10 11 -12 12 -14 14 -16 -17 -18 -19 -20
leaf_value=0.045862397419825229 -0.072254730623231775 -0.003398226356302032 0.060842415555005802 -0.022091548373968459 0.039804804374796346 0.049389216854672527 -0.025402691435049415 0.043562072151761617 -0.036722665610156711 -0.010444837949790547 -0.027072269557816164 0.085802703754771947 0.0069569655176460734 0.022378662655731289 0.049348731568297804 -0.067819049237194451 -0.021601052718994835 0.0028037179310393024 0.019901568596714804
leaf_weight=18.865837708115581 5.3260278254747382 20.019539445638657 5.6629388183355323 74.314055651426315 5.5845734924077979 7.9152831882238379 20.617892548441887 13.262538656592367 11.317798897624014 258.37536251544952 7.3193893879652014 5.5626472532749167 144.08389307558537 12.659114986658095 5.6681818068027487 10.456264853477476 72.011223986744881 1039.5508774966002 40.608132764697075
leaf_count=76 25 85 23 328 23 33 89 55 48 1086 31 23 607 54 24 46 313 4340 171
internal_value=-1.64291e-05 -0.00970728 0.000856622 -0.00735656 -0.0177653 0.00609708 -0.000260431 0.0153149 0.000647768 0.000909631 0.0254754 0.000504803 0.00988781 -0.000470745 -0.0168822 -0.0208286 -0.0150256 0.000765079 -0.00632317
internal_weight=1779.18 147.04 1632.14 141.714 79.8986 61.8153 53.9 33.2821 1626.48 1615.16 26.1852 1588.98 149.647 1439.33 100.795 95.1266 84.6703 1338.53 298.983
internal_count=7480 638 6842 613 351 262 229 140 6819 6771 107 6664 630 6034 437 413 367 5597 1257
is_linear=0
shrinkage=0.05


Tree=19
num_leaves=20
num_cat=0
split_feature=5 5 3 7 2 7 2 4 2 4 3 4 0 7 3 0 7 4 1
split_gain=5.77719 7.67584 11.3292 7.94573 7.81662 8.03111 7.51963 9.51065 7.31681 6.85099 7.59943 6.80786 11.4612 9.5575 7.65072 8.53413 6.42236 6.36958 7.58099
threshold=0.020713375768558698 0.00058906327694019389 67.810086555579815 -0.054705217132724242 0.33805482889017796 -0.021136996597551801 -0.2397800009623314 5.710689948224057 0.046822140206643249 9.2213778109806004 40.49149773009345 4.9454102865775491 190.61724009700498 0.031086073682483065 79.965158025898134 723.67162855782283 0.023215015958833355 6.2892054690323613 14.326561496373506
decision_type=2 2 2 2 2 2 2 2 2 2 2 2 2 2 2 2 2 2 2
left_child=1 2 3 8 5 -4 7 -3 -1 10 -10 13 -13 -7 15 -14 -5 18 -18
right_child=-2 6 4 16 -6 11 -8 -9 9 -11 -12 12 14 -15 -16 -17 17 -19 -20
leaf_value=0.0046535339424039757 0.0067227643575003193 0.08662444975392386 0.055261120254241763 -0.0042525554161861262 -0.022609191768487528 0.014503312590577752 -0.0063765418326658246 -0.0085941849003231506 0.063186828312476712 0.087567593265325552 -0.00098472205928686702 -0.051247363393290571 0.036532298925726472 0.060787041439638846 -0.028889886208448758 -0.036396061392440122 -0.016715304016453273 -0.012810938999002234 0.031135036132257755
leaf_weight=73.359741598367691 269.73876233398914 4.9583104252815229 13.428826138377188 606.90069355070591 12.584663704037665 49.77269421517849 587.06350201368332 5.5666237473487854 7.3096522688865724 5.1194005608558646 12.508299574255942 8.9071455895900709 23.958513125777248 14.375416085124014 8.8272337913513166 4.818237677216529 10.456248462200163 19.025497034192085 39.723982468247414
leaf_count=304 1122 20 55 2570 52 207 2480 23 30 21 52 37 101 59 38 21 43 81 164
internal_value=-1.68957e-05 -0.0012219 0.00166652 -0.000675814 0.0149385 0.0187464 -0.00562555 0.0362634 0.012607 0.0360042 0.0226843 0.0143153 -0.000249205 0.0248754 0.0118306 0.0243215 -0.00260696 0.0118241 0.0211643
internal_weight=1778.4 1508.66 911.076 774.404 136.673 124.088 597.588 10.5249 98.2971 24.9374 19.818 110.659 46.5111 64.1481 37.604 28.7768 676.106 69.2057 50.1802
internal_count=7480 6358 3835 3265 570 518 2523 43 407 103 82 463 197 266 160 122 2858 288 207
is_linear=0
shrinkage=0.05


Tree=20
num_leaves=20
num_cat=0
split_feature=1 2 7 3 6 1 1 3 1 2 2 2 4 2 5 0 3 4 4
split_gain=5.57764 5.25532 6.98687 6.06856 7.84114 6.39007 9.7826 11.0376 6.08721 5.69328 7.42821 7.60784 7.546 7.73265 6.45744 6.04597 5.84765 5.51632 7.06881
threshold=11.691423392159155 -0.12136487375184669 -0.10496972565376116 76.845115911108664 0.091730766137468681 12.078136807077948 13.16693968801099 71.533041459376662 13.278895164282822 0.048266211099230329 0.24803235351249925 0.37900223291554996 0.5482710379454736 0.11462988300594744 0.0083803786649360185 257.10234134459228 81.787715008787004 8.8939663932970312 7.2603601895967795
decision_type=2 2 2 2 2 2 2 2 2 2 2 2 2 2 2 2 2 2 2
left_child=-1 -2 -3 5 8 -4 7 -7 -5 16 12 15 -11 17 -15 -12 -10 18 -14
right_child=1 2 3 4 -6 6 -8 -9 9 10 11 -13 13 14 -16 -17 -18 -19 -20
leaf_value=0.030480880149341655 0.0066986541752963652 0.049797310287601988 -0.051577758038131388 -0.047682474995490137 -0.051736306564090763 0.04232019387801772 -0.0030149491710099179 -0.036856388469132126 0.062628790199492176 0.037722080184611047 0.045553953525187638 -0.0093114031417942267 0.0069788282996174197 -0.0048487676570983934 -0.047832559748650055 -0.0028287909437873775 0.011605138940503636 -0.029015961992938544 0.074072571741942636
leaf_weight=14.866488322615622 234.31752377748489 6.6497619748115531 6.6376191377639762 4.466438725590705 5.3547385931015006 22.527478098869327 1330.0121249258518 5.4706427305936804 10.226310983300211 10.051324918866156 27.825845956802368 13.788454249501227 17.660368993878372 18.917594701051712 16.237091064453125 8.4079644531011564 12.453983202576635 6.9494791477918616 5.0478398948907843
leaf_count=60 970 27 28 19 23 92 5626 23 42 41 113 57 73 79 69 36 51 30 21
internal_value=-1.68574e-05 -0.000274029 -0.00134281 -0.00156624 0.0077304 -0.00263843 -0.00239923 0.0268496 0.00982487 0.0115655 0.00738018 0.0222981 -0.00258767 -0.00883904 -0.0247019 0.0343269 0.0346112 0.009964 0.0218932
internal_weight=1777.87 1763 1528.69 1522.04 157.387 1364.65 1358.01 27.9981 152.033 147.566 124.886 50.0223 74.8637 64.8124 35.1547 36.2338 22.6803 29.6577 22.7082
internal_count=7480 7420 6450 6423 654 5769 5741 115 631 612 519 206 313 272 148 149 93 124 94
is_linear=0
shrinkage=0.05


Tree=21
num_leaves=20
num_cat=0
split_feature=5 5 3 7 7 2 4 0 5 5 2 2 6 0 2 5 4 3 1
split_gain=5.20443 6.90476 9.95807 7.41141 6.93798 6.83068 7.118 7.09761 6.77226 9.19313 6.58594 6.12648 6.11343 6.43495 6.20662 6.01394 5.98263 7.2334 5.90571
threshold=0.020713375768558698 0.00058906327694019389 67.810086555579815 -0.0054028893368301958 -0.054705217132724242 0.0070625212633002648 4.5295575715446494 81.252297560178476 -0.0049505076715478094 -0.0024660275560725027 0.048266211099230329 0.33805482889017796 0.020155271470853723 13.645556133676154 -0.015161478508703358 0.0030151302606257206 8.5120591884478287 40.49149773009345 249.92630477526782
decision_type=2 2 2 2 2 2 2 2 2 2 2 2 2 2 2 2 2 2 2
left_child=1 2 4 8 10 12 7 -7 -4 -10 -1 -5 13 -3 18 -8 17 -12 -14
right_child=-2 5 3 11 -6 6 15 -9 9 -11 16 -13 14 -15 -16 -17 -18 -19 -20
leaf_value=0.0043237154026420262 0.0063775230707526749 -0.028858482928304091 0.04483236928459694 0.010565139095715045 -0.0024295622424521856 -0.0072667476558862278 0.0032721868074604699 0.01550172927942095 -0.053227515878906208 0.040269210268598754 0.062645910335289434 -0.033055249558785915 0.017871583730172318 0.0016429016152399653 0.061069027536917952 -0.018718602523157782 0.081995812707470431 -0.0011860091615196237 -0.036427484140126351
leaf_weight=73.920350253582001 269.89667154848576 20.27044415473938 28.877920463681221 88.528657495975494 675.38264414668083 142.01618702709675 37.382579773664474 45.097389191389084 4.7857301086187363 5.8342817276716215 6.8793438225984636 8.8546783626079542 36.504086330533028 117.68656341731548 7.058506876230239 184.68983724713326 5.170793652534484 12.50721564888954 5.803724378347396
leaf_count=306 1122 86 119 370 2858 596 161 187 20 24 28 37 150 493 29 796 21 52 25
internal_value=-1.67183e-05 -0.00116171 0.00157711 0.0140085 -0.000621767 -0.00534329 -0.00896346 -0.00177918 0.032277 -0.00186352 0.0117765 0.00659891 0.00256455 -0.00283876 0.0176644 -0.0150168 0.0342102 0.0214648 0.0104229
internal_weight=1777.15 1507.25 910.742 136.881 773.86 596.509 409.186 187.114 39.4979 10.62 98.4777 97.3833 187.323 137.957 49.3663 222.072 24.5574 19.3866 42.3078
internal_count=7480 6358 3835 570 3265 2523 1740 783 163 44 407 407 783 579 204 957 101 80 175
is_linear=0
shrinkage=0.05


Tree=22
num_leaves=20
num_cat=0
split_feature=1 0 4 1 6 5 6 1 1 4 1 0 0 4 2 1 3 3 1
split_gain=5.17585 4.59706 8.13586 7.56146 7.01356 7.01554 6.15269 7.50001 6.2973 5.68034 5.6751 11.7638 10.3399 9.49333 9.65831 7.44984 6.46745 17.5159 15.7403
threshold=11.543690315325252 550.98866795767844 7.3982104524154719 517.75627411191851 -0.00077782739638954091 0.025874513021136195 -0.0031050346021328497 754.50372042326524 605.45754840119241 15.229992632153415 271.44721643307588 261.67456205016487 261.67456205016487 11.937955666909774 0.25511161876560745 234.87766074953612 45.565659536277614 55.030772918581171 285.2592457366265
decision_type=2 2 2 2 2 2 2 2 2 2 2 2 2 2 2 2 2 2 2
left_child=-1 3 -3 9 6 -6 7 8 -4 10 12 -12 -2 14 15 -14 18 -18 -13
right_child=1 2 4 -5 5 -7 -8 -9 -10 -11 11 16 13 -15 -16 -17 17 -19 -20
leaf_value=0.041790970744789928 0.00080861163994496105 -0.070441593679787931 -0.0037329682308983136 0.058098261763274817 -0.020421155590699874 0.037546580183597522 0.047192207621416488 -0.023759627554015172 0.040327305837319818 -0.03510621807999717 0.080788632517319714 0.10579538466837882 0.021197789133708515 0.046770730282815184 -0.065575148674826653 -0.020346008674815293 -0.033845844448754894 0.013226910051532601 0.012311159507663752
leaf_weight=7.3723224103450766 1356.4956172406673 5.1464167684316626 19.343969911336899 5.6925099343061438 73.395045965909958 5.6190960109233847 7.9708206206560126 20.39881294965744 13.963613182306288 11.204845353960989 5.6297387182712546 5.0293135941028586 12.713107809424399 5.7069015502929679 10.20494197309017 71.387199714779854 27.784590050578117 68.442785456776619 43.005707114934921
leaf_count=30 5673 25 82 23 328 23 33 89 58 48 23 21 54 24 46 313 118 289 180
internal_value=-1.66661e-05 -0.000190886 -0.00869431 0.000573065 -0.00643563 -0.0162988 0.00619997 0.000116118 0.0147385 0.000370628 0.000618084 0.00988205 -0.000335289 -0.0158504 -0.0196399 -0.014066 0.00711497 -0.000364827 0.022099
internal_weight=1776.51 1769.14 145.838 1623.3 140.691 79.0141 61.6772 53.7064 33.3076 1617.6 1606.4 149.892 1456.51 100.012 94.3052 84.1003 144.262 96.2274 48.035
internal_count=7480 7450 638 6812 613 351 262 229 140 6789 6741 631 6110 437 413 367 608 407 201
is_linear=0
shrinkage=0.05


Tree=23
num_leaves=20
num_cat=0
split_feature=2 3 7 4 2 1 7 2 0 4 1 0 4 6 6 1 4 2 3
split_gain=4.7478 6.71806 10.4033 8.00182 7.38339 8.05802 6.19247 5.85056 5.00552 12.436 7.58066 11.2116 7.65724 12.412 11.382 10.4338 7.35087 9.82792 8.60829
threshold=-0.11630428265010039 37.800780493385538 0.055626825374772822 8.0381841750757115 -0.22467508612496465 238.87635230831117 -0.10496972565376116 -0.047452914347568938 14.049699213930646 0.77417972446887928 15.207171339915874 15.342185983037238 5.0480375295595419 -0.016763218776478458 0.017044264019233538 226.59925571200637 4.8820102275101034 0.33805482889017796 41.84862707261248
decision_type=2 2 2 2 2 2 2 2 2 2 2 2 2 2 2 2 2 2 2
left_child=1 2 4 -3 -1 -6 -2 -8 9 -9 11 -10 14 -14 16 -16 17 18 -12
right_child=6 3 -4 -5 5 -7 7 8 10 -11 12 -13 13 -15 15 -17 -18 -19 -20
leaf_value=0.01215681223725501 0.048884278986022295 0.017241919701125721 0.067918026833903966 -0.039783986688996908 -0.019468951237831073 0.031699238562518654 -0.0091125196788314298 0.021352430012255907 0.0023200654917863443 -0.063418004696605329 -0.014241083258063354 -0.027278212789604152 0.010383904010473587 -0.0068242473915920273 0.014091708094939785 0.088561742681852629 0.032472196308418431 -0.046683983289949167 0.0048299361363356788
leaf_weight=41.665518760681152 6.1778233349323264 121.79137256741524 5.11749044060707 6.4787829220294944 70.232290267944336 8.6409466713666898 205.86647520959377 52.691841334104538 65.058702036738396 4.7134521901607505 78.340627789497375 62.954023599624634 133.5676176995039 486.33153992891312 151.02293069660664 4.8546752929687491 16.752129226922989 11.600865587592123 241.81514446437359
leaf_count=170 25 502 21 27 294 36 866 218 272 20 331 276 562 2093 622 20 70 48 1007
internal_value=-1.71101e-05 0.00631213 -0.00190478 0.0143616 -0.00486912 -0.0138632 -0.00107324 -0.00127688 -4.52281e-05 0.0143921 -0.000707033 -0.0122358 0.000605644 -0.00311646 0.00518017 0.016411 0.000156955 -0.00147481 0.000163346
internal_weight=1775.67 253.926 125.656 128.27 120.539 78.8732 1521.75 1515.57 1309.7 57.4053 1252.3 128.013 1124.29 619.899 504.386 155.878 348.509 331.757 320.156
internal_count=7480 1050 521 529 500 330 6430 6405 5539 238 5301 548 4753 2655 2098 642 1456 1386 1338
is_linear=0
shrinkage=0.05


Tree=24
num_leaves=20
num_cat=0
split_feature=1 1 1 5 5 4 3 4 1 0 1 2 2 4 3 0 4 0 2
split_gain=4.58166 4.13981 6.5111 8.53583 8.18618 7.69691 5.41533 4.327 6.29801 8.78528 8.76369 10.1737 7.76254 7.62366 5.43344 5.08638 7.57501 6.81906 6.89622
threshold=11.691423392159155 792.08060756648285 762.30404264398783 -0.0042283651197473895 0.0083803786649360185 10.114995164727359 48.939923843591352 0.4062739871423206 15.471279108086035 15.342185983037238 14.520631097255974 -0.22467508612496465 -0.11367697562783495 0.31481699846777522 21.335175258240557 172.08629438221274 3.4767669757081143 10.551047462564298 -0.29223392346152705
decision_type=2 2 2 2 2 2 2 2 2 2 2 2 2 2 2 2 2 2 2
left_child=-1 2 7 -4 5 -5 -7 8 9 10 11 -2 -12 -10 -13 17 -17 -9 -19
right_child=1 -3 3 4 -6 6 -8 15 13 -11 12 14 -14 -15 -16 16 -18 18 -20
leaf_value=0.027705545708923553 0.053301393039954473 0.039622244613558393 -0.058632444704503663 0.065619346909852536 -0.056887429421333548 0.02274105077112433 -0.04697752653272716 -0.089359856313150146 0.048469229884647781 -0.042738892036970254 -0.011655289269140945 -0.067346463305871823 0.077034102530695869 -0.0030946267142024642 -0.015404696540003125 -0.044279223314345695 -0.0015203707700288786 0.039421681695872672 0.0032010856359096906
leaf_weight=14.779348894953726 5.0630949884653083 6.485947683453559 10.901015117764471 4.9354366958141389 5.5319494903087607 6.0581898838281614 5.1555652767419815 1.9687511026859272 8.7342143654823285 23.136857658624649 4.5614422708749771 5.6228860616683951 5.3736783266067487 39.980974137783051 48.138929456472397 10.498696044087408 772.2482472807169 13.365894317626951 782.25709655880928
leaf_count=60 21 29 48 22 25 27 23 8 37 108 20 25 22 169 207 46 3289 54 3240
internal_value=-1.72986e-05 -0.000250095 -0.000397574 -0.0225405 -0.00439388 0.0135879 -0.00931232 2.16498e-05 -0.00838345 -0.0160879 -0.0071202 -0.0144561 0.0363148 0.00615033 -0.0208372 0.000769501 -0.00209388 0.00357959 0.00380957
internal_weight=1774.8 1760.02 1753.53 32.5822 21.6811 16.1492 11.2138 1720.95 140.612 91.8969 68.76 58.8249 9.93512 48.7152 53.7618 1580.34 782.747 797.592 795.623
internal_count=7480 7420 7391 145 97 72 50 7246 609 403 295 253 42 206 232 6637 3335 3302 3294
is_linear=0
shrinkage=0.05


Tree=25
num_leaves=20
num_cat=0
split_feature=1 5 5 3 7 6 7 3 5 2 5 5 5 1 2 4 6 0 3
split_gain=4.21771 3.98173 5.87991 8.7197 6.47665 6.18555 5.9404 6.14693 7.30699 7.09777 7.12495 5.88588 8.33765 5.30355 5.52384 7.28526 11.9658 6.27279 6.25233
threshold=11.543690315325252 0.020713375768558698 0.00058906327694019389 67.810086555579815 -0.0054028893368301958 0.039538688362442016 -0.054705217132724242 50.028913066709954 -0.018523490954655771 0.048266211099230329 -0.020060010498977539 -0.0049505076715478094 -0.0024660275560725027 12.078136807077948 0.041593885823736874 4.5295575715446494 0.014618981490866269 218.41687595962699 38.169915257566977
decision_type=2 2 2 2 2 2 2 2 2 2 2 2 2 2 2 2 2 2 2
left_child=-1 2 3 6 11 13 7 9 -9 10 -2 -5 -13 -4 18 17 -17 -16 -15
right_child=1 -3 5 4 -6 -7 -8 8 -10 -11 -12 12 -14 14 15 16 -18 -19 -20
leaf_value=0.037961452672130656 -0.00080668734049180266 0.005454751751076123 -0.069445960794912887 0.04183416102400634 0.0060699708214040681 0.013354875806968368 -0.0023897140045727031 0.0049132108388778703 -0.065201673332865959 0.044665233252884178 0.038205997624284199 -0.05113748811113869 0.038100020415414458 -0.010269931724595853 -0.0046620019208585897 -0.0080640113645144302 -0.036103480584946529 0.040912328430665591 0.006906826968549779
leaf_weight=7.280210852622985 47.592715352773666 266.74649979174137 3.3220686316490164 28.786588132381439 97.139696002006531 42.412467688322067 671.5335047096014 12.580279707908632 5.2734808623790732 17.636682912707329 15.519747480750082 4.7306631207466125 5.8597635924816114 88.327785760164261 146.33516405522823 115.98421342670918 56.624522149562836 7.960985153913497 132.3778870254755
leaf_count=30 197 1108 14 118 406 177 2849 52 22 72 64 20 24 375 613 503 247 33 556
internal_value=-1.75367e-05 -0.000174036 -0.00117501 0.00135745 0.0130038 -0.00504471 -0.00070702 0.0107529 -0.0157967 0.0166231 0.00878677 0.0301091 -0.0017617 -0.00646116 -0.00607907 -0.0102053 -0.0172624 -0.00231057 3.25811e-05
internal_weight=1774.02 1766.74 1500 906.653 136.517 593.345 770.136 98.6029 17.8538 80.7491 63.1125 39.377 10.5904 550.933 547.611 326.905 172.609 154.296 220.706
internal_count=7480 7450 6342 3824 568 2518 3256 407 74 333 261 162 44 2341 2327 1396 750 646 931
is_linear=0
shrinkage=0.05


Tree=26
num_leaves=20
num_cat=0
split_feature=2 3 7 4 3 2 7 2 1 6 0 4 4 0 4 1 4 6 1
split_gain=4.06228 5.94998 9.32092 7.26407 6.78815 7.98244 5.37232 5.40208 5.35927 7.21802 5.34458 5.34342 5.30083 7.2407 14.7618 7.27839 6.13422 5.21478 4.76626
threshold=-0.11630428265010039 37.800780493385538 0.055626825374772822 8.0381841750757115 31.480812632491048 -0.29223392346152705 -0.10496972565376116 -0.047452914347568938 165.79680225932421 -0.017858921497958976 93.002995354375642 5.6714123879171989 7.2603601895967795 122.46638791295341 0.67706856231431212 13.249703061381163 0.41091504501698489 -0.01925409393569005 15.586321829177619
decision_type=2 2 2 2 2 2 2 2 2 2 2 2 2 2 2 2 2 2 2
left_child=1 2 4 18 5 -1 -2 -8 10 -10 -6 -11 13 14 15 -7 -17 -18 -3
right_child=6 3 -4 -5 8 12 7 -9 9 11 -12 -13 -14 -15 -16 16 17 -19 -20
leaf_value=0.049034072008431032 0.045525701199704338 0.00030311713665403752 0.063907949020300378 -0.038370592900859785 -0.020993633293742583 0.02897964251027331 -0.0087236177029272003 -1.7769590963445899e-06 0.038959392691122544 0.0063065800337142267 -0.0751590732612437 -0.06633662837498143 0.041876822262828697 -0.024997000100957418 0.052219705316817036 -0.067955212525156669 -0.040272513142953444 0.023498558986932497 0.022292880468980054
leaf_weight=8.5052450001239759 6.1805041283369055 34.248375296592712 5.1574783623218527 6.4374116808176032 12.817052677273752 7.4313663691282299 205.42321942746639 1307.7365538179874 6.5785841941833523 5.3170191347599012 7.0642346143722525 4.8319626599550247 6.2865786105394355 29.170625582337379 12.718043148517607 6.6956997662782696 6.5190458595752698 6.307415097951889 87.853372901678085
leaf_count=35 25 143 21 27 54 31 866 5539 27 22 29 20 26 121 52 30 27 26 359
internal_value=-1.7446e-05 0.00583623 -0.00191251 0.0133958 -0.0047357 0.00312421 -0.000995818 -0.00118583 -0.0226919 -0.00183567 -0.0402397 -0.0282791 -0.00207319 -0.00608665 0.00781819 -0.0131327 -0.0291633 -0.00891307 0.016125
internal_weight=1773.28 253.94 125.4 128.539 120.243 83.634 1519.34 1513.16 36.6089 16.7276 19.8813 10.149 75.1288 68.8422 39.6716 26.9535 19.5222 12.8265 122.102
internal_count=7480 1050 521 529 500 348 6430 6405 152 69 83 42 313 287 166 114 83 53 502
is_linear=0
shrinkage=0.05


Tree=27
num_leaves=20
num_cat=0
split_feature=1 1 0 3 3 7 2 3 0 4 4 3 1 5 4 4 7 6 6
split_gain=3.86165 3.81748 5.9954 6.75525 4.08646 7.06653 5.61627 9.42199 13.6949 9.12279 9.08738 4.25333 5.13081 6.4172 6.18133 9.53204 5.03138 4.79089 4.46194
threshold=11.691423392159155 792.08060756648285 807.33622624345139 59.507520559809457 76.845115911108664 0.06781332858549706 0.32040245078947777 57.878771153307078 177.77440562352942 5.2768107215621365 9.5228757956302701 81.146880792584469 176.70098567062885 0.018171559149338771 0.41091504501698489 0.5482710379454736 0.02464908788719478 0.021579577207693105 0.021579577207693105
decision_type=2 2 2 2 2 2 2 2 2 2 2 2 2 2 2 2 2 2 2
left_child=-1 2 4 -4 6 11 -2 8 9 -8 -9 16 14 18 -13 -16 -6 -18 -14
right_child=1 -3 3 -5 5 -7 7 10 -10 -11 -12 12 13 -15 15 -17 17 -19 -20
leaf_value=0.025504714122322188 -0.00023567203757641402 0.037896901489608698 -0.0056169802830435449 -0.058981585612617515 0.01021153891555927 -0.018296594474115149 0.0040329035697364256 -0.048619892431673375 -0.052215072809798271 0.088718719322583947 0.019078916143708838 -0.038406969794490806 -0.014376630350173872 0.026837273328901113 0.075596909324034262 0.010189223882952793 0.064753505229959707 0.019472326318962532 -0.069852218373540734
leaf_weight=14.698378145694731 1521.6396110504866 6.5406442731618872 17.103222087025646 9.0778903365135175 35.302797809243202 22.273009181022644 7.7688815742731112 24.094113186001781 6.0465706884860984 5.3840777426958084 6.2409509122371665 4.8721229881048194 16.361119762063034 7.6419562846422187 6.7073961794376364 32.853012591600418 10.70593708753586 12.856093496084211 4.6560937613248816
leaf_count=60 6426 29 75 41 146 94 32 102 27 22 26 20 70 32 27 134 44 53 20
internal_value=-1.72529e-05 -0.000230623 -0.000372996 -0.0241203 -1.26566e-05 0.00775387 -0.000775034 -0.0173435 0.0100668 0.0386985 -0.034692 0.0121509 0.00409506 -0.0123998 0.0147343 0.021279 0.0221538 0.0400468 -0.0266665
internal_weight=1772.82 1758.13 1751.58 26.1811 1725.4 154.23 1571.17 49.5346 19.1995 13.153 30.3351 131.957 73.0917 28.6592 44.4325 39.5604 58.8648 23.562 21.0172
internal_count=7480 7420 7391 116 7275 640 6635 209 81 54 128 546 303 122 181 161 243 97 90
is_linear=0
shrinkage=0.05


Tree=28
num_leaves=20
num_cat=0
split_feature=5 5 3 2 7 2 4 4 0 7 3 0 1 0 7 2 6 5 7
split_gain=3.71129 5.64814 7.85714 6.07493 6.12271 5.81906 8.52864 5.60553 10.6415 8.0484 6.6539 7.62504 6.76149 5.74425 8.04931 6.54165 5.6334 6.39545 4.89214
threshold=0.020713375768558698 0.00058906327694019389 67.810086555579815 0.33805482889017796 -0.021136996597551801 -0.2397800009623314 5.710689948224057 4.9454102865775491 190.61724009700498 0.031086073682483065 79.965158025898134 541.66748541058928 278.05841921737783 20.106220283014277 -0.00094452637788294813 0.14446701826239697 0.011937947961135455 -0.0044326299052638842 -0.054705217132724242
decision_type=2 2 2 2 2 2 2 2 2 2 2 2 2 2 2 2 2 2 2
left_child=1 2 18 4 -4 6 -3 9 -9 13 11 12 -10 15 -15 -6 17 -16 -1
right_child=-2 5 3 -5 7 -7 -8 8 10 -11 -12 -13 -14 14 16 -17 -18 -19 -20
leaf_value=0.0099274635715073528 0.0053771505423085911 0.079679371499861554 0.047572797812963578 -0.020814040079655555 0.010930356423053201 -0.0054478826721552596 -0.010404105984916855 -0.050571457618142995 0.016534723349201971 0.054308478653178782 -0.02790202017016177 -0.02102600888821447 0.075526358614547401 0.059083853525442813 -0.03658171397147577 -0.051925524033250098 0.047398110269966931 0.032416074286784273 -0.0019944066477739966
leaf_weight=98.667021706700325 270.23548218607903 4.9671854078769666 13.551150560379027 12.429062753915785 12.447226479649546 582.8307516425848 5.5778597295284271 8.8561091870069486 13.857149854302412 14.503127008676527 8.7404176592826825 7.6300386339426032 7.478999286890029 11.189797416329379 8.9514150768518412 6.2018238008022299 5.8884239196777335 5.3751547187566873 672.91460327804089
leaf_count=407 1122 20 55 52 52 2480 23 37 58 59 38 33 31 46 37 26 24 22 2858
internal_value=-1.71727e-05 -0.000987667 0.00148997 0.0125198 0.015843 -0.00478187 0.0320292 0.0119735 -0.00124961 0.021511 0.0103346 0.0218723 0.0372132 0.0120079 0.0250605 -0.00997264 0.00622723 -0.0106946 -0.000469882
internal_weight=1772.29 1502.06 908.682 137.1 124.671 593.376 10.545 111.12 46.5627 64.557 37.7066 28.9662 21.3361 50.0538 31.4048 18.6491 20.215 14.3266 771.582
internal_count=7480 6358 3835 570 518 2523 43 463 197 266 160 122 89 207 129 78 83 59 3265
is_linear=0
shrinkage=0.05


Tree=29
num_leaves=20
num_cat=0
split_feature=1 4 1 0 1 2 4 2 0 4 2 4 3 2 4 0 6 1 3
split_gain=3.55933 3.64655 5.82646 8.1494 7.81959 8.84802 6.85143 6.55872 5.22001 9.8445 12.5901 10.2315 10.2255 10.028 8.90096 8.01011 7.29268 6.24552 6.32788
threshold=11.543690315325252 0.4062739871423206 15.471279108086035 15.342185983037238 14.520631097255974 -0.22467508612496465 0.31481699846777522 -0.11367697562783495 151.79567338700915 4.0254096116411135 0.02123664761372766 4.4828403996624901 64.584703525428125 -0.027389021597910408 3.6493559411023968 147.05413826878961 0.011937947961135455 123.7870482341707 45.565659536277614
decision_type=2 2 2 2 2 2 2 2 2 2 2 2 2 2 2 2 2 2 2
left_child=-1 2 3 4 5 -2 -4 -6 15 10 -10 13 -12 -11 -14 -3 -15 -13 -19
right_child=1 8 6 -5 7 -7 -8 -9 9 11 12 17 14 16 -16 -17 -18 18 -20
leaf_value=0.035089591656652763 0.049444467048232597 0.0029889677796781245 0.046122789360462754 -0.041192555769819963 -0.010125582642966667 -0.01926294841170989 -0.0026202880780890011 0.071477433336611593 -0.04905679890717668 -0.011251343659505102 0.027819417506194235 0.054442990601422638 -0.058051457669753059 0.062443815966318705 0.011745425544400674 0.040972210197152026 0.012910310523998499 0.0034752789090896768 -0.0056509448226369332
leaf_weight=7.1906428337097159 5.1156474351882926 689.50921089947224 8.8000556379556638 22.722285479307175 4.5166037678718567 55.7583397179842 39.883025944232941 5.4137871116399747 24.587013080716133 14.57427556812763 15.528897747397421 4.8905593752861014 10.332177847623827 15.93323488533497 8.1873253285884839 14.16531430184841 13.924638152122496 303.79360833764076 506.81327800452709
leaf_count=30 21 2858 37 108 20 242 169 22 104 61 66 20 44 66 34 58 57 1290 2173
internal_value=-1.68795e-05 -0.000159949 -0.00783709 -0.0151389 -0.00677782 -0.013489 0.00619061 0.0343622 0.000513049 -0.00196939 -0.0217921 -0.000617756 -0.00210375 0.0227476 -0.0271948 0.00375359 0.0393432 -0.00189081 -0.00223068
internal_weight=1771.64 1764.45 142.21 93.5267 70.8044 60.874 48.6831 9.93039 1622.24 918.565 58.6354 859.93 34.0484 44.4321 18.5195 703.675 29.8579 815.497 810.607
internal_count=7480 7450 619 413 305 263 206 42 6831 3915 248 3667 144 184 78 2916 123 3483 3463
is_linear=0
shrinkage=0.05


Tree=30
num_leaves=20
num_cat=0
split_feature=1 1 5 5 4 3 2 3 7 4 3 2 1 6 4 0 2 0 4
split_gain=3.52922 5.47558 8.0894 7.51964 6.8784 4.76916 3.23061 5.52634 8.32384 6.63237 6.16228 7.03064 4.90835 6.44365 4.94784 4.93576 4.72524 5.49431 4.69399
threshold=792.08060756648285 762.30404264398783 -0.0042283651197473895 0.0083803786649360185 10.114995164727359 48.939923843591352 -0.11630428265010039 37.800780493385538 0.055626825374772822 8.0381841750757115 31.480812632491048 -0.29223392346152705 165.79680225932421 -0.017858921497958976 5.6714123879171989 93.002995354375642 -0.047452914347568938 409.58127023547979 7.2603601895967795
decision_type=2 2 2 2 2 2 2 2 2 2 2 2 2 2 2 2 2 2 2
left_child=1 6 -3 4 -4 -6 7 8 10 -9 11 -1 15 -14 -15 -12 17 -8 -13
right_child=-2 2 3 -5 5 -7 16 9 -10 -11 12 18 13 14 -16 -17 -18 -19 -20
leaf_value=0.045818947882663857 0.036520288509812725 -0.056258438698803107 0.062897318185649587 -0.0542214459540468 0.021952882577118638 -0.043952397141717475 -0.0091234516756319595 0.015310863043017157 0.05996394071336994 -0.036932832935255927 -0.02025111323900541 -0.0059342531288781976 0.03647143302095833 0.0061610087082650438 -0.063950118922143834 -0.072524155456246311 0.0004566752263405299 0.042314460021542925 0.03903956197821374
leaf_weight=8.5139617174863798 6.5845583677291861 10.641824513673781 4.9925690591335359 5.3596299588680258 6.0841865688562375 5.0015323758125305 196.99321484565735 122.24486431479454 5.1873596459627143 6.3926028609275809 12.758150190114977 68.579974308609962 6.6044715642929104 5.3121809959411603 4.7813733965158463 6.9899931252002707 1276.1549544483423 5.3319413214921942 6.3379936814308158
leaf_count=35 29 48 22 25 27 23 831 502 21 27 54 287 27 22 20 29 5402 23 26
internal_value=-1.70584e-05 -0.000153423 -0.0206219 -0.0029318 0.0141654 -0.00778153 0.00022565 0.00543832 -0.00204581 0.0127146 -0.00472909 0.00276348 -0.0218809 -0.00192636 -0.027051 -0.0387535 -0.00066883 -0.00776789 -0.00212951
internal_weight=1770.85 1764.26 32.0797 21.4379 16.0783 11.0857 1732.18 253.703 125.065 128.637 119.878 83.4319 36.4462 16.698 10.0936 19.7481 1478.48 202.325 74.918
internal_count=7480 7451 145 97 72 50 7306 1050 521 529 500 348 152 69 42 83 6256 854 313
is_linear=0
shrinkage=0.05


Tree=31
num_leaves=20
num_cat=0
split_feature=7 0 4 1 4 2 0 1 1 4 3 4 0 7 4 3 3 6 0
split_gain=3.24599 3.33127 5.17133 4.80327 8.57492 8.28184 9.46631 9.52584 10.369 10.1574 8.7829 8.49583 7.73026 7.61427 6.70049 5.45827 5.26585 5.22914 5.17062
threshold=-0.12261507640999157 12.441579591815726 0.52854123252715324 15.471279108086035 0.4062739871423206 0.11622765150898044 15.88815757767737 13.848853573088091 13.406713411604715 0.44519008270767813 47.176032079029518 0.45822928677757613 15.522264018975717 0.012192348359234108 0.31481699846777522 71.711446457771373 69.493762760586122 0.0052197447519767301 13.863942272923577
decision_type=2 2 2 2 2 2 2 2 2 2 2 2 2 2 2 2 2 2 2
left_child=-1 2 -2 4 16 6 7 8 9 -6 -11 17 15 -13 -5 -7 -3 -9 -16
right_child=1 3 -4 14 5 12 -8 11 -10 10 -12 13 -14 -15 18 -17 -18 -19 -20
leaf_value=0.033139066207954058 0.0059455245187933917 -0.029943439298449379 0.050866140895083116 0.04379663611238907 -0.060629263986190562 0.013578045857495547 0.061730037045290211 0.0027423709333175587 0.059076606408663301 -0.03206188551384951 0.051289113082789467 -0.0051839667453666138 -0.040960762373787006 -0.044183934066581547 0.031894464742067238 -0.031276787822812291 0.015564525213442364 0.05758166045373192 -9.2988850438589516e-05
leaf_weight=7.3511284142732611 64.470610424876213 49.77339993417263 7.1139139086008063 8.8619714528322202 4.9056658148765591 19.624230861663822 7.037066012620925 12.446163251996042 13.162811174988745 4.7913299351930609 9.2854971438646299 44.085862889885902 21.975405722856522 17.476582407951355 12.745239615440367 10.364275902509688 7.2874312102794638 6.6800539046525946 1441.0010759830475
leaf_count=30 270 231 29 37 21 81 29 53 54 20 38 186 95 73 52 44 30 28 6079
internal_value=-1.70107e-05 -0.000155254 0.0104096 -0.00060236 -0.00733751 -0.00176078 0.00546644 0.00195748 0.0249745 0.00132748 0.0229189 -0.00721221 -0.0184326 -0.0162554 0.000451679 -0.00192416 -0.0241315 0.0218956 0.000187451
internal_weight=1770.44 1763.09 71.5845 1691.5 228.896 171.835 119.871 112.834 32.1453 18.9825 14.0768 80.6887 51.9639 61.5624 1462.61 29.9885 57.0608 19.1262 1453.75
internal_count=7480 7450 299 7151 983 722 502 473 133 79 58 340 220 259 6168 125 261 81 6131
is_linear=0
shrinkage=0.05


Tree=32
num_leaves=20
num_cat=0
split_feature=5 5 3 2 7 2 3 3 3 3 3 7 5 2 2 0 1 2 4
split_gain=3.16785 5.08289 7.05713 5.49262 5.64357 5.41143 5.86502 6.36742 12.1108 6.11351 7.48999 8.61751 8.14009 6.77167 5.25831 6.60654 6.53102 6.35226 6.81852
threshold=0.020713375768558698 0.00058906327694019389 67.810086555579815 0.33805482889017796 -0.027949616140904739 0.0070625212633002648 88.214003669524033 57.48614776175647 56.920319569762285 76.845115911108664 81.146880792584469 0.02464908788719478 0.0039700200135568417 0.097445487808945505 -0.047452914347568938 237.37041061060265 14.063793628577585 -0.053621079602835728 0.39738370438247289
decision_type=2 2 2 2 2 2 2 2 2 2 2 2 2 2 2 2 2 2 2
left_child=1 2 -1 4 -4 14 7 8 -7 13 11 12 -11 -9 17 16 -16 18 -3
right_child=-2 5 3 -5 -6 6 -8 9 -10 10 -12 -13 -14 -15 15 -17 -18 -19 -20
leaf_value=-0.00042322062087189803 0.004965326333468351 -0.03030468092213754 0.054055447835389847 -0.019877831832000429 0.012145267895483272 -0.0040404016994370334 0.031507243034798252 -0.033801736767096843 0.071481363209804194 0.045930769817273343 -0.020188627111675243 0.046830727893898569 -0.030633269479875526 -0.012094775461034579 0.056140249015853697 0.035925327205531182 -0.0066563506873940489 -0.045225720714299228 0.0045339614311665022
leaf_weight=770.40799736976624 270.30433043837547 16.266593962907791 8.6302348971366865 12.375230982899664 115.99230843782425 174.81667667627335 9.2903294414281827 54.082079663872719 5.474726825952529 4.9908616095781388 25.029709592461586 13.308674350380896 11.403519988059996 107.03524766862392 4.766701251268386 22.830431371927261 31.515489608049393 8.3949190825223905 102.81378974020481
leaf_count=3265 1122 70 35 52 483 755 39 235 23 21 106 55 48 458 20 97 132 36 428
internal_value=-1.70322e-05 -0.000915212 0.00143621 0.0118927 0.0150476 -0.0045193 -0.00776225 -0.0086832 -0.00174711 -0.0144767 -3.93467e-05 0.0169397 -0.00732525 -0.0193811 0.00252723 0.0148533 0.00159377 -0.00318859 -0.00022506
internal_weight=1769.73 1499.43 907.406 136.998 124.623 592.02 405.432 396.141 180.291 215.85 54.7328 29.7031 16.3944 161.117 186.588 59.1126 36.2822 127.475 119.08
internal_count=7480 6358 3835 570 518 2523 1740 1701 778 923 230 124 69 693 783 249 152 534 498
is_linear=0
shrinkage=0.05


Tree=33
num_leaves=20
num_cat=0
split_feature=1 0 3 7 2 1 3 5 2 3 0 4 4 1 2 7 4 2 2
split_gain=3.20404 5.14093 6.11275 3.82523 5.713 3.03989 3.46763 6.08517 5.16969 8.37907 12.1911 8.32489 7.77485 4.90291 4.39253 8.12432 6.85737 5.44385 7.02557
threshold=792.08060756648285 807.33622624345139 59.507520559809457 0.0038610600950765854 0.068400472831382217 11.543690315325252 76.845115911108664 0.061937833217020628 0.32040245078947777 57.878771153307078 177.77440562352942 9.6028853039591819 5.2768107215621365 13.278895164282822 0.048266211099230329 0.053841917478139163 0.48144257828105436 0.24803235351249925 0.37900223291554996
decision_type=2 2 2 2 2 2 2 2 2 2 2 2 2 2 2 2 2 2 2
left_child=1 5 3 4 -3 -1 8 13 -7 10 12 -11 -10 -8 15 16 -15 -16 -19
right_child=-2 2 -4 -5 -6 6 7 -9 9 11 -12 -13 -14 14 17 -17 -18 18 -20
leaf_value=0.032812635793562021 0.034649053594038144 -0.023383675126582681 -0.056227359801359303 -0.038981904733339803 0.047175988791309707 -0.00014032106523845703 -0.040395488329810603 -0.049283392285293853 0.0038298953177797858 -0.045617049498092449 -0.050303140961463814 0.022270996856018091 0.081706152882307134 -0.0010605976569622335 -0.0023482266245020197 -0.027791768041583311 0.063552843599555528 0.03076670759425303 -0.010724479971107481
leaf_weight=7.1080152988433829 6.6404132992029181 5.7806246727705055 8.7674571424722654 5.5325635671615592 5.694966658949852 1525.661010235548 4.8748498111963263 4.6278804987668982 7.7729900032281893 24.486020818352703 5.9369957596063605 5.5368985980749121 5.4535602331161499 5.8539072722196641 70.174556583166122 4.8869111835956565 13.754898488521574 36.477533578872681 14.164245367050169
leaf_count=30 29 26 41 25 24 6453 21 20 32 105 27 23 22 24 293 20 56 150 59
internal_value=-1.70297e-05 -0.000147635 -0.0223136 -0.00483159 0.0116328 0.000181334 4.72358e-05 0.00718757 -0.000654692 -0.0166094 0.00922113 -0.033097 0.0359398 0.00892768 0.0105823 0.0298884 0.0442635 0.006668 0.0191618
internal_weight=1769.19 1762.55 25.7756 17.0082 11.4756 1736.77 1729.66 154.815 1574.85 49.1865 19.1635 30.0229 13.2266 150.187 145.312 24.4957 19.6088 120.816 50.6418
internal_count=7480 7451 116 75 50 7335 7305 643 6662 209 81 128 54 623 602 100 80 502 209
is_linear=0
shrinkage=0.05


Tree=34
num_leaves=20
num_cat=0
split_feature=0 4 1 3 4 3 4 1 0 0 4 2 1 3 4 3 3 1 0
split_gain=3.01896 7.81938 6.95888 6.48663 7.31272 9.75591 5.47901 5.3315 10.7698 8.99956 8.62825 8.88479 6.82304 5.66849 5.67586 5.41783 15.5904 13.9237 9.95449
threshold=550.98866795767844 7.3982104524154719 517.75627411191851 55.030772918581171 17.535778676329539 53.065881762559791 15.229992632153415 271.44721643307588 261.67456205016487 261.67456205016487 11.937955666909774 0.25511161876560745 234.87766074953612 24.835000057897286 4.8133972790155921 45.565659536277614 55.030772918581171 285.2592457366265 356.22219538663484
decision_type=2 2 2 2 2 2 2 2 2 2 2 2 2 2 2 2 2 2 2
left_child=2 -2 6 4 5 -3 7 9 -9 -1 11 12 -11 -14 -15 17 -17 -10 -19
right_child=1 3 -4 -5 -6 -7 -8 8 15 10 -12 -13 13 14 -16 16 -18 18 -20
leaf_value=0.00078300909516368735 -0.068728114056934353 -0.0082937011157158871 0.055701879692338419 -0.016075578757056373 0.038112779154970938 0.065938037613771802 -0.034536873450842158 0.077281143491661472 0.098562567917952537 0.020512600547386906 0.044760825350704664 -0.06334063792685872 0.032658551325173861 0.029155482563950608 -0.02722531909013854 -0.031754658010595613 0.012862766984005323 -0.024363491191777373 0.027525756995383149
leaf_weight=1359.2443829923868 4.9479842633008948 53.723159268498421 5.7092029750347129 66.209880158305168 13.944126486778258 4.8235851377248755 11.142941832542418 5.6605507880449286 5.1236489862203589 12.736589103937147 5.7241548150777808 9.8702107667922956 4.8968535214662543 4.8161192536354056 61.027610525488853 27.429589971899986 68.407519847154617 13.418609037995337 29.70109099149704
leaf_count=5703 25 236 23 295 61 21 48 23 21 54 24 46 21 20 272 118 289 56 124
internal_value=-1.6911e-05 -0.0069648 0.000597311 -0.00476147 0.00557233 -0.00217785 0.000403016 0.00064513 0.00962974 -0.000277417 -0.0148263 -0.0184802 -0.013176 -0.0192415 -0.0231014 0.00697189 9.27901e-05 0.0206375 0.0113781
internal_weight=1768.56 143.649 1624.91 138.701 72.4909 58.5467 1619.2 1608.06 149.741 1458.32 99.0715 93.3474 83.4772 70.7406 65.8437 144.08 95.8371 48.2433 43.1197
internal_count=7480 638 6842 613 318 257 6819 6771 631 6140 437 413 367 313 292 608 407 201 180
is_linear=0
shrinkage=0.05


Tree=35
num_leaves=20
num_cat=0
split_feature=1 0 3 7 2 7 0 1 4 4 1 0 1 2 0 0 0 2 1
split_gain=2.96002 4.68088 5.49028 3.5119 4.90436 2.888 2.86 5.20365 4.6399 4.63094 10.3793 14.3445 7.52311 6.89279 5.43033 9.65287 7.46284 11.1095 7.86599
threshold=792.08060756648285 807.33622624345139 59.507520559809457 0.0038610600950765854 0.068400472831382217 -0.12261507640999157 12.441579591815726 12.078136807077948 0.52854123252715324 0.42294748967124224 14.520631097255974 15.237253134412526 15.366361030008381 -0.059512454421416928 14.419298827153758 13.645556133676154 19.158008919909701 -0.029403337551219145 133.13513078489771
decision_type=2 2 2 2 2 2 2 2 2 2 2 2 2 2 2 2 2 2 2
left_child=1 5 3 4 -3 -1 8 -8 -7 10 -9 13 -13 -12 15 -11 17 -16 -18
right_child=-2 2 -4 -5 -6 6 7 9 -10 14 11 12 -14 -15 16 -17 18 -19 -20
leaf_value=0.031452865246275184 0.033199286855730217 -0.02202983662732191 -0.054143379570071065 -0.037906409031683963 0.043346874266434632 0.0056005528543937597 -0.047634044742135694 -0.032022836584330687 0.048214002785283455 -0.0028140615955172012 0.015804856956612736 -0.041930115677738321 -0.0021954431790614849 0.076567942234082809 -0.045429899826653894 0.032440217699174677 0.0070903985508315205 -0.0053740736442166159 -0.0014542209023398573
leaf_weight=7.3460004031658164 6.681557595729827 5.7187023013830238 8.527459189295767 5.4745732992887488 5.7559747248888016 64.425656348466873 5.807202234864234 36.253785446286201 7.0909255146980277 42.312477871775627 14.476328536868097 15.737831339240072 49.007132187485695 6.8878370225429526 20.09048256278038 35.882594898343086 379.93456219136715 125.0876207202673 925.33802817761898
leaf_count=30 29 26 41 25 24 270 25 165 29 176 61 77 210 28 86 145 1565 529 3939
internal_value=-1.73792e-05 -0.000143398 -0.0214198 -0.00495597 0.0107647 0.000168902 3.59341e-05 -0.000386642 0.00982571 -0.000220456 -0.00958008 -0.000131202 -0.0118539 0.035395 0.00052875 0.0133636 -0.000163189 -0.0109172 0.00103292
internal_weight=1767.84 1761.16 25.4767 16.9493 11.4747 1735.68 1728.33 1656.82 71.5166 1651.01 122.363 86.1091 64.745 21.3642 1528.65 78.1951 1450.45 145.178 1305.27
internal_count=7480 7451 116 75 50 7335 7305 7006 299 6981 541 376 287 89 6440 321 6119 615 5504
is_linear=0
shrinkage=0.05


Tree=36
num_leaves=20
num_cat=0
split_feature=2 3 7 4 3 2 1 6 0 4 7 2 1 0 0 2 6 6 5
split_gain=2.76016 4.8005 7.40097 6.16733 5.59826 6.26279 4.54206 5.79826 4.6082 4.53994 4.43159 4.41373 4.33113 8.28903 6.52893 6.26025 4.60684 5.42463 4.47408
threshold=-0.11630428265010039 37.800780493385538 0.055626825374772822 8.0381841750757115 31.480812632491048 -0.29223392346152705 165.79680225932421 -0.017858921497958976 93.002995354375642 5.6714123879171989 -0.10496972565376116 -0.047452914347568938 15.586321829177619 149.70175864496937 13.073763816626281 -0.19138841966251316 0.035124456934115596 -0.029279449992160918 -0.016021052094431661
decision_type=2 2 2 2 2 2 2 2 2 2 2 2 2 2 2 2 2 2 2
left_child=1 2 4 12 5 -1 8 -8 -6 -9 -2 -12 14 16 15 -3 17 -14 -15
right_child=10 3 -4 -5 6 -7 7 9 -10 -11 11 -13 13 18 -16 -17 -18 -19 -20
leaf_value=0.043109953019130481 0.041538887570503003 -0.023486005075406755 0.056244222462732141 -0.036432731127616462 -0.01954719762635114 -0.0022003215177037109 0.034389392531870323 0.005797169138470345 -0.070288008012173928 -0.061577297046916279 -0.0078340198338848789 7.1893481146137903e-05 0.06313387618818983 -0.025758846009402203 -0.052806605258884809 0.025140435777837075 0.067865918916586679 0.016603944693206935 0.012946564988870569
leaf_weight=8.4917062968015653 6.1475985050201407 10.165294736623766 5.1945461034774771 6.3597685843706122 12.6981797516346 74.833070352673531 6.6234667152166393 5.3175197094678861 6.9093763679265967 4.7194878309965134 204.2146680355072 1302.670720204711 8.1203762441873533 9.526001036167143 5.1674091666936866 18.97235395014286 8.6850062757730466 27.398909389972687 34.529382660984993
leaf_count=35 25 42 21 27 54 313 27 22 29 20 866 5539 33 39 22 79 35 111 141
internal_value=-1.74113e-05 0.00480877 -0.002182 0.0115752 -0.00471976 0.00241729 -0.0211169 -0.0019213 -0.0374274 -0.0258829 -0.000826686 -0.000999524 0.0140663 0.0199261 -0.00100983 0.00817606 0.0352232 0.0272416 0.00457738
internal_weight=1766.74 253.712 124.787 128.925 119.593 83.3248 36.268 16.6605 19.6076 10.037 1513.03 1506.89 122.565 88.2597 34.3051 29.1376 44.2043 35.5193 44.0554
internal_count=7480 1050 521 529 500 348 152 69 83 42 6430 6405 502 359 143 121 179 144 180
is_linear=0
shrinkage=0.05


Tree=37
num_leaves=20
num_cat=0
split_feature=1 3 3 2 2 4 3 3 2 1 3 4 0 4 2 3 4 4 2
split_gain=2.68534 3.01887 7.04994 5.40483 3.81852 7.12737 7.02136 8.09741 10.8316 6.25884 3.4803 3.01118 4.95191 9.08302 11.4181 9.42956 8.83928 8.76725 8.74803
threshold=11.543690315325252 88.214003669524033 92.408778332367987 0.22283859452877711 0.33805482889017796 9.6028853039591819 58.121751280586558 75.977624586795159 0.37900223291554996 241.47274437386559 50.936211212819764 0.42294748967124224 151.79567338700915 4.0254096116411135 0.02123664761372766 64.584703525428125 3.6493559411023968 4.4828403996624901 -0.027389021597910408
decision_type=2 2 2 2 2 2 2 2 2 2 2 2 2 2 2 2 2 2 2
left_child=-1 4 3 -3 11 6 10 -8 -9 -7 -6 -2 -13 14 -14 -16 -17 18 -15
right_child=1 2 -4 -5 5 9 7 8 -10 -11 -12 12 13 17 15 16 -18 -19 -20
leaf_value=0.030828703240933609 -0.0064672086878800718 0.0040035524670216337 -0.02228172844822017 0.067361056761487834 -0.015743603692985848 0.047404783634682771 -0.058216985891338405 0.031467495722036255 -0.053891517670111938 -0.025123749252963609 0.043632060810467159 0.0040678839045315551 -0.046979328424906458 -0.010340823287439222 0.026452353157753253 -0.059083626329818617 0.011494432187384544 -0.0015787646606193629 0.037145495895977723
leaf_weight=7.0277821570634833 160.10086765885353 5.9775834232568759 6.9082318246364585 7.7048128098249435 5.0012329965829831 7.7603517323732358 17.06071475148201 8.074430510401724 6.8859883099794379 4.8232429921627045 4.8723193109035492 645.09405773878098 24.270757243037224 14.50219205021858 15.61054092645645 9.6803062707185763 8.1891755461692792 777.39862629771233 29.281274512410164
leaf_count=30 704 25 29 32 21 32 74 33 29 22 20 2671 104 61 66 42 34 3331 120
internal_value=-1.698e-05 -0.000140205 0.0188925 0.0396813 -0.000365613 -0.0133941 -0.0233057 -0.034672 -0.00782159 0.0196049 0.0135566 5.58327e-05 0.000741086 -0.00170062 -0.0208674 -0.00193794 -0.0267393 -0.000352695 0.0214168
internal_weight=1766.22 1759.2 20.5906 13.6824 1738.61 54.4783 41.8947 32.0211 14.9604 12.5836 9.87355 1684.13 1524.03 878.933 57.7508 33.48 17.8695 821.182 43.7835
internal_count=7480 7450 86 57 7364 231 177 136 62 54 41 7133 6429 3758 246 142 76 3512 181
is_linear=0
shrinkage=0.05


Tree=38
num_leaves=20
num_cat=0
split_feature=1 0 3 7 2 5 3 2 3 2 2 6 4 1 4 0 4 3 4
split_gain=2.66108 4.24674 5.12358 3.21005 4.40879 2.49694 4.73461 7.03856 6.74011 5.44991 5.07561 8.89098 8.55824 5.71484 4.97793 5.63225 7.14664 5.92925 5.39812
threshold=792.08060756648285 807.33622624345139 59.507520559809457 0.0038610600950765854 0.068400472831382217 0.020713375768558698 75.216364217623109 0.048266211099230329 83.230229545272081 0.072461833092414232 0.27061409476797216 -0.013347739476890939 1.0371746988419102 103.70447792805128 0.5482710379454736 20.482805572752657 1.0787014031513789 80.417071749772504 2.0152240914610182
decision_type=2 2 2 2 2 2 2 2 2 2 2 2 2 2 2 2 2 2 2
left_child=1 5 3 4 -3 6 10 8 -8 -9 -1 13 -13 -12 -11 -16 -17 18 -18
right_child=-2 2 -4 -5 -6 -7 7 9 -10 14 11 12 -14 -15 15 16 17 -19 -20
leaf_value=-0.00080176320513579414 0.031346593786675758 -0.021029680963102232 -0.052584264592259337 -0.036455076769844628 0.040986091003570035 0.0045862252221289482 0.049744971185146307 -0.032476966445819322 -0.0077108192134333594 0.04134628021544904 -0.018654485234951168 0.018761514599723195 -0.03416583211528456 0.034717268274642755 -0.042024486264454847 0.053242762045313613 -0.031733368290995947 -0.01122932360417297 0.024806646685562903
leaf_weight=1257.0417933315039 6.7372776269912711 5.6719600260257774 8.335345655679701 5.3986247628927222 5.792763888835907 269.0548043847084 17.117717623710636 9.8999395221471769 7.2731109559535971 9.2543755918741208 8.3490975499153155 9.2290198355913144 44.296576648950577 12.561950340867041 6.4920334219932547 7.3961027115583411 4.9123694896697989 40.679161563515663 30.018389075994492
leaf_count=5346 29 26 41 25 24 1117 70 42 30 38 35 39 191 53 28 30 20 172 124
internal_value=-1.70537e-05 -0.000137197 -0.0205158 -0.00466479 0.0103049 0.00015902 -0.000654325 0.0083393 0.0326122 0.0028904 -0.00155298 -0.0142391 -0.02504 0.0134077 0.00643598 0.00282615 0.00633399 0.00174541 0.0168553
internal_weight=1765.51 1758.78 25.1987 16.8633 11.4647 1733.58 1464.52 133.043 24.3908 108.652 1331.48 74.4366 53.5256 20.911 98.7524 89.4981 83.006 75.6099 34.9308
internal_count=7480 7451 116 75 50 7335 6218 554 100 454 5664 318 230 88 412 374 346 316 144
is_linear=0
shrinkage=0.05


Tree=39
num_leaves=20
num_cat=0
split_feature=2 3 7 4 3 2 1 6 0 4 4 0 4 1 4 7 1 7 4
split_gain=2.52425 4.28649 6.59518 5.60442 5.11149 5.63567 4.21452 5.25942 4.29399 4.21807 4.1959 5.74088 12.0092 6.54636 5.38264 6.01951 4.19716 4.16455 4.04721
threshold=-0.11630428265010039 37.800780493385538 0.055626825374772822 8.0381841750757115 31.480812632491048 -0.29223392346152705 165.79680225932421 -0.017858921497958976 93.002995354375642 5.6714123879171989 7.1241586312791858 122.46638791295341 0.67706856231431212 13.249703061381163 0.39271076738794181 -0.044400500739303843 159.90703867364149 -0.12261507640999157 6.3503760619968324
decision_type=2 2 2 2 2 2 2 2 2 2 2 2 2 2 2 2 2 2 2
left_child=1 2 4 -3 5 -1 8 -8 -6 -9 11 12 13 -7 -15 -16 -13 -2 -18
right_child=17 3 -4 -5 6 10 7 9 -10 -11 -12 16 -14 14 15 -17 18 -19 -20
leaf_value=0.041015783513996408 0.056527495009213974 0.013355823025325026 0.05311292627622452 -0.034954674599457468 -0.018685356202697311 0.027492975629508361 0.032857006860407934 0.0058417315058119472 -0.067921518850590223 -0.059358943866857361 0.035292424954961196 -0.063207092562455255 0.04701254619799107 -0.072769511010098917 -0.055116023886885801 0.012363573325042648 -0.003122376389199627 -0.00091131053023156723 -0.054478743304143297
leaf_weight=8.4823289662599546 3.1623255908489218 122.6236462444067 5.1983474791049948 6.3122930824756613 12.639889568090441 7.4465017765760448 6.6339934468269375 5.3128506988286954 6.8162563592195502 4.6530708074569702 6.854558899998664 5.2405673414468792 12.549508601427076 4.9311045110225704 5.193933203816413 9.0867650806903821 18.607010796666149 1508.364085495472 4.8325966149568549
leaf_count=35 13 502 21 27 54 31 27 22 29 20 28 22 51 23 22 38 78 6417 20
internal_value=-1.68928e-05 0.0046012 -0.00201705 0.0109907 -0.00441965 0.00239307 -0.0201448 -0.00163808 -0.0359347 -0.0246003 -0.00199011 -0.00575448 0.00668114 -0.012305 -0.0277308 -0.012179 -0.0227548 -0.00079114 -0.0137106
internal_weight=1764.94 253.415 124.479 128.936 119.281 83.2249 36.0561 16.5999 19.4561 9.96592 74.7425 67.888 39.2078 26.6583 19.2118 14.2807 28.6802 1511.53 23.4396
internal_count=7480 1050 521 529 500 348 152 69 83 42 313 285 165 114 83 60 120 6430 98
is_linear=0
shrinkage=0.05


Tree=40
num_leaves=20
num_cat=0
split_feature=1 3 4 7 2 4 4 4 3 1 6 7 4 2 1 1 0 1 0
split_gain=2.42009 2.73906 6.50688 5.18441 3.33846 7.01728 4.59183 5.84606 12.4433 5.60486 3.68583 2.97059 2.76475 4.44046 5.84811 8.11072 7.58502 9.67468 7.19765
threshold=11.543690315325252 88.214003669524033 1.4456968033234396 0.03796219569624127 0.33805482889017796 2.2297793342234367 4.1874298009492543 9.6028853039591819 58.121751280586558 241.47274437386559 0.040647799140357217 -0.0091730559650015069 0.42294748967124224 0.13294125048698535 15.471279108086035 16.168110612709025 15.744591686803792 14.520631097255974 12.441579591815726
decision_type=2 2 2 2 2 2 2 2 2 2 2 2 2 2 2 2 2 2 2
left_child=-1 4 -3 -4 12 -6 -7 8 -8 -9 11 -10 13 14 16 -16 17 18 -2
right_child=1 2 3 -5 5 6 7 9 10 -11 -12 -13 -14 -15 15 -17 -18 -19 -20
leaf_value=0.029391881685526623 0.0029134243886562083 0.049791772820353832 0.023243644083198095 -0.044069888960296122 -0.046006760773513816 0.0427664511901076 0.033459255777200637 0.044946280851385252 -0.028059417345670842 -0.023861454977613515 -0.0086131819375667371 -0.078339058722172117 0.00070103309101754603 -0.045226225551262753 0.052159753365213314 3.4124730326829105e-06 -0.040128469312073194 0.032134595313731591 -0.028854457498513647
leaf_weight=6.9679855257272711 36.910392060875893 9.0330326557159442 6.4015878289937955 5.1710548996925354 12.166322976350783 4.870906949043273 6.9532826989889172 7.7996360361576063 4.6466684937477103 4.7693007290363312 4.8613605797290793 7.9870959222316769 1522.9526929110289 6.9752898365259162 9.2170681059360486 38.966462373733521 18.489824488759041 14.680932328104971 34.491972014307976
leaf_count=30 156 37 27 22 52 20 29 32 20 22 21 35 6429 30 38 166 92 63 159
internal_value=-1.66238e-05 -0.00013323 0.0179892 -0.00683436 -0.000348245 -0.0125792 -0.00287028 -0.00887536 -0.0231223 0.0188371 -0.0456102 -0.0598463 4.46626e-05 -0.00621345 -0.00443202 0.00998044 -0.0110728 -0.0048319 -0.0124325
internal_weight=1764.31 1757.34 20.6057 11.5726 1736.74 54.0546 41.8883 37.0173 24.4484 12.5689 17.4951 12.6338 1682.68 159.732 152.757 48.1835 104.573 86.0833 71.4024
internal_count=7480 7450 86 49 7364 231 179 159 105 54 76 55 7133 704 674 204 470 378 315
is_linear=0
shrinkage=0.05


Tree=41
num_leaves=20
num_cat=0
split_feature=1 1 1 3 7 6 1 0 0 2 2 0 0 4 7 1 1 3 2
split_gain=2.44752 10.7472 7.93155 8.63541 9.38375 7.8245 6.19302 7.70849 18.2357 6.7699 5.55295 4.78566 5.47307 8.35363 4.78389 4.74505 10.3824 5.41669 4.64063
threshold=223.14502183085622 228.70675086818625 230.89571263462599 26.839259549676132 -0.065592839508329268 -0.034977428261988346 220.49006743992473 257.10234134459228 243.0708474208125 0.25098825598540814 -0.29223392346152705 244.7191391563907 267.19570147347213 10.016805749550029 0.03796219569624127 271.44721643307588 285.2592457366265 40.963802647409743 -0.061654074319741937
decision_type=2 2 2 2 2 2 2 2 2 2 2 2 2 2 2 2 2 2 2
left_child=6 -2 -3 4 -4 -6 7 8 10 -9 -1 -7 -13 -14 -8 -5 17 -17 -18
right_child=1 2 3 15 5 11 14 9 -10 -11 -12 12 13 -15 -16 16 18 -19 -20
leaf_value=0.042193266621216835 -0.029990019751140337 0.052156431709670041 -0.042097230817177519 -0.010207100214566516 0.085186161397378932 0.059046380866111151 0.041979632624636311 0.0066267995882124736 0.08491279263528817 -0.068598048723570185 0.00042639574578678474 -0.024488818605603976 0.07534125407571593 0.0015018744985053976 -0.014107758348646054 0.07422567060408207 -0.050508051224388978 0.018159046989060155 -0.0021390938019562235
leaf_weight=8.0122743248939496 34.086048990488052 6.9249015301465979 5.3260057270526877 174.35816761851311 5.2890676707029334 6.149131745100024 15.653693377971651 4.9981267601251584 6.4651370197534552 7.447444885969162 1173.2777267992496 7.9530300050973919 5.6817743778228786 11.754903063178061 5.0213473439216605 5.1459239274263409 5.059833198785781 26.452711775898933 248.53347231447697
leaf_count=33 145 29 22 758 22 26 66 21 27 34 4929 34 24 51 21 21 22 111 1084
internal_value=-1.66631e-05 -0.00281039 -0.000988935 -0.00172249 0.0199364 0.0289076 0.00122523 0.000757839 0.00116802 -0.0383878 0.000709686 0.0194696 0.00988456 0.0255626 0.0283577 -0.00370922 0.000263391 0.0272896 -0.00310418
internal_weight=1763.59 542.715 508.629 501.704 42.1539 36.8279 1220.88 1200.2 1187.76 12.4456 1181.29 31.5388 25.3897 17.4367 20.675 459.55 285.192 31.5986 253.593
internal_count=7480 2349 2204 2175 179 157 5131 5044 4989 55 4962 135 109 75 87 1996 1238 132 1106
is_linear=0
shrinkage=0.05


Tree=42
num_leaves=20
num_cat=0
split_feature=1 0 3 2 7 3 3 2 1 2 4 4 4 3 1 6 0 0 2
split_gain=2.40259 3.87736 3.07624 5.15543 2.2865 2.22659 5.99708 3.40799 3.13173 3.01742 6.43546 4.1224 5.41985 10.6302 5.36221 3.73907 2.61316 19.0012 8.96284
threshold=792.08060756648285 811.9180544919468 62.826290405036424 0.15607575155958239 -0.12261507640999157 88.214003669524033 92.408778332367987 0.22283859452877711 11.543690315325252 0.33805482889017796 2.2297793342234367 4.1874298009492543 9.5228757956302701 58.121751280586558 241.47274437386559 0.040647799140357217 21.733563191441647 31.686414833431126 0.20469338683158297
decision_type=2 2 2 2 2 2 2 2 2 2 2 2 2 2 2 2 2 2 2
left_child=1 4 3 -3 -1 8 7 -7 -6 16 -11 -12 13 -13 -14 -15 18 -18 -10
right_child=-2 2 -4 -5 5 6 -8 -9 9 10 11 12 14 15 -16 -17 17 -19 -20
leaf_value=0.028126086034027654 0.029677197670097261 -0.03369581418363516 -0.052943880953495961 0.031667028563950206 0.03395122716789524 0.0060036454522500709 -0.021856369886033809 0.056472310452096622 -0.0015241563857845853 -0.044195092340459735 0.040421180858639875 0.029603133480191703 0.039922678458773904 -0.060573033077787421 -0.02515832009626557 -0.0082211644968625073 0.04626002288166331 0.00036347448407957246 -0.032559796670036265
leaf_weight=7.2534549236297599 6.7859190553426734 8.029388368129732 5.8217037916183463 4.832379773259162 6.6857893615961066 5.7466055899858501 6.8594087511301032 8.0038895756006223 408.13683687150478 12.040859341621397 4.8926754593849173 6.7403112202882793 8.7752214372158033 11.484994456171991 4.9505647271871558 4.8513666540384284 22.985050484538078 1193.5449905097485 24.668987050652504
leaf_count=30 29 37 29 21 29 24 29 33 1742 52 20 28 36 51 23 21 93 5046 107
internal_value=-1.67796e-05 -0.00013151 -0.0227877 -0.00913791 0.000112097 -5.33354e-06 0.0163308 0.0353805 -0.000202254 -0.000336331 -0.0119962 -0.00269768 -0.00843009 -0.0232282 0.0164495 -0.0450262 4.35512e-05 0.00123064 -0.00329312
internal_weight=1763.09 1756.3 18.6835 12.8618 1737.62 1730.37 20.6099 13.7505 1709.76 1703.07 53.736 41.6951 36.8025 23.0767 13.7258 16.3364 1649.34 1216.53 432.806
internal_count=7480 7451 87 58 7364 7334 86 57 7248 7219 231 179 159 100 59 72 6988 5139 1849
is_linear=0
shrinkage=0.05


Tree=43
num_leaves=20
num_cat=0
split_feature=0 4 1 3 0 1 2 7 4 4 1 3 4 1 0 0 4 4 0
split_gain=2.27871 7.46299 6.25322 5.70065 6.50405 6.74562 5.51673 5.33913 6.64106 5.76788 6.74762 5.96677 5.32839 4.79785 9.47345 7.597 7.76182 6.03963 5.75119
threshold=550.98866795767844 7.3982104524154719 517.75627411191851 55.030772918581171 589.26034624384374 719.87575891117774 0.02123664761372766 0.019132688833173431 18.580498331491047 14.761958790153615 762.30404264398783 36.876684857497608 15.229992632153415 271.44721643307588 261.67456205016487 261.67456205016487 12.400567468316149 4.5582043968951789 265.51926061205876
decision_type=2 2 2 2 2 2 2 2 2 2 2 2 2 2 2 2 2 2 2
left_child=2 -2 12 4 6 -6 -3 8 9 11 -11 -7 13 15 -15 -1 17 -17 -19
right_child=1 3 -4 -5 5 7 -8 -9 -10 10 -12 -13 -14 14 -16 16 -18 18 -20
leaf_value=0.00066423988961247544 -0.067460568554414499 0.01861632904581273 0.052667943480982041 -0.014646951181315412 0.04440655002431243 0.066170335880948256 -0.039868315618985427 -0.045107858906398068 0.056496815545770553 0.010874394482935311 -0.064656233854895315 0.00056138305038038719 -0.034208736545636269 0.072366607835820981 0.0065919696353420633 0.037541139343334133 0.049637050171690643 -0.05011417896034303 -0.014482881581201625
leaf_weight=1355.4012375026941 4.7857445776462546 6.0695552676916149 5.7276007384061804 65.356494948267937 13.915198668837546 4.8289417177438798 12.012151986360548 4.8616829961538306 6.4862535446882239 6.0042942911386472 5.8261939585208893 12.272554412484167 11.089009463787077 5.6905339509248725 144.08891978859901 4.8348909467458716 4.6023404598236075 13.332171261310576 75.219075635075569
leaf_count=5703 25 26 23 295 60 21 53 22 28 26 27 55 48 23 608 20 19 60 338
internal_value=-1.65908e-05 -0.00608022 0.000516486 -0.00394592 0.0057305 0.0143942 -0.0202366 0.00402603 0.0107704 0.000518997 -0.0263224 0.0190874 0.000331446 0.000570358 0.00909093 -0.000307732 -0.0137523 -0.0168763 -0.0198475
internal_weight=1762.4 142.419 1619.99 137.633 72.2768 54.1951 18.0817 40.2799 35.4182 28.932 11.8305 17.1015 1614.26 1603.17 149.779 1453.39 97.9885 93.3861 88.5512
